{"weights":{"hidden":[[-0.05211313158525121,-0.05775079752374172,-0.038052323782522046,-0.04866459369792612,-0.06449860099090622,-0.04666371488427023,-0.011556710358428424,-0.05088798464018777,-0.022179599135694936,0.05898968639541489,0.010629068841890073,0.06454081105954847,-0.059207927429124105,0.06623963211202522,-0.027223317128321985,0.008748649754576305,0.023706026541590805,0.06523697932129985,0.06330090172428485,0.07395260164581635,0.045311485368050006,-0.036377354756906406,-0.00705209366291799,0.03840265705303704,0.06299905120071256,0.060853150084083464,0.019195821001115713,0.061409261279616906,0.061189537863735106,-0.053128483765279295,0.015509284657716884,-0.06369223089249242,-0.055794847755501094,-0.00810159012174674,-0.030268201447445676,0.002392052621750262,-0.04490040470547047,0.07067742830579349,0.015770125920262598,0.037504000877001745,0.04963961410588788,-0.027168041169369935,0.040205936331316014,-0.059086719598553286,-0.05942498884817713,0.05311867451078613,0.025770674847023434,-0.0772807616534839,0.05682683491011002,0.03831817614946644,0.07024372064333033,-0.04932922795278998,-0.004169881768076147,0.0651222905579633,-0.020876045543500983,0.04346654729079341,-0.03245693773089787,-0.07319040423761901,-0.019010703467905687,0.07786320960962578,0.0003388800759765007,0.052515710321026206,-0.05531513805678251,0.000586418432542895],[0.06533140889584374,0.006743946555333547,0.06948444662455709,-0.03791064595968777,0.014893572275576921,-0.05062966144768593,0.04128327860138013,-0.013891802296197922,-0.01683141121621918,0.0036185607941435945,-0.07303273306965026,0.023754260250760897,0.032188717987133186,0.04264261298706016,0.06363325673457235,0.06294875721423486,-0.04539074237488933,0.04360347881338052,-0.038052272034547044,0.05025023102153949,-0.04629250873549714,0.013386781850089399,0.009304126468682311,0.06770073438766183,0.0760034703441571,0.007578370359125996,0.006835665076603365,0.043610818652434664,-0.06774575138057358,0.050368498641036714,0.038723057503087736,0.08455553154232487,-0.03238781719468184,-0.06269264055234684,0.056166298689603704,-0.08197358445057557,-0.03622027261792909,-0.04118683121721425,-0.036752520483349906,-0.014051591703654888,0.03476297626316353,-0.021987297502365048,0.0004891938337120994,0.035225645905835566,0.034792332059441995,0.05265261416673959,-0.03682461128796952,-0.05855560652891613,-0.00971290674842259,0.0056404698699035515,0.01256485107958513,0.0350493276669895,-0.041543042814370275,0.03484414936762084,-0.03670639333532332,0.0023759430397193044,0.032479817724414155,0.039596932008899,-0.033565209704998426,0.06079894065203593,-0.04731360773848717,0.02961685962783452,-0.058540370438038725,0.043936859033686944],[0.024455840392158548,-0.07278502205766067,0.06653809715466365,-0.00400465262238054,-0.009254703240316886,-0.006396878918114518,0.04533927532419187,0.01935749470406477,-0.022305595604670287,-0.0684256470384173,-0.020499687506118722,-0.02304685676542713,-0.03069466970209223,-0.01680740471334483,-0.031642304813748086,0.06553700340739509,0.06363313737757871,0.013921775866039612,-0.03128600696187808,0.004891177068589132,-0.04528592074490468,0.06981460209927368,-0.01587057250860849,0.07352046924315393,-0.06956997705110474,-0.0541068957105214,-0.013351077232195554,0.05118857981746099,-0.07115743133817798,0.08173036609643192,0.06814047342060259,-0.020485996839577476,0.06781818345053486,-0.06523852544860376,-0.05818159368344837,0.07473012827307964,0.07014469945864876,-0.045896549255395,0.011471721374243902,-0.05653442826329627,0.07877528599908479,0.03910944087236564,-0.03974841857521411,0.07320836111839706,-0.0652434542824255,0.050639241404249614,0.06428945590098954,0.038050114282210126,0.055208637346831575,-0.07330004066205757,-0.036850706130769344,0.004013614248876134,-0.05206729824229353,0.012161569736429534,-0.007233794519596647,0.06679567870464988,0.0037674328781646723,0.06101009223959232,-0.05289684619242775,-0.03958409529997087,-0.04218369841987229,-0.013227503540593957,0.05380003230275924,-0.03295271099169349],[-0.04792244037958395,0.021868118091199665,0.035348419240484305,-0.05711124022906342,0.014344795316756708,0.01639296708394282,-0.05209480695045694,-0.06856658669836571,0.05229454414223994,0.059210106382350705,0.003630188928035367,0.053446346916008795,0.07394076988482234,-0.06175483703861897,0.031333171870802715,-0.08007124939536012,0.03967734565070037,0.06211528950594122,0.0778012398262877,0.009829272922423998,0.06593782295463173,0.0675399456966301,-0.04859397200092462,0.01536318096898654,-0.05284879538575364,-0.0014424279865536023,0.06586339233883808,-0.03520994708718409,0.0228550337447975,0.019312024429093112,0.0067890944729550005,-0.07310903762313976,0.0010639745038955384,-0.07116377168515124,-0.06661268423632796,-0.04407718178593109,0.039627164185184395,-0.014371018359390976,-0.018563256038822598,0.05015399111161872,0.05168704677453098,0.05857312529660645,0.07590421246883838,-0.04173265310103297,0.04684794353759032,0.011722129253987988,0.06809156904622404,0.02132728449052295,0.0031081939482451824,-0.0012585282942268487,-0.07534833433656503,-0.016629774949644762,-0.05139373657013965,-0.006301804115792893,-0.050942373232160595,0.061481742032165915,0.034037586464698795,0.05051512486471564,0.04301310772912715,0.020057214307648726,-0.04516679615410445,0.07022916917521609,0.0191327564617694,-0.07954126833222101],[0.03237542471717876,-0.026544767181441612,-0.05468534793404306,-0.06501209344170902,-0.030684809691839926,0.014557482479195331,-0.04026741481499209,-0.02510121012517423,-0.011275578759256494,0.058681536935992484,0.019881456456557943,-0.05613587210195458,-0.06833687758219491,-0.008313980716565264,0.05493012594411083,-0.025085358490554207,0.022584429160978414,0.021402169649592708,0.0022340453318958997,0.0008142732172252505,-0.018977221779704675,-0.054743345123452074,-0.01854048425027638,0.06276644777820775,0.023741358243908654,0.007707263374256311,-0.057593424860167004,-0.04142959072322871,-0.04565861216679062,-0.02623800234653498,0.07255386897559814,-0.07813781320235337,-0.01919565507418555,-0.0302869018816154,0.0051990336377926785,-0.07174862869074758,-0.06527942013675755,0.01436916062637649,0.05492261701569579,0.03626371522958494,-0.060090314983376046,-0.008692827916148546,-0.020257651604969597,0.04824300690868941,0.01901377779974601,0.07831612723186962,0.06598381521104277,-0.006066296791441452,0.000024788097817254507,-0.05914870557487606,0.04710208994376116,-0.04615938874934358,-0.06918085604545869,-0.03619658659809602,-0.04025496431110669,-0.025739723253782095,0.023500014060456847,0.020153786257963952,-0.07356222154967636,-0.0645186104018126,-0.033253826393749825,0.07152518712936998,-0.0652385355304168,0.05589418729127114],[-0.055207730564670876,-0.03489356278204707,-0.05707029535359791,-0.05398102077085609,0.04580811794532778,0.007051549268375877,0.05607972123633958,0.06448207183151146,-0.059179103989074236,0.059693261668626256,0.03684573351692629,-0.026263793257029086,-0.012965425511696093,0.06012093196319268,0.029003126947213496,0.006165142064624607,0.06610149209492482,0.03405423722278514,-0.021467116006221598,-0.05567045273637703,-0.029771824423714205,0.004373864060731614,-0.028687643212888615,-0.07592891811909634,-0.03125706199570906,-0.008689936735112931,0.053634944864418346,0.011137497818111622,0.028755696508430437,-0.011423911925217712,-0.01269098670687763,-0.05284069903410149,-0.07238244271537393,-0.07302071686377754,0.07389124369024011,-0.0681025068183075,-0.0031923266869759376,0.050851939011199,0.06708790700554172,0.02692771109138753,-0.05700586817222637,0.05115792095317706,0.058590578817505096,-0.06334889497131357,-0.05803684178384107,0.0010622102234932368,-0.0508315772296341,0.019361047818636953,0.03482147514125497,0.031433912917104484,0.06396302165862017,-0.05931545094729888,-0.027934902497373227,0.056139263828625226,-0.07533954498955746,0.05223613268773064,-0.03301759142096816,-0.013682551467991251,-0.06153448376850573,-0.07274301344479192,-0.060817880952985605,0.07824510988461476,0.020232553776877004,0.05310745859225963],[0.05391025692605471,-0.04509388877150421,0.061684721251092055,-0.0603201224264389,0.029094309072613747,-0.02328092351436168,-0.030674840288376897,0.039299559709767784,0.007112487923276794,0.01907917916912118,0.07741208037368416,0.012614833063387553,-0.055631003641140445,0.07307458871791302,-0.04259144516356673,0.07162157891749746,0.037825411458412644,-0.0002660799214214309,-0.0732617749355224,-0.020539933631012742,-0.06882097504133151,0.0028300852741093164,-0.05930931264620228,0.03229316481966175,0.06638783012494058,-0.06986483434390077,0.027962103053786016,0.016934116403087524,-0.04079635952010575,0.048104537620398534,0.03267629571293481,0.0118890993666317,0.07349586247704819,0.028823477714546294,0.02929299592791006,0.06948539138831009,0.03872790635663932,0.05014658040981087,0.038504806020126216,-0.05512041517513914,-0.06787389791422377,0.051338484413639536,0.06182652827525104,0.0772856615349937,-0.022774568195908985,0.009924310941818776,-0.008364946880395812,0.07643368889135464,-0.020796974218754753,0.03964239148945677,0.053890211825261415,-0.02428428438331827,0.001750337605515425,-0.071054076939744,-0.036104928432542455,-0.03680669902345092,-0.014113053607841377,-0.04888465197108412,0.07082415616063857,0.030953266383519643,-0.0762030012301739,-0.04026952136590477,-0.07206187534588908,-0.07603027485953197],[0.004415649371371764,0.02783401402715861,0.031080575958465705,-0.07584547532461483,0.019035914108398146,-0.005860279986449716,-0.04400189109956384,0.00490629361245752,0.0330225197340322,0.057256242794425934,0.046148958210649065,0.026786277930568116,0.05994625310415372,0.067582268073249,0.05406785027593494,0.05558106498943712,0.0027571146002170438,-0.025254228406305288,-0.07124688731181705,-0.058332791385610074,0.03487111577835135,-0.013270963516697194,-0.04272329705792805,0.03874161785305082,-0.06058273549118466,-0.013325233405009854,-0.0007014100335012097,0.057617234388062204,0.03223099469929948,-0.05929069745570986,0.0697651814066075,0.044321489935582825,-0.07599695273576194,0.009358215522490927,-0.025257769130025552,0.06327398060720306,0.009105872735341221,0.016113192940639075,-0.0137551601348133,0.027796798773761924,-0.0784145438478118,-0.010346897951247222,0.0015642951524327353,-0.06630571165059664,-0.07399428763866961,0.014581275849322815,-0.003604220633508435,-0.04103033038989113,0.003309398168104455,-0.02063939140367422,0.03851828837394776,0.06274818952017143,0.06662280538736086,0.0714458530898306,0.043311694342547724,0.02490166606672036,0.004578705763491883,0.07304438705731858,-0.05594335765985451,-0.033002083552265436,-0.042062004635058714,-0.051352026535047564,0.024887812087631,0.0372078978175763],[-0.03528682105234115,0.035723585555190576,-0.04873930260527549,-0.04628921337787966,0.07136103594896348,-0.00028392680542694144,-0.03586005912227021,-0.01523044198442345,-0.0003872207571604513,-0.061718821206494315,-0.0676264732631651,-0.0012661869320955575,0.03243388848235765,0.000579659091226997,0.07782644215943124,-0.01731030632218808,0.04808102447721476,0.03067501005167118,0.07365495726441257,0.0007681067140979183,-0.010844051456696448,0.05749320654437922,-0.075479233355316,0.03605429637496068,0.06652536270248845,-0.06631814519411357,-0.0051915064185735415,-0.022102868649726406,0.06285832023206346,0.025242060666151332,-0.057273894011076056,0.006720002843663788,-0.022254441122053985,-0.05952474053373027,0.043687634216080774,0.018752425271013014,0.0034095859606099147,-0.005617838659805636,-0.04851190193146568,0.04214008671393812,0.01939002491498594,-0.0055897615262026894,-0.06275346732961666,0.05787523271845773,0.03230684679994455,0.028821152866190414,-0.025787296217999474,0.04700559684652916,-0.014428618847916913,0.014928956421271036,-0.043982737841037754,-0.07616425585137064,0.026044155509434272,-0.03424062008126177,0.0026455989596941725,0.04366782377407023,0.0672565431234513,0.04679748004813552,-0.043816438847979894,-0.04343452323429156,-0.0005877011624509185,-0.06761167350320539,-0.010653823037065661,-0.042120579681638105],[0.032969171271573276,-0.03707283927436802,0.033041976437295215,-0.02480026420258764,0.00010519128551086575,-0.07073568156480062,0.07135655162757451,-0.027081220774637524,0.07499450380405207,-0.07401547405789861,0.0680388868857267,-0.07878045305285958,-0.037977444922519456,-0.06874792185737547,-0.04761998221015197,0.00007883245102929075,0.05806718363868919,-0.03438065364413259,0.0759221530691166,0.03269576976016473,-0.03767722928912202,0.02544480484806477,0.043289409466208295,0.02468033632111042,-0.016729035247098734,0.06707519510857911,0.017777182303579966,-0.033512353528517454,-0.0008161590812387879,0.026629638925080253,0.05219433863279523,-0.060998677741808754,0.0648294655899962,-0.01984380077683436,-0.019848220649712853,0.023014795515188362,-0.04473441671141701,0.06997445165191746,-0.019376645670554728,0.047102791565885545,-0.04962331773869083,-0.036239606716933645,-0.05669006809960554,-0.025326878966089733,-0.05064700940714769,0.042316271494989996,0.03149087085230676,0.00798700746504719,0.0035112939385251265,0.02405718838152579,0.004836011984540333,-0.007514653771486316,0.034381276203747084,0.002320571457705803,-0.07062396914967435,0.07314040931028727,-0.07677694715490704,0.027378874280243173,0.01193768421022562,-0.068859903313402,0.04425958705648234,0.001814443850552838,-0.05348141641048307,-0.03740328509459121],[-0.02345602760564644,0.014792856542880152,0.0032593658416885203,0.020236665018268325,0.04750652953571839,0.024777333847832417,-0.06349488946639566,-0.001517776227877248,0.039655506942687255,0.011567227680927602,-0.020529258789866625,0.07572233203376878,-0.01876617268317167,0.0514522459505598,0.031352919892818944,-0.03715802111712198,0.015032742056542408,-0.06242209659947175,0.040907219141845,0.0065440937946172955,-0.028394366578346583,-0.03707754086029524,0.015452322147714968,0.054648092544821,-0.07785169338954773,0.06635750971191781,-0.07622749026355985,-0.01146277313958329,-0.0779881456300337,-0.05159586996546917,-0.026985349837592022,0.052077604582510484,0.05264948950492431,0.04274847156816198,0.021600420965621182,0.019829388431850226,0.036173089231047464,0.012934922680839076,0.04039410919776827,-0.039885442540938565,-0.0286493833416677,0.0033758020195716366,0.019100181057155767,-0.010256249328420517,0.028668419696853013,-0.026494846965056138,-0.060818850257713254,-0.06146279596792542,0.014613932141174265,-0.02693560614093671,-0.05604311764349965,-0.04905858021685331,0.04706972618479157,0.021019308756966556,0.006547587960148431,0.07017330615626205,-0.019086419549609258,-0.041020412034062974,-0.03736961340291913,-0.044379331596107435,0.02925503613919917,-0.06441339003307034,0.0404185880888894,-0.03226725690035066],[0.07793906814673057,0.0021183819029252215,0.007635895463203524,0.006549308881805077,0.004124940236748539,-0.002818158106603564,0.07052807495198003,-0.026065644935255247,-0.06911047406185737,-0.016677494385757507,0.009891014929946089,0.00020559556450953304,0.06730057812533805,-0.005673798524587521,0.055426726930661814,-0.031214902991692127,0.04236612405217197,-0.00023525002010887764,0.05821405614478619,-0.058571715471619365,-0.03781191973988758,-0.01850529600392969,-0.07090473678261072,0.042110084888411226,0.004291237611373377,-0.061639011680430046,-0.0035150635261841606,-0.062592015517877,0.056208892208033066,-0.03149601877295262,0.06510180239000324,-0.029097241904480375,-0.06437188930831048,-0.048381261009140815,-0.03268701833399353,-0.04722216250504079,-0.07797285099311982,-0.043759673384261906,0.05372044727818082,-0.0006718228425192981,0.04235596185810334,0.0631338806411521,-0.04406627829185586,0.0033303273272435163,0.06657085824794635,-0.006509342297644385,0.07723924093924121,-0.03830140679054594,-0.0704600369548963,0.011381534544329847,0.02097690760732916,0.01910351268967846,-0.010065033457891753,-0.001769953437700063,0.015620580070616574,-0.055476497852455245,-0.0200967407241444,0.04656996104790773,0.010475627480693033,-0.038477438286861274,-0.0004446263686499647,0.07669237143124168,0.048095754809801,0.033250395072776405],[0.006077718118759087,-0.0014966286734372468,0.03921454182699143,-0.0730738618101494,0.029035587213471496,-0.049163099440080044,0.04087396711060339,-0.06299676046425638,-0.015739152833953815,0.07736975780827275,0.021081456932364843,0.06391105033578057,-0.03994565032437652,-0.05727236378738967,0.008539655954940446,-0.018438644305106285,-0.017345797199906237,0.031607997907706145,-0.06379132971905392,-0.07630404070593723,-0.03417798298705491,-0.06308395079932594,0.06520506248216994,0.008561541760080003,-0.051220743906210106,0.024128913539310407,-0.05758566030339559,0.021095412062298334,-0.0028987153127241648,0.06415388380222925,-0.03903106204438132,0.042968930311728985,0.06792784049379362,-0.02192509353477368,-0.05361563825365052,0.07181129252767326,-0.03255068321389024,-0.06674542219140737,-0.032356994914790806,0.04652473334428876,-0.04472064900756964,0.07801425536179375,0.00592348923806545,0.02427624320742469,-0.06175979503779307,-0.07590572832941556,-0.07106334964515156,0.0234092192956863,-0.021895603130219248,0.05822325667521725,-0.05028183851166878,-0.07210525379129383,0.04289383332548696,-0.039869164379056264,-0.050998126096199144,-0.03672366528735434,-0.06840775530602082,0.01973056153748577,-0.017487071652231005,-0.015063649680016609,-0.018867658017899712,-0.01934847529133346,-0.07041242311764088,0.06330243303914691],[-0.053453469954403046,-0.00032473901139356675,0.03786530370364073,-0.036079153149959055,-0.004983966757625766,-0.05967266754065045,0.06935963281697974,0.00013794946831859154,-0.001075339911273862,-0.05069101349248732,-0.025529555852712323,-0.06215339766860002,0.06141474714913248,0.028232827309736985,-0.013026698075420366,-0.05780144153642672,0.07079818976252206,-0.0603100616051995,0.023343625620368336,-0.05762755712486478,0.006366070872406281,0.047421175139195235,-0.07812937537641396,0.004623614632521005,-0.03712401557987837,0.043965324334469064,0.0164220399319259,-0.05790505620027097,-0.03744744743664483,-0.014333904069676773,0.026463896401469792,0.025011759722877763,0.04263038397890194,-0.02792278587678216,0.004748479822887623,0.032763164763395074,0.0625434705573765,0.03987342119448027,0.05895164394178929,0.030757400225641413,-0.02714068504586677,-0.05466887012008741,-0.02491757466890157,0.02324569259501708,-0.06681134010879276,-0.02381104892798202,0.0004970558413877846,-0.04027769932887424,0.041452667486821526,-0.004585677069602568,0.015734538220188284,-0.011082941972898318,-0.04462615451266383,-0.06375099971177803,0.059801998457107826,-0.009227606835022438,-0.05538388616464325,-0.059503445746090344,0.012414260690065562,-0.01959025286399589,-0.02727672634436161,0.0555357718920044,-0.020450056883552836,-0.0688866367697723],[-0.02700605449738441,-0.04660953854521524,-0.062013628645267126,-0.041618053694264336,-0.009652980906929717,-0.05441863805200335,0.03475320223099302,-0.03893755191592112,-0.0061767824585449126,0.0714465882921787,-0.005389191229166584,-0.06187918469173212,0.015801732214178098,-0.054680592320129326,-0.016106377611519077,-0.03566587622672946,-0.013270959526699417,0.03144917741247038,-0.012603571228410127,-0.05514503307821535,0.03047065206185761,0.014085515101206607,-0.02034539486734097,0.050487582416660924,-0.07177596475618253,-0.02470098419714902,0.0565888366945788,0.016687592251170034,-0.04542641450580706,-0.0007739354755767933,0.07631920383647954,-0.006682096752892451,0.06436641162845769,-0.009490770846948327,0.005900209397712445,-0.010789061553279421,-0.06639705614843355,0.0319378943093029,0.03453875813164293,0.022037935441107923,-0.07533901733946612,0.03773977105998284,-0.04745561820976654,-0.0523082791468583,-0.004195991723906512,-0.07598807908465295,0.04657183314961078,0.07715725786506773,0.01644711083140292,0.023920019088741615,0.01633620187296088,-0.014379709185838469,-0.009200957551527937,0.038828977084382495,-0.006634898665148766,0.005658857946875203,-0.06550252597058602,-0.07037551253014508,0.053072206485464776,0.030254880503143067,0.0006975681745661828,0.02064759820490465,-0.06485627401848687,-0.05434577437404554],[-0.06666100067004492,0.026461182792480425,-0.008202941018781182,-0.04385560846428867,-0.019017542966867303,-0.0019417415100723436,0.04103884229363959,-0.0040209753221370015,0.03000870266574308,-0.0014436774801128906,-0.0730490694072911,0.021873868625063773,0.068350744433106,0.060103767579187006,0.02582372615738048,-0.04801807132491955,-0.05050145502685863,0.042485921774015036,0.019305565118838793,0.04259623544265949,0.06205355691787465,0.06151126145066129,0.002315171592849472,-0.020093030779820595,0.0016979736692862193,0.0411096847177175,0.023186636260439007,0.07140682701386727,-0.07290022238443172,0.07476336776091924,0.03371438976133332,-0.05515565414294115,-0.03862208679680354,-0.06862381997882411,-0.039263279408054415,0.06669406440973642,0.07388042407218902,-0.06880415952101734,-0.044286952550206336,0.05605213065438808,-0.021654023653221114,0.00528406725536083,0.012076092015379316,-0.02454360322554064,0.06681592373388648,0.07450671113549448,0.06198158270634312,-0.0035506334296059113,-0.04609289947571966,-0.06871666990231635,-0.031429121820393265,0.060237525735660276,0.02030718522102907,-0.06424042845978509,-0.022127745781186866,0.03282915390152838,0.04984221815602869,-0.02978113030917385,-0.06430942810163591,-0.03431321673656315,0.022687166670603446,-0.06289084198180396,0.062498563432505094,-0.048526952619754996],[-0.06329884143087132,-0.06876101701400543,0.037604368310743964,-0.07331452011880966,-0.04009546823842687,0.06766491891597787,-0.026431653692160936,0.06414035172995179,-0.05187429677970661,0.05708356329421557,0.03674428403938521,0.01650468913095815,0.06502983773367482,-0.00725849176406157,-0.06975075465940145,-0.05135506552349219,-0.03734942104907851,0.0025710740231857272,-0.03942504729193803,0.04331452762800402,0.06122865778193676,0.06631581124325883,0.07759146520837105,-0.06503660124279603,0.007250110700554127,-0.04710668710005157,-0.038398998771760895,0.007506130255306912,-0.052873952998496114,-0.05330304466569999,-0.005179224380035554,-0.020584947212630527,0.016148911339071346,0.017048183793152906,-0.059508209921369036,-0.07793649173223476,-0.0034599230556702915,0.059943569582516565,-0.07431583902579232,-0.01952849293099027,0.023264605670148344,0.042970007587178234,-0.02021822577889862,-0.0658218006387659,0.025912901488148444,-0.002696315840699679,-0.0666889761908997,-0.011938948519445776,-0.04506617101834439,-0.05545895544650949,-0.032506907915412754,0.05925375345298109,0.03428509225523124,0.06332548430639814,0.05038519271240977,0.03676168065821764,-0.0061146369696167165,0.042331063339951736,-0.055854152554708277,-0.008963325849436791,-0.04474788370069899,-0.03901663318172238,0.038661955812177955,-0.03635125368944895],[0.04494409392949987,0.02633629195548931,-0.04781995362738998,-0.036449791721702735,0.02106806604065195,0.00980657595437417,-0.02684494169951625,-0.042693525939549754,-0.07452480731920604,-0.054792688823337564,-0.05781693773384403,0.07677193805257243,0.0077627159696382645,-0.0017094485248444,0.040674834951404025,-0.0108967012654648,0.07630889904608713,-0.06455346518672268,-0.021330120585834833,0.003899254167084307,0.021612231649833148,0.057909369944842574,0.044110706381825716,-0.020055581260064858,0.034415509416179824,0.0497595148193247,-0.06965200890806998,-0.025413510207908,0.06317975566092508,-0.04783938290086745,-0.062427704181508135,-0.03701067450654734,0.024844532852337214,-0.06965197585748692,-0.00734376716920837,0.05106425631236048,0.03210127385730586,0.023949365294726743,-0.05522172688769737,0.04696513198140374,-0.03138944979997083,0.035123912080671144,-0.010493510206792438,-0.026419915958570316,-0.05503174537488837,0.03679313977834016,-0.07028418960268859,-0.05953448318763536,-0.05402637821214403,-0.022846275105356566,-0.007547282406870521,0.06550012902095018,-0.022042970587537732,0.032861811847985464,0.047030972517996796,0.036283412915747444,-0.02047862998834894,0.015828527792251693,-0.07025032053609796,-0.0767047911613639,0.011868651973034787,-0.017218321730699593,0.008530252063095286,0.011845501809009572],[0.030029566366207388,0.06119930152346159,0.0176180498106875,0.013767047699713174,-0.035816205879098145,0.006322049079182065,0.012905163944084952,0.03761988788547388,0.02256102631896181,0.015952709904104242,0.05384469258089805,0.02550975254283118,0.03582282301834808,0.01226791307430901,-0.025620292250534363,-0.0064363652744889215,-0.021585589376147983,-0.03723795683481757,0.023245838668940047,-0.02911980274444409,0.04191196116037037,0.005886320276591745,0.0071209187567122635,0.033967474495788505,-0.026572847763208646,-0.03781430671570677,0.030798733801121962,0.01230839763372106,0.07099262122970273,0.05439165773067752,0.041058281495384555,-0.044099207720601295,0.05374266983388983,-0.07559685990957,0.04363434768529584,0.004861522639030366,-0.0138442126636436,0.06401926813829657,-0.05528115575499658,0.001861327332548472,-0.07618720474169029,0.067349642110195,0.029366116594874814,0.019114369222129512,0.014316197961371778,-0.04829996568100637,0.03297231076670152,-0.05710813602048735,-0.07580414479920658,0.0041218332042507674,0.033612922122399636,0.061199525912531104,0.04801368900981515,0.0025056758581744683,0.07891395027920012,0.07777682689873792,0.05853542159014722,0.00975684348411056,0.04422839113642901,0.018451141490667844,-0.07468308802138428,-0.07260818784592349,-0.006443871146006458,-0.05268860632375013],[-0.0059871443008791755,-0.017109421176914275,-0.03982190011913245,-0.06986792409464006,-0.02593542988918388,-0.03956440253605543,0.06884100270495055,-0.03816613861912317,-0.05768888613048948,-0.0760380596360747,0.054473563538007495,0.0058243329538659105,-0.06428351619309376,-0.03564279518721218,-0.0351339760489736,-0.04466215663167374,-0.0028195037079298845,-0.01411961500237156,0.04144196192775552,-0.007028982544849682,0.06078338904601609,0.016471598909588575,-0.0030862005690515965,0.07081124518296285,0.020246511571272538,0.014095303047345999,0.06450428623483048,0.0570618665130549,-0.024859126759837317,0.06811071745380741,0.05844005676559639,0.056215979476010036,0.036922562174281845,-0.02144512598832526,-0.02840283845108455,0.0630372126567659,0.0019718235573566254,-0.031183540135782103,-0.048583472363261965,0.06965552350369363,-0.03995981977408164,-0.01618671332451591,0.07510106124420822,-0.000021517808679341665,0.07426883125728213,-0.005468050069013708,-0.028478291022875257,-0.03181760903807903,-0.04096123520582295,0.015140714941897124,0.02024041267925947,-0.0738982002637031,-0.01784453624506178,-0.026941600378339637,0.02731073272797484,-0.03826320120671563,-0.054665511170949956,-0.03488888680261222,-0.01854451458985694,-0.02045025615886717,0.07404641546303094,0.0225948781392808,-0.06183998693587095,0.03936939631253078],[0.03535930716721928,-0.012848634078736185,0.040102406436655906,0.042946499899857354,0.03972519753037048,0.07311671119354175,0.07121049560191961,0.03273225647839957,0.0522545092504172,0.06154113221467692,-0.0036892546970149465,-0.05966555837740255,-0.006595662529133926,0.015633323761311938,-0.035323008701341696,-0.0069503305290491,-0.05003777899701703,0.05756871499377266,0.018893592399378836,-0.00048430366568257325,-0.06829823178229438,0.03914077720712666,0.07143029489353735,0.023844598378383555,0.07746923845294794,0.06465811876366698,0.028314002293708368,-0.06573941349340162,0.01936242949880763,0.0756229403923847,0.06254609540953349,0.023753703324787188,0.06736097830093273,0.04192265754828447,0.008927907965226117,-0.02771616813024975,-0.03185564183347901,0.028316789277683913,-0.014076113355973797,-0.04331708453153728,0.03073954092964627,0.020571331778702046,0.03371345390198964,-0.023781218335477985,-0.00783989589401905,0.03354582660828391,0.03553517339862904,0.0596214853762873,0.06453045720790022,0.060367474240019016,-0.0015834962919824096,0.0085119141767833,-0.0029565322816813818,-0.07494451971752022,0.021302838196689947,0.01086601964399904,0.0008446815299113786,0.04978401427895542,-0.050525573477197334,0.016749054820239376,-0.07538670700251374,0.0737182453430786,-0.03649135501841052,-0.07596942360658464],[-0.06742895312763161,0.05617181009758586,-0.04603075254380143,-0.023725040074988657,-0.01594992657632205,-0.028883101464594985,-0.0006181435544879428,-0.014158389937083547,-0.03406723558230503,-0.0046472251005934126,-0.06978538616045984,-0.007283791223419269,0.032924477632915346,-0.03839022797672887,-0.02851573709637402,-0.050358977928056645,-0.03354736190551884,0.030360449792269345,-0.050405859077742414,-0.022753670951427725,-0.045363568002719026,0.07859671447709357,0.014810985996393357,0.022527208953283456,-0.03714895243113767,-0.01874674266221797,-0.024503537043744125,0.030985497084243932,0.07762052920059695,0.015453400275234359,0.010112016558838349,0.047273880355281725,-0.018667514095864216,-0.05389177669273158,-0.003960427266269271,-0.005356018084617008,-0.02919361799258834,0.025851823753619472,0.005535087444249317,0.019303712932538363,-0.03964406586777086,0.00006608841298932512,-0.030289571235405068,-0.05892399860422536,0.033262119852944916,0.05339905196343379,0.06997849413464845,0.01804656428127831,0.04329525674462952,0.06428151384176026,-0.04642663916440673,0.024039413729273,0.06912649138372177,0.0276916681190552,0.04302368826439137,0.003990648981925355,0.03923878960325596,-0.06396582485250941,-0.0034640184170842948,0.024470876418027754,0.033000517945089014,-0.05224267828105743,-0.003748046387940513,-0.06286118326741141],[-0.06130374002937474,0.06346683878455386,-0.04698868792066364,0.03994305941314877,-0.02526455164066592,-0.04502759828225249,-0.060403385906041177,-0.018438011552334214,0.07524093195620331,0.0421409632496842,0.056556180625776616,0.02744561576326585,-0.010099160115900212,0.07048043358572946,0.010766384403019118,0.019905661714198976,0.007758558574810706,-0.038696746869371516,0.043928216905187986,-0.07201873657910939,0.0667877791836614,-0.02865005511204183,-0.0346683371630108,0.014181708665288277,-0.04779267293868778,0.023432326247917395,-0.042741829804128065,-0.07479522757903818,-0.018155722677179388,-0.06825090354396,-0.055096883849354704,0.06850262435044667,-0.06529619656908331,-0.000889438362108647,0.0030785029002413007,0.016268705092141813,0.027538677621094246,-0.05507749599277453,-0.042884170789724355,-0.03562506173620099,-0.027992728192338844,0.00044584345883723895,0.03420520603648551,0.015425189448659858,-0.022300198783764828,-0.0773753061416917,0.06410875272688256,-0.04360920156258235,-0.07347561266173842,0.015729120466610118,-0.06664153757442365,-0.05522565212653156,0.004374106205980397,-0.051597589744529763,0.06294347545399648,0.037201868866730194,-0.06089530904488359,-0.02199982270667049,-0.012352607957972652,0.012644499339926443,-0.0648074501100555,-0.032199795897760196,0.01083404377932118,-0.009123961975164574],[0.01132040183154388,0.07211338012924479,0.038409273541388074,0.03522380155751273,0.03447139068409161,-0.00615066029237235,0.02565540054390168,-0.03289287308685671,-0.02650239349935517,0.050981607629567285,0.0474784947782516,0.07627650777571852,0.07210817273609607,0.0019058211275076857,0.04799129606408137,-0.049971218048311686,0.002035090349809301,-0.07142985165572906,0.0680007830699744,-0.06633861931152628,-0.007975186035033435,0.036112677047057395,-0.05143209435284155,0.07529291337661911,-0.028497553208266694,0.030397895069537897,0.06567088968834009,0.006715756416823354,0.0460412729750256,0.006180776974531425,0.02914349613295353,-0.0578050933322518,0.058573117630009046,0.006156229779038012,-0.0004659105541270025,-0.06312465475144624,0.025617784645518577,-0.06836674228664852,-0.060604146589696505,0.013268309926685819,-0.03413056648218551,0.07560851998292387,-0.014520676040015569,-0.07870033964406876,-0.012002617857981224,0.04844698508696169,-0.0381176931062483,-0.04937775894597894,-0.06449450611766733,0.06612507527928056,-0.00900845728518052,0.011345985377827324,-0.026642628445090705,0.050194618264248585,-0.053062780415027294,-0.028332193117392702,0.006468846815598021,0.06439862226143879,-0.07872719394353568,-0.021732017739449303,0.03877550233591509,0.049973250330779366,-0.026575051073647566,0.054342155496410395],[0.07250124977278301,0.03668245802152988,-0.050699431581109594,-0.05372170160633196,-0.061680005358955625,0.06494914681201668,-0.017150934933046112,0.011832927253317794,0.0326735755650209,-0.07228284378755902,0.024677970934062467,-0.006115266943563306,0.060811350443216006,-0.01569105077615665,-0.07624826578451524,-0.07245106193673448,-0.06533919072418432,-0.012248963966400203,0.07055310222972475,0.03496743416657978,0.06198259990867854,-0.0077909650943516935,0.022130713540116434,0.016602127366642017,0.07869108908549677,0.04943236764364776,0.06395245774774033,0.004676718083612864,0.023314341422422315,-0.0410907132843427,0.054095652971171686,-0.04138346858931601,0.025222700204443973,0.07604046842217213,-0.03739480644209828,-0.03728112583150484,-0.0032560406128157946,-0.07721110499689733,0.07335742586381597,-0.024581614613400374,0.04888281034843115,-0.022794328845171734,0.045489310986825876,0.0404704460917645,-0.0195565891689912,0.05841579104433042,0.013832987561001991,-0.0016850480988032258,0.029096583274439973,-0.022423693324723545,0.07081968817988082,0.005302691776035522,0.006839831161950603,0.053240436581620525,-0.03503418922101819,0.013586191907258805,0.0664250894692747,-0.03625598230159834,-0.03785240656522232,-0.04460331765771531,0.05272261033282367,0.036394185841496327,-0.07261624257824574,-0.028807373149225494],[0.06581167711670555,0.04800799754079652,0.012506814488997662,0.035641461589298415,-0.05640240021544565,-0.02191895871903089,0.047200112607433585,0.02247156381084859,-0.04579083263799323,-0.0017015785265654365,-0.06002020263786925,-0.06180192922816048,0.011474600776372428,0.048335492671413086,0.06019968955294673,0.04596774832838075,-0.05860939727487223,0.021004332226427395,0.008705056931596454,0.02300234046940785,0.007471185462265965,0.07397612717269211,0.04313907093985816,0.03960708706589876,-0.008402143903974804,0.045943649578761375,0.04153916242210454,0.07481604870368024,0.030896972226074276,-0.00234099279848755,-0.03675709790311389,-0.0136100478629203,0.00038306664573935467,0.07065294133538495,0.028595485648475184,-0.07802999222634155,-0.060814623401674955,-0.04779916809001941,-0.06201797312188773,0.05739568394883522,-0.059218150355328375,0.0470339552303907,0.02585509791260477,0.014990843381226871,-0.07402074664784569,-0.0032516573434005357,0.019046499987363297,-0.0439592067615883,0.0029486746336196902,0.040160839049378214,0.023732551485883494,0.05497260852162072,0.040014464068526455,-0.011505282554400708,0.05802049068040737,-0.017288399027613602,-0.057416236761674705,-0.002869724589973503,0.06873519122144758,-0.014685135192493004,-0.04266237354887085,-0.029059695926582023,0.0067573553130041925,-0.02225476488482859],[0.03662081365070926,0.024508837538049767,-0.058420376946327124,-0.07477694202855954,-0.0435499813616514,0.013201290341861608,-0.03814103409467781,-0.013046271148200242,0.07639672055497507,-0.06600078583063625,-0.07657866385326154,-0.05016735978167908,0.022095272526902517,-0.06379011369574754,0.02467372216302296,-0.007864143333457523,0.009516796261644346,0.009152010824922622,-0.03727511057067943,0.07569211739285954,-0.062477754482457924,0.02153826401903609,0.02546096560525513,-0.029004532315537554,-0.039093057744767755,-0.07551489169707586,-0.07515737524565938,0.014364609064631302,0.060008581344152205,0.026785215679060486,-0.06152500453573288,-0.020828272271826303,-0.054424734749295524,-0.02000958737479468,-0.008192168152710545,0.011256835410761666,-0.0409010226514144,0.04525059428359216,-0.02370248362395048,-0.01168607191106676,0.07246378318077373,0.015583127645969447,-0.04615607124824123,0.07309602380389295,0.06678597829174726,0.0555152631263921,0.05996607943259368,0.013725379272029804,-0.05430288149197952,-0.04385998153100377,0.07336432874860281,0.05179386076424429,-0.03061513202443559,0.07210902929008707,0.041608867011411005,-0.033365092606099746,-0.03783756507584883,0.03639075286211109,0.05693755878353663,-0.0018083141638465746,-0.008670953673406765,0.07488510896132082,0.009411934138761334,0.0707089697974091],[-0.03776201300242986,0.04814023781519802,-0.022386946604686597,-0.07442055012665391,0.03982477028793917,0.040513620051192585,0.006626387794505619,-0.011259711146559735,0.01790232469068213,0.006818496265833938,0.03749729659051186,0.026748388614375524,-0.020442522373117385,0.04872442998025475,0.01794869003303467,-0.02526991993060657,0.023938987882816225,0.02174770480934869,0.03752898795568455,0.014716701287051383,-0.05230487250833315,-0.01047584134024088,-0.04622584199062822,0.04367714002129945,-0.021492440452842196,-0.0738061144477332,0.04180869072013516,-0.05186256489070439,-0.02231252294648377,0.07407760396224526,0.07538547070658715,-0.02418036807769313,-0.032317426132893165,0.02548674292675408,-0.07434837568116472,-0.020433059599385354,-0.03039386554953262,0.007648531343413606,0.026129378012549567,0.010656834288406625,0.06412867506601302,-0.031053477145598873,0.02888052796086405,-0.06609869701521504,-0.05919767546213595,0.035326814651678806,0.00225650354863347,-0.014646937582008615,0.05300238483009983,-0.030706221331288284,-0.05431665234293611,-0.055493450092349635,-0.015157897257039128,-0.038698673733846264,0.0052362552899580615,0.05995694850040245,-0.0003284994748530839,-0.05486987596964367,-0.046615641883015584,-0.03767563502089103,0.032709297594293814,0.024915362993387483,0.05677703835078424,0.003599011318669317],[-0.061307773755034475,0.07610952507254778,-0.02274408564124152,0.037536406892754115,-0.0034545307754734367,0.021272886964943227,0.018529146289663727,0.07352565431985843,0.058329539938910796,-0.031050332662925097,-0.022830347969410837,-0.02023452446695506,-0.037078226107040604,-0.03757862520082316,0.06786233118161056,0.02158972454386621,-0.0010627725967768495,-0.0037682959302786957,-0.05941658669797628,0.0538639647459315,0.033161448829915466,-0.0004929411121033249,-0.02467027238799488,-0.0487118183806144,-0.0076896652635947554,0.06693491923157016,0.031275326314678026,-0.05224657009515872,-0.04180386103389708,0.0030364329714888294,-0.03689662780140042,0.06391247081615868,0.01988570994449342,0.015572724707847688,0.01074762122546255,-0.004916115898533658,-0.06890084345226007,0.02346454068123457,0.04800587398899011,0.050094954231303036,0.029701273669302326,0.06799503331495223,-0.03259961078436354,0.07240922849465824,-0.038648536488856,0.054619660782461235,-0.055139297240206275,0.059103422304959324,-0.0037631415831540045,0.045730259246656,0.04379237765203092,-0.010465492388453337,-0.011479448185148868,-0.04806040479364988,0.058818489871232706,-0.004849920781348959,0.05592942398172403,0.06565172384302322,-0.060942320813410306,0.017506410853967865,0.028384801264691225,0.07420407529846908,0.03832758501544146,-0.07867259606562896],[-0.07740591267568271,0.05982899114206732,0.02451424175317213,0.04992141221357554,-0.052761457964126485,0.03463704065671206,0.06288959758826015,-0.012212537853263147,-0.031857054297570714,0.045928828014457905,-0.04945562535043883,-0.06393092390181922,0.006690668879610347,0.03999832557819626,-0.05660934310299799,-0.05577902897061425,0.04585664756637099,-0.025565183980752176,-0.05838284955245821,0.05413843689903724,0.06147825547736067,0.020995573991280395,0.02055071664727129,0.07556045009372155,0.01463355067135401,-0.03808444309845072,0.03508170684689189,-0.022663559746612973,-0.07672816555520261,0.05188733912293295,0.02690577290064885,0.0037960357339813745,0.07377105204607745,0.07118388700080602,-0.0013866885389219356,0.00347440050173982,-0.016583049384208227,-0.050949727004245014,-0.07031718119214224,-0.019386818666369925,-0.04478377474304411,0.018216337409422773,-0.0646289309358678,0.0637201728534888,0.01772042784346905,-0.0697185174841309,-0.00407218841148476,-0.059088974515574585,-0.006292053549018188,0.0015026077462256672,-0.035317254922830846,0.054322825745468616,-0.004902166933119657,0.019324653580640495,0.04529614095525785,0.06846793146603494,-0.007795289826029945,-0.02257207348944297,-0.018669736059732475,0.05895966579616585,0.061632357477099727,-0.008618719302653021,-0.06666873667203477,0.07088627455619669],[-0.03472073864398228,0.045191557835493376,0.011400953669111627,-0.03850092616777716,0.007110143312512677,0.048343584500000654,-0.00333952397073478,0.07096415572520207,-0.023166869652621165,-0.018336977262178766,-0.03131537857013081,0.019072577691322683,0.057949321297305394,0.0176446762144452,0.034801790573183056,-0.06725473445355969,-0.07500291045110868,0.015694182242509708,0.051676434061226455,-0.04133461515953145,0.0063526517358717,-0.01754196240786915,0.05229439257866758,-0.004610107235706394,0.07663932880863224,-0.06586350741366746,-0.006059881583500846,0.07139405155200182,-0.03463943521644241,0.03406911689042452,0.018524381859399048,-0.03908853703274273,0.03646360411754587,-0.015768592950399847,-0.058896012000985834,0.027941466799976746,-0.06546620674299823,-0.005823866720777788,-0.05061568925567416,0.038865796022829545,0.049381976750178226,-0.051134495140163126,-0.05707075917989858,0.04820564087135992,-0.05515927742996588,-0.04168800248647506,-0.07851456182369963,-0.0632751033690726,0.04739806600770743,-0.05496817521024735,0.011194569664833962,-0.030197314056225662,-0.010318574535619013,0.06001532444910737,-0.057161096224140846,0.014843973260030657,0.033394965307085404,-0.001844616548263113,0.07807951609883054,-0.06253313777087934,0.06851755458539738,0.05424213127385029,0.05867499391475043,0.07039947750957029],[0.020944292543057658,0.054244722476223174,0.02765303064995008,0.0710700106450424,-0.02105419279417098,-0.05189697115287228,-0.011397171820245057,-0.015968975416307436,0.0015828261394307025,0.04184889077715635,-0.07555108835556097,0.053575770864045934,0.029145862383296313,0.04143949113512706,0.012469511491459249,0.07284906808400016,0.07135979536351264,-0.06406445020114404,-0.001663467804549906,0.0329637557140961,-0.07261715163796544,-0.02992343119977153,-0.05976725665544727,0.05527090489533417,-0.05568544090143359,-0.07820652774822956,-0.05432927748267913,-0.06404144836150368,-0.06442562549628479,-0.04915503482794401,0.058013729975638195,0.04154596201292396,-0.04934659238221449,-0.03205261972385193,-0.05988740139688502,0.013357047402956854,-0.019151868657942425,-0.034415156587311355,-0.07591811260895073,0.055395248236431674,0.03574911324638511,0.037917763711429055,-0.053025468898811816,-0.04469329859592335,0.04085535403005267,-0.04802466610447234,0.07605071080018859,-0.06720292984861805,-0.03641793032951874,-0.05560939609362663,0.07517615804827738,0.07388159673165014,0.011456108538371406,0.04547809031397147,-0.06131543976099216,0.00876961155596032,0.003761208572555784,0.016905282274242192,-0.011520347822997492,0.02809521377921765,0.060280466660608614,-0.04422640836002093,-0.02598935972181937,0.004145302147691468],[0.029093165871104294,-0.07823843555497834,0.010704905001804595,0.03409016582135157,0.0011895945389308982,0.029912288570390244,-0.022172611467077847,-0.023592839049304398,-0.07024884247186344,-0.07601488774880517,-0.0035597024405957483,-0.00022923707703325936,-0.05139787577656273,-0.009354937261862185,0.05138405450535821,-0.024632509407388828,-0.03191322886115632,0.04374841635758717,0.07610698119238912,0.06726525459366486,-0.029384682995589873,-0.021555505110980585,0.06030532779275739,0.016067331001200832,0.046585787562825706,-0.04844050569832762,-0.025555750145134077,-0.07069315927965189,-0.05670075416742044,-0.022731179844998818,0.05272662405258819,-0.04862918985168753,0.05499316275934069,0.058226523094872855,0.04340506512447615,0.03786056503693908,-0.0636290839000695,0.07568355711154741,0.04444319211601235,-0.06906468606514184,-0.0595690760318634,-0.02399662170953777,-0.028511646311021464,0.011230581742536726,0.06107504440609093,-0.042161767461012224,0.06880728400148993,0.012019541400389275,-0.06212594054105135,0.036102601539292956,0.008369646178789339,-0.025143925469010998,0.07354949703870321,-0.05263435359372317,-0.04085554314020034,0.043832944167844265,-0.050390573872028,-0.012105910780202499,-0.07150875113635638,0.010161773023677032,-0.017117680702471563,-0.01303061717435927,0.0009695402750854473,-0.07132470114787583],[0.06772896057649279,-0.05762115840368445,0.072786581136802,0.051540167923058405,-0.030887231952315165,-0.05988597785025181,0.06605444513880766,-0.043140653230258445,-0.02266716576204299,-0.04798544270656361,0.03595447736958486,-0.04685454822616744,-0.04762245482311552,0.004182660016159638,-0.03623320605356582,-0.011275377756164077,0.057091378686904524,0.0663344327843744,-0.04362753850237315,0.05321360233616793,-0.03354136582369004,-0.06550308942659208,0.07250836464677797,-0.012959321757899012,-0.029777313150115156,-0.027075720724457873,-0.0310495413584851,0.052586626767149855,-0.02251111381357558,0.008217733823350183,-0.03910657487960099,-0.04680724557709813,0.06237879767035958,0.02267453927852365,0.07152495558792979,0.05901297535626921,0.03196838691119374,0.049953806137548996,-0.04540617442023163,-0.04046847440000948,0.002742484070205911,-0.0010800184644249803,0.06726939485407724,0.05931216315904864,0.07915525939808521,0.039360921979488574,0.05318730712447118,-0.061782344603923595,0.02361364617245503,0.05838533161437465,0.036786305366773416,-0.06575829893024998,0.02981848421241559,0.019553682787868468,-0.02212153514201405,-0.0751113642584772,-0.02985756558653595,-0.05069411230590813,0.044920703919648815,0.03416437121304634,-0.01912949246324532,-0.06698484693223056,0.026884614725638856,0.07425271396964231],[-0.07730101621631577,0.026034784825914342,-0.018488177316040494,-0.06134011307507033,-0.023411654092519777,-0.04249644609682732,0.017756477313559765,-0.03624478325345045,-0.055726667049301584,0.044471187090526644,-0.07269509698791089,0.012175090168543068,0.005738193912782103,0.030624847416995768,0.007762531034439557,0.034969098026752764,0.0226869032160055,0.045724154243047405,-0.06135747642029626,-0.01732781425249934,-0.009433598212292742,0.05463263725094626,0.011643683393172493,0.02744969225591057,-0.0642010576244662,0.0276294384452048,-0.05492256498687445,-0.02661678705956523,-0.05819835002846835,-0.027583532504469207,-0.023102075019556658,0.010217374147378569,0.06275797972626514,-0.07541604711413882,0.02355818362759694,0.0007722899574216969,-0.02958577315160463,0.06792259648536586,-0.05432076493175762,-0.06526558901695091,-0.0032999702730840065,-0.000164437161080256,-0.04541496526164515,0.06436984092856758,0.041757349136009744,-0.04350664313018542,0.005938339613514969,-0.024840039047488237,0.03497581569635319,0.009226469978004736,0.03902455990834091,-0.07202600016030632,-0.0013549730813480038,0.0145330775136883,0.03531983740545738,0.004060674259249825,-0.06919678160907158,0.014053158529752682,-0.022310574511758607,-0.050175847423067646,0.002231398905591205,0.0715898795390772,0.010195851184494762,0.06270392253027993],[-0.0651920531925419,-0.04961420642633089,0.007446567273403123,0.03759942219210938,0.04828512248197534,-0.02383137915461893,0.0380620959513377,0.010740737990925078,0.004724085956413908,0.027665925536081288,-0.07335924952872624,0.0042715055861898,0.06513108269780545,0.00021757668709486492,-0.06790177389501269,0.06077381658421134,0.018217191423154495,-0.016220569834132906,-0.0007857373306327655,0.048727995294273733,-0.07740734819339147,-0.00790613531366659,0.00026723705801475937,-0.017145329682473863,0.03620377037003742,0.07641229483709244,-0.05219058910939962,0.07547514984523282,0.025459002901438675,0.021303500831074157,-0.06142067248729644,-0.004089757490921774,-0.027664423316166423,-0.02176421923495292,0.004493591434284833,0.006013623613926817,-0.06614229456397352,-0.03819540421713837,-0.038893398992770195,-0.014363291506732817,0.0779213369882651,-0.07527140989637517,0.04957981139649341,-0.01615680927100462,0.07832835199834441,-0.010913017738387359,-0.001895415093254224,0.021685118992163202,0.034283423362748026,-0.035125411139008446,-0.026539275352972132,-0.05436007849990216,-0.07465428293681968,-0.06413408103607014,0.04015505335617385,0.0552578544437856,0.03927042432887374,0.07818625374361862,-0.06069475666243372,0.03463077174444963,0.07902111986442659,-0.06492365765466175,0.025853104108431658,-0.052232016198456764],[-0.01233785437600827,0.02730075586857348,-0.00708912740138389,-0.050088783028016476,-0.07534619322866555,-0.03638158406557334,0.05861268554592618,0.04612422954967595,0.017504613857996232,0.07632120160703906,-0.0378124105292773,0.059052269702799844,0.05757116210866751,-0.005846411398784824,-0.045179279963445715,-0.05882911968579581,0.03518520807636022,0.0359226337686733,0.03380463361058093,-0.016488185746902896,0.006026836856943739,-0.03115935058774819,-0.0736639652979009,-0.021471234024753875,0.03354806651107266,-0.035901725459906435,-0.06853163541136036,0.005353451968952625,-0.03885233378209693,-0.03187870717744729,-0.05016888317709253,-0.02768126608309251,0.05241470717525182,0.02639382100259268,0.04827116964417428,0.008166222372834778,0.030712936744104698,-0.015295559893001026,-0.04843506969835315,-0.002167865263236816,0.05606374529262611,-0.06549645968405043,0.0698537195973066,0.041063660483358286,-0.013444912961970649,-0.016707222272055698,0.06493890443289606,0.021906215941675175,0.014714209668392379,0.02139310003206919,-0.00014000208908324267,0.03788342488346615,0.07580200588855879,0.030173950069581665,-0.056866336854295124,-0.029231142733464954,-0.01605621004251748,-0.06157259316860873,-0.0070678552305287875,-0.04291634406497837,0.013300296677871791,0.023924497070628815,-0.049362814387411434,0.03293162959996103],[0.04338446243955438,-0.04533761387532089,0.01473381120031775,0.02786534211297412,0.05640049955138029,0.033418788978430085,0.034698841648240344,-0.03748469444037016,0.034833026828113886,0.03752684533316968,0.048281263825046744,-0.013677377078077486,-0.031165690076718735,-0.06298834552075444,0.03823583599681453,-0.011896701311899174,-0.03866721553350576,-0.007729252560832195,-0.056009345807012285,-0.006892130450520864,-0.05706677070203079,-0.05076328058846643,-0.011144063915246019,0.04908835452969132,-0.02464948136227088,-0.01101261132353109,0.025222875584639003,-0.03869004911279642,0.020762447843845695,-0.016710083159692413,-0.06138165359236713,0.04419162219534695,0.04306980493230631,-0.01429022760338078,0.018515244071219437,-0.056899673421390316,-0.01423030329913944,0.051853118604412156,0.07551271738660269,-0.05003215092153381,-0.07026461134271236,0.0520359439318769,0.026351167187828504,0.03903943013002169,0.06528277817458195,0.05631852619956478,-0.07606954006704564,0.03871030465413231,0.011073246159520737,-0.06269546302151474,0.013625380196693949,-0.07382789843709038,-0.05956632516961334,-0.055112688337298404,-0.02052899556717512,-0.009633999182271842,-0.04871380316216427,0.0509492023906758,0.041465796655884575,-0.01889238156307416,0.04283418886835649,0.0324123420125247,0.03841565238351798,-0.044383868789584335],[0.07767143017910216,-0.020374458218017852,-0.06893339723446099,0.05776537364954339,-0.007625035146411836,0.04501554467192312,0.024709442340207277,-0.014023390173127181,0.002180717595648817,-0.024182985192636616,-0.00800153841889074,0.03531526310596621,-0.017913418076998783,0.0609961188034174,0.05937069004363408,0.028144468357770038,-0.04361754345330926,0.06474598600394092,-0.047212065986870645,-0.05789168695103567,-0.0724667185673446,0.06552408207829609,0.017102627464783367,-0.045974946894480936,-0.07222734949530231,-0.030939248426080857,-0.02462429933207458,-0.02237510605227474,-0.01831706701948961,-0.005187687599969677,-0.024714939851796756,0.04131769492839686,0.017741927409011406,-0.029106771873271858,-0.07808656046733967,-0.05286649703580883,0.04428062703635024,0.05964242484012786,-0.02511858014944158,-0.06250861127051084,-0.04051143782948198,-0.010219314339032753,-0.05845368818607244,-0.0001783987602628356,0.01905141267325949,-0.057633351370481874,-0.07392289697706195,-0.0245613386717496,-0.07761772842185112,0.005669536778918522,0.03448650073792886,-0.02100723958845407,-0.01828351359117304,0.04599123640391702,0.07558163464545054,-0.01563916564325098,0.05152062456393074,0.03798520096455929,-0.02938457849732949,0.07557904806657954,-0.03706318288680764,0.023615185242319363,0.036920767824438705,-0.0420531683728147],[0.022431304069989513,-0.04396239568521481,-0.05603929782704471,-0.007996823683135573,0.042705434339432094,-0.06404607360379025,0.004749677377656766,-0.07432155179639138,-0.07894930458448624,-0.07684329242277017,0.023372201984485495,0.026821424697010453,-0.035712990783666375,-0.0022340698922670692,-0.038889691453860536,0.03607354322464388,-0.04342619182573083,-0.06228419287008191,-0.04548000393409619,-0.003064973562010558,-0.03566547573433645,-0.035814742397486506,-0.00048605234875836784,-0.06425765568544961,-0.03833571172533051,0.023258445478584286,-0.044357274758380916,-0.012679613448221832,0.07139065499561378,-0.017807465321731646,-0.05605202165884872,-0.05956971267855938,-0.02489939684296075,-0.013104966457674746,0.0576977811529112,0.006307425503095157,0.05081065105946577,0.07099096064612317,-0.028870532402959313,0.07386737452719022,-0.012254317464394125,0.036070113124297386,0.04734802585719689,0.02203890258863433,-0.05187644738757709,-0.029251208333064046,0.005681338326068582,-0.023747306139283036,0.0669910395897697,-0.04406018636772409,-0.06279432610355719,-0.07686420194878087,0.05226609100663614,-0.007745929543304147,0.05110073814441123,0.0687877481083924,-0.0474473976844258,0.02188101835085935,0.01666383738089469,0.05796743549135516,-0.03152639388692626,-0.030845716500682074,0.007840834822783823,0.03568902289182279],[0.06155192081784519,0.053837406458423186,0.03146464285042628,-0.03575376879068915,-0.051516603010724624,-0.03175183603223826,0.032618094026346196,0.0009857359703242042,0.04778671273839907,-0.002196774694904064,0.07218719574962579,-0.03968851852288514,0.04928026520826056,-0.07028212310323718,-0.007407734677483272,0.04197646288105412,-0.07112899420955507,0.05571776967035907,-0.010222903066697018,-0.07046596617890127,-0.06982891564879506,-0.010702825215724309,-0.01431456580698388,-0.034861333649175125,-0.02155290211137939,0.0371042103376313,0.011805499996256465,-0.0226770797707892,-0.058311266946375076,0.03937992505979584,0.04681212749159394,-0.001427066128495238,-0.03257206248608806,-0.036364447024528686,-0.04205680278601422,-0.03581170514089578,0.040313901085850375,0.07549131356341515,0.019271502479810167,0.01972614166668803,0.012983631655258803,-0.018951394775894474,-0.020234253457353853,0.011084956882734458,-0.014494242098146051,0.041769621805111144,-0.054186695566943804,0.011581387316893425,0.07363739970001199,0.020944008151941973,-0.036097262937383245,0.04819240313346444,0.042117876643870275,0.03919545610739776,0.04615749080561933,0.03113873732748476,-0.05749513846595394,-0.018977916134801747,-0.029653330645535433,-0.07436934063796875,-0.04596080847640025,0.0282552056913772,0.014727800815598322,-0.0009526332106908682],[-0.053493239877533134,0.04613751963578526,-0.007600043209719256,-0.06858068521476639,0.011719886257574069,0.0602253209180048,-0.06868641340590968,0.04427887823659053,-0.07143967266719455,-0.004702420334555976,0.06320523873521422,-0.06127500151586869,-0.06135258909379024,0.06915794124132434,0.05523927872948581,0.07473163303553383,0.03404202547406652,-0.02929685911868571,-0.051202452628144456,-0.040269408639000005,0.05040918125941898,0.05805679188462649,-0.005254430750186096,0.018338821969974484,0.04582688811354137,-0.04463570917312626,0.031741928842190355,-0.007924493653692237,0.06219771115354187,0.04410341641902701,-0.010712342581671638,-0.012277866241809628,0.018400894908300172,0.07779375673563874,0.06295612595577536,0.04480633587034704,-0.021560221034381537,0.047199522593488155,0.03449274458870582,0.05181047895529898,0.07136454794891345,0.07247448335340145,0.05646719831571999,-0.009244303492044664,0.07716798991179194,-0.07679436052593258,-0.0011336143344495894,0.025980553538137132,-0.07425757730378013,-0.0016651576590304188,-0.010941480997986426,-0.01749745000675316,0.07259818947296251,-0.014759475667852316,0.018135089825229884,-0.046971526420533725,-0.04992477780111491,-0.006507834783291242,-0.007379114211558017,-0.057803026866538064,-0.0010925735438871952,-0.03854342002958686,0.06192979712588233,-0.0037527147979188294],[-0.05501468065189415,-0.05761932962954088,0.05201809188982582,-0.0589054439858593,-0.07668105711610791,0.0698816771541119,0.0012325470677861292,-0.020013943213668405,-0.033754924615895146,0.06743954242196325,0.01346506280801725,0.057872217479608315,0.03100199126616869,0.008154528977620123,-0.015250091680300462,-0.005164775399216948,-0.001558818101694483,0.03681512172719781,0.0715843169120129,0.04173885527353652,0.06639423905111,0.07411475368116202,0.06100608593796546,-0.05999616080347966,0.04949395124663103,-0.034466220645766724,0.006425194257682697,0.030447840145753174,0.01693442522674699,0.037375085222835946,-0.0497858089411537,0.027619441247118622,-0.07026334068116524,-0.061254152747093296,-0.015938103521842346,0.01862290148708381,0.00043337581298711627,0.07291733599095865,0.06417370930814954,-0.007195672382150344,0.005102460704925602,0.02227322053355536,0.027930849964292872,-0.03618301246126178,0.02503237772621952,0.013027040717504183,0.026552529420626768,0.00254538133689165,0.04736328701523206,-0.023593720752294767,-0.02408883805897849,0.06028210184935531,-0.02044613715486896,-0.052483575466674065,-0.0721275640938628,0.018938247683520062,-0.03804642247423033,-0.01153330097828899,0.07077010785464084,0.011526959646953562,0.02425864271022415,0.053545970559421396,-0.0154358411690396,-0.0495973099690555],[0.069968563804657,-0.047531401045083424,-0.010869988352040425,-0.04709129048561409,0.043059014373458576,-0.027647955301784207,0.05937025971423467,0.06834072438769687,-0.027872793861313586,0.07853829247824971,0.07145001388018955,0.07292617180433372,0.015708934700331117,0.025136833470110982,0.025984809824034154,-0.03338856828665977,-0.01661894039541439,0.04258155005113587,-0.02566694098712243,0.0637011181403989,0.0038453618580266136,0.06648046347844666,0.06702077516572279,0.06305531892525486,-0.06576526090903721,-0.007170794797356051,0.07053186113603126,-0.0133457292506217,0.04875506277027282,-0.07166732049910426,-0.04010251071396274,-0.018161299011466146,-0.019907201911205364,0.025778186564703112,-0.042477934329868745,0.063682579524306,-0.05899077710790105,-0.0715500550947852,0.04616740921833467,-0.06257266962382227,0.013523187295036113,-0.02930125115407398,-0.008684456439790197,-0.06250558486666062,0.07714352748559151,0.04277983071566331,0.00881980652958758,0.06165178519678823,0.006242868577179494,-0.06611637274868122,0.062407189343782817,-0.02576976609308852,0.04633517681905789,0.0781843772474916,0.05690521666209729,0.005629378374790067,-0.045382842720735804,0.06803660971132074,-0.011040980361989215,-0.041420196505536015,0.07066676154908878,-0.06813702167087264,0.0449858999646978,-0.01311666882942036],[-0.044026408779136564,0.07550925619380786,-0.07573367919374113,-0.060972097506211784,0.019268743758874815,-0.016452269682584845,0.06375239068803983,0.008856463799076173,-0.052694205592519014,0.04846105044191171,-0.03870280604104383,-0.01206207101307872,-0.003893345075397533,0.05943689302993616,-0.06797122814411542,-0.04221922523054968,0.07351017855171678,0.07521968075339194,-0.01361167983051427,-0.022190025838061376,-0.062267341010323746,0.06206908017870911,-0.06630448899362885,-0.02839154220827622,-0.025396121520004263,-0.06174850799664219,0.026930097676055104,-0.009867466052728055,0.07539223209021177,0.017806377207771243,-0.05861427378005132,0.07621239679709564,-0.02318527245815497,-0.050999414764821116,-0.011599135783342736,0.022111615002791445,0.023646164785453297,-0.06903740881336602,0.035865871718855614,-0.027271558804319584,0.01371407260570927,-0.07504254810627795,0.009968324342701368,0.07699945687625373,0.05104355614095365,0.03271205586904456,0.015761541344357463,0.07250646448755828,0.05339346577661944,0.030223266226799758,-0.009540214150119982,0.025457925361881965,-0.008832190535393272,-0.07035567566131674,0.02365102995347158,-0.07385368487666329,0.058918969538096756,0.04749462153953111,-0.017512080565163006,0.011288361768468064,-0.038609015233309806,0.020101061113756175,-0.008051659140845532,-0.06533572584148588],[0.0468337336389731,0.030479346902050352,-0.023885480468370194,-0.04714905545021771,0.016525735059839692,-0.06616121940150456,-0.06729297243920267,0.07805850988493981,-0.043059676393482745,0.038236386891735294,0.06139786592394819,0.029465766584284046,0.04744805128804783,-0.06951655408759684,-0.06364952300692653,-0.046462817163013655,-0.05581992403965695,0.036110534129218205,-0.06736668827222235,-0.025903943568464927,-0.0710116443129914,-0.04282302962009954,-0.07384774796424673,0.01832248493692427,-0.0184297928653069,0.007565189918017823,0.07286803045959261,0.003438028488187886,-0.03218096594633086,0.027321168281950102,-0.07479019189746193,-0.0015868726219968757,-0.03181470237699488,-0.050054045704811874,0.06912200361209331,-0.043447587273061555,-0.000988786279398859,-0.05701666224480876,-0.04471615431008254,0.037039858077096574,-0.04740076283142726,-0.01894600327362041,0.03320789543352858,-0.06557054765141793,0.05881259552184265,-0.04808284892922098,-0.07885537174830655,0.07192393723268968,-0.03111559276875179,0.040911216319503375,-0.05824602336011958,-0.05156173343522918,-0.030817609431496862,0.05840098479015548,0.04838314527925547,0.026945803499536156,-0.0462836116597725,0.06913359138659853,-0.010328909578798002,0.050559524599094886,0.07897662873907585,0.035131998970122987,0.009589218901394332,0.032514224855499714],[-0.018968754432749733,0.026068811658104932,0.013988380782206352,0.06936270433057513,0.019419424503193485,-0.06333466414631354,0.02428737128684563,0.029659548822246987,-0.04144715294879871,-0.07573161700514378,0.03286149178488447,0.030831641555484908,-0.028718267210552303,0.07086637917391446,0.0659147506126151,0.017555345240562674,0.0076705891358535075,-0.04585224339513511,-0.024215406656879695,-0.06484399722270823,-0.05019217289456448,-0.07590932810865347,-0.022950544848064306,0.026481670771906333,0.06597079601946523,-0.02243135904546928,0.04697059690319042,0.06387576091396534,0.018460193036735278,-0.0064143843245611015,0.00680599944861593,0.012306717277059898,0.008970190559227938,-0.042691766439842654,0.06054292066024229,-0.027094617142520143,-0.004087948100157991,0.028562456892345465,-0.07897326590148158,-0.04457327528303778,-0.028583837314336776,-0.04561119830948284,0.0438780963156528,0.07587674099927272,0.03267467247737237,-0.04300935641532058,-0.023729559058060398,0.01810485803428475,0.0003224736137514224,-0.03639957732372544,0.03947772526698956,-0.010458691397424396,-0.0769879047735278,0.022884560713117133,-0.016467464757679205,-0.07481885149215761,-0.016293989820318117,0.03176884010267125,-0.07716144533161226,0.05916988550353559,-0.023123506089614086,0.06878737795906685,-0.023791830655115136,0.0012362091778188274],[0.04008199529164841,-0.03566393589252278,0.03932000229961313,0.029132062494897085,0.06535616511930536,-0.07146612681593817,-0.06434818711171421,-0.07658331174762598,0.002809158485653609,0.028729366035220038,-0.002422187248708173,-0.04772240057176309,-0.015904908123126442,0.025762655711705766,-0.021447446058804265,-0.013189318280024256,-0.06673265712208128,-0.07627198041096193,-0.03836811141714255,0.030362579934801008,0.012524563919809866,0.016196428694423316,-0.032807136864842795,0.055629409789765695,0.026383105730513296,0.032746049735158135,-0.053622543046706696,0.00865290894482801,-0.015983481997233148,-0.012478039652035535,0.05145374934348288,-0.01605057872658771,0.0688445733310615,0.014974072627905906,-0.07059180954397166,-0.04996183579014817,-0.02338252267330824,0.02067540765581372,-0.008965407281995746,0.05765211219647717,0.004906409979305283,0.04270597581477735,0.06981746078826764,0.056493395466876345,0.03467276987925526,0.044526099781259286,0.05137541739711109,-0.029504618706088392,-0.011554394040464457,0.03493158673092571,-0.05042264360500433,0.050880830901864585,-0.018920660543431136,0.009311160013659421,0.03579283788546514,0.05232389620437996,0.04254604015192676,-0.007553929325151324,-0.029756048384514795,0.03253848027214993,0.011667938117959216,-0.0675124703806656,-0.041887126478524266,-0.016830952192565803],[-0.041648741356080876,0.05610028457923588,-0.05902307503023715,0.06405640963900877,-0.00399374949169422,-0.013144221723235918,-0.05574577593290797,-0.0628333631353481,-0.03756466117953805,0.028385358194123814,0.055198004818256756,-0.03309959164102396,0.030095699975072745,0.016702915892848967,0.06993647038894982,0.039682016261042466,-0.024492444455259946,-0.05603328622746894,0.06084144137721458,0.03434442789308029,0.0595851241520998,0.04473072926069341,-0.04144149655986808,-0.00980510765752227,0.0014674917616665007,0.05671315848112541,-0.04301149458522579,0.06202990409409363,0.06129316890828869,-0.00843056532514103,-0.07008083768191874,-0.0020187417223036927,0.061798911576922334,-0.012797467207366492,-0.030764635353691148,-0.007703449006266607,0.02075631546755164,-0.06768845319236964,0.01377575364137621,-0.06388877288270917,0.009841454259983656,0.013728666621752532,-0.07613374181834548,-0.005062553577747285,0.0498543296531358,-0.0247620578316535,-0.06728857917763087,0.037926896070727176,-0.012660302626926377,-0.016213059623146103,-0.01697617769284924,0.04251479154692028,-0.01807478261853703,0.008339271662227307,0.06464062798350834,-0.007787471565646224,0.03974949794456078,0.06794134546952588,0.0668386915930292,-0.020091039183773415,0.014414047757702542,0.04487563209409311,0.056040821148798325,0.047123381937852316],[-0.05299962483425227,-0.02185683448960483,0.0002090352961075678,0.00029873304677835146,0.0005120488621652545,0.05212652483565095,0.01624438419180364,-0.044129610761816755,0.03495619221794197,0.055139104762222786,0.06812131328463629,-0.012615541902105985,0.02102120378722666,-0.05107295767668447,-0.007991055048651122,0.04284707461351135,0.05347849397831788,-0.016936109323330933,0.005527300132836513,-0.013507111001672586,-0.03148566776891898,0.07206758595454585,-0.05300598887580467,0.06725884727361961,-0.020503002471526543,-0.07698466669621426,-0.014534482105149417,-0.017230172830333932,0.06589912698653096,0.010611609955970332,-0.00446709879581444,0.05305650816412503,0.03364756185966065,-0.060179306202234134,0.064107390670488,-0.051338261666082345,0.029598158641921984,-0.003851224294837221,0.0706940213893854,-0.0017117281819238465,0.0068897231395230836,-0.007629898848958022,0.07690211442450866,0.036566377787497766,0.059862585424741606,0.059925918884930415,0.033083730615485765,0.07063722728643887,-0.05812697379865461,0.027634056885240184,0.06990083518439141,-0.06432641181234336,0.006113873660882987,0.033062132085471686,-0.0012190496519003384,0.008733404922382674,0.07821633240221951,0.05810742398256216,0.0049252342544137745,-0.04386978856840701,0.05664548411932173,0.01220211299916392,-0.010951978591479478,-0.006021212219527409],[-0.007286663814253678,0.06836476576567661,0.011099812774097655,-0.02637839010129906,0.008195209306879761,-0.07423875471129163,-0.009005358593706131,0.01885177013220561,0.04562114160973432,-0.011803950945751835,-0.024792125494009724,-0.057300259002134174,-0.0352986483964929,-0.042550364050537255,-0.038882111801184116,0.01957330191057504,0.014677974297501298,-0.02281767805869252,0.03624211297297724,0.06037471829943422,0.014949055202840136,0.0772524573173032,-0.008644897009746058,-0.060088515791983536,0.007576566642861465,0.04607170247855202,-0.05854538659554647,-0.003348191411804636,0.03631501676408933,0.02634537749464156,0.0029401510199684087,0.07877927584477687,0.046724554148665394,0.019826256074582216,-0.05620853453875655,0.07806962986500475,-0.003505175073540332,-0.052919282962538644,-0.012536150403031049,0.03738520822300108,0.0578618437756802,0.016705262585375243,-0.07721828245246677,-0.07027027265143942,-0.028602107517715747,-0.052266825620908695,0.06393974138677268,0.06781008621456516,-0.05416856527090385,0.02124510671250799,0.01879124251943772,0.055641219102579256,0.04844147443703429,-0.04965381820365596,-0.04297705386092038,-0.03455810420756277,-0.03725752094097395,-0.013818199316776516,-0.0787537005797927,0.04084050581832592,0.005498735488111122,0.034919396698431804,-0.06318367424393616,-0.0057834806547325006],[-0.04401806798241518,-0.07712200996343102,-0.05734553789307416,0.023325309559622295,-0.013599176589008262,-0.026702893005378432,-0.02626263770997575,0.045282467681150004,-0.05589462051842748,-0.017154837164300985,0.03912237669777503,0.07254849781849494,0.018361407056631238,-0.046304126374868776,0.05370615530577362,0.07238278403594613,-0.06609310545906426,0.04727133997698946,-0.05772185440529022,-0.07014505594452462,0.00515159742977927,0.03456643812830007,-0.014235206866878026,0.03154507536015959,-0.030990877738769712,-0.06007206063489866,0.011529395789099886,0.05337215061588534,-0.04859241626478448,0.07532288088503049,-0.02364956512460441,0.041465130760065014,-0.06996928596480442,0.015769166337875232,-0.051936497469668136,-0.07427600786888895,0.011744787579340457,-0.01116604579334057,-0.062499462224169154,-0.075386586901339,0.01700175302386907,-0.030454884723845693,-0.020398920992070767,-0.06315139251921592,-0.054108008783372304,0.011630024361272978,-0.039493984623895105,-0.032926220494618845,-0.050137770204375806,0.027016757329675,-0.026713534658076948,-0.058069082279333224,0.015173775827112436,0.05345295587682921,0.012423534789986986,0.020002813082240934,-0.04046175243926096,0.06265717498277876,0.016526465401306565,-0.061584740179908726,0.0031369342379482077,0.032843132048652635,-0.0350779497056204,-0.030085421856422163],[-0.02776175631000108,0.00999088557403058,0.00282642505831574,-0.06752084566806356,0.023034047325993425,0.04823323595169377,0.013889635297844,-0.07809212252554347,0.03520711808327821,-0.02669689038982746,0.002084867434585884,0.0024486835337122976,-0.07130362984950595,0.04822006222883944,0.00349131192844646,-0.0793175628996417,0.07721695664023014,-0.07452770550620515,0.02945566933030585,-0.06616404260068087,-0.03442466428538111,0.03441737358357506,0.05473888698790235,0.032524353847250255,0.060006416469405466,-0.040407723370588455,0.011016413939858498,0.04801100086884824,-0.06370812980492266,0.04164665908431633,0.034612802806373306,0.07082273801748055,-0.02620832395525981,0.07263334158622566,-0.015109446471736612,-0.07498864758967416,-0.003406128654989096,0.024954035002237026,-0.001232917008937517,0.0442337923005865,-0.024552412656314044,0.06398878786661033,-0.06946481882063417,-0.01565135472439436,0.013537747252525482,-0.06804901407598465,0.0617238735359229,-0.021798209312013525,-0.07698854522657443,-0.06410508454777786,-0.04326235810471685,0.018046375150495578,0.04698558976230523,0.07149824640896343,0.05828822261830614,0.07279344434711381,0.047429869972196045,0.030441850337211796,-0.06198667057140578,-0.06279442666381545,-0.02682901775062316,0.07447226683655851,0.01831574063534632,-0.05638447216552082],[0.07579640238939493,-0.019466238403358933,0.022551108322643433,0.03621000064477687,0.055872447536022045,0.039828835173571046,0.005675377341163357,0.026776700205577757,-0.017805699177881103,-0.06516232242296142,0.040917086030474635,0.068008441905347,0.0029406617777418607,-0.06383345287325531,0.012579224057229976,-0.0025114282743501103,0.021077447202643786,0.01706864327623161,0.02369739927849862,-0.05833154958385384,-0.031026622990774595,0.02746257435971605,0.012141299128282261,0.00906172477892333,-0.008858790581335952,0.073623940226195,0.07051236398854087,0.00013524367517744608,0.06967873396446254,-0.01808804122907612,0.06597501081261245,0.04407224738146676,0.021251430084920003,-0.01691425955530363,-0.005910388119673191,-0.01308599730271485,-0.0001942596674828564,0.05072377880975418,0.035159494765913936,0.0754587338743722,-0.048889654142093564,-0.06193249749749141,-0.07718893798185886,-0.07692054598427539,-0.016462493525393154,-0.05825990714045232,-0.05041818237774092,-0.06291524654840963,-0.02003823795319667,0.022493841790231433,0.01764426027399643,0.035629088250455215,-0.03766605971108237,-0.047784799177059765,0.06094497510602496,0.05427309027511441,-0.028071884042599516,-0.04128653274166651,0.0645194355344288,-0.011023385887650772,0.07261788301165599,-0.04957070006343523,-0.0771950048194237,0.0067272850417599474],[0.002645731625551981,0.07871667731727215,-0.06479380891473058,0.07133625994385914,-0.051383521359284465,0.03573888686214486,0.04590075000636024,-0.010295784941323695,0.03120841487049927,-0.000571591031702356,0.04530321151099056,0.05896033491303704,-0.04464869568673197,0.0040628834541940415,0.03501389850864971,0.03873953643787988,0.058069915960122724,0.06260992097005097,-0.011217298804065504,0.0038080681199430255,-0.03829002139250995,0.010415545813006478,-0.0774561593725146,0.002875422099127665,0.07623254407225163,-0.03895865617474176,-0.028504066645498316,-0.0500887074320738,-0.038243067966486896,-0.019537670040769336,-0.016621962737544172,-0.013577183821634755,-0.024244678100234823,0.0029458191040970176,-0.03989294369206151,-0.019924812611220314,-0.035223581614108795,-0.007872915905991066,-0.018481940818714064,-0.06904891360585155,0.05873325394422137,0.07759946838758498,-0.05551490906714014,0.00890066072716813,0.05671466208263304,-0.07218034544275337,-0.05400849110972551,-0.06073707666014584,-0.025078825086549975,-0.015646163872145638,0.008734464733195745,0.034723659197730274,-0.01761663511582617,-0.026326712487667252,-0.006222874226867824,0.06592467926826816,-0.03225258093179879,-0.02551734524068297,-0.03356012693486926,0.04718454575691166,0.003111981505102431,-0.024115844631079252,-0.019710872816052903,-0.04181603316962994],[-0.02896584190556999,0.033062045322456456,-0.025756659019918235,0.06435884203086295,-0.0023307093877517563,0.01614389804892982,-0.0005412490562354465,-0.032161607271003964,0.03870087305127346,-0.02073721246998927,-0.03447181528107092,0.021740945933367985,0.0036402653485346726,0.05075904997739726,0.05339532708994136,-0.03225987173471013,0.023801828687036616,0.07373564226880996,-0.019428307493639527,0.04107481074901456,-0.023062261426329788,-0.03481251996918795,0.0787449439401822,0.05005074493750871,0.02027570598145768,-0.004698592531388126,-0.01544931725411245,-0.05970731909082779,0.07554449343637361,0.018244898802189068,-0.048804071816305965,-0.03913202502153519,0.00032688378188777223,-0.053374822563778505,0.031009997697784467,-0.04523087592337164,0.06826475066589141,0.043142872933024386,-0.0713822326502311,-0.046816509278818134,0.05210690968466203,-0.0030927384762480716,-0.05240840063480549,-0.05688400619822344,0.07870972039844139,-0.058468136563228044,-0.05057897178105171,-0.013195717354219825,-0.05415404480826445,0.04171475585424197,-0.04262688767822801,-0.028908094767662713,0.05123676366010017,0.02217573395133322,0.05109735475841301,-0.012651442360536815,-0.03756159912662626,0.03819157835951527,-0.05124177456039255,0.026518136977784542,-0.051048468013190455,-0.0650255198345937,0.04907186218189161,0.03731016582298279],[0.03130164508056364,0.07395027955424265,-0.04265838005106544,-0.02961583060308613,-0.008342802955863194,-0.031410758762636916,0.04922394288572285,-0.07532964244982616,0.04676232025770777,-0.005430609685838465,-0.06872521570095246,-0.04178227988290875,-0.06797376435690207,-0.0722081233550723,-0.013481279648585927,-0.02865994445374752,-0.0717899179044976,0.025609043190787568,0.01785659035107665,0.013556262220849309,0.054168070014855074,-0.07850513876543405,0.006481476163707729,-0.05263489363050615,0.04917798597135227,-0.06437969540325268,-0.043516589064194124,-0.05704802347602041,-0.06626758714484772,-0.05495944201918896,-0.07051002209563281,0.040781445521981464,-0.0007426155887988718,0.007438805197877081,0.04845097940037841,0.07228463922053523,0.009094127459497831,0.03028137563354993,0.04060827631698857,0.025082109048646516,0.04748441139648091,0.05306713528650615,-0.016437238679811717,0.038781343741577524,0.07196434749449183,-0.03625134079983467,-0.04967344533122063,-0.06428571356396032,-0.07856594069218041,-0.06786160499151545,0.05229021654830126,0.03361524376212975,-0.0028660927129375282,-0.026309568855949147,0.012513795651279743,-0.026288065064121787,0.021206230505595527,0.059231400906527884,0.01746722143876789,-0.0447949221869375,0.01185246913593639,0.015024595596080896,-0.033882600674432994,-0.0374339070508141],[-0.056747057926493774,-0.07810160357377562,0.06765996725518762,-0.043538646562182225,-0.061624043583803356,0.028435401867861997,-0.07057872087376374,0.033738241182523075,-0.037683335216859896,0.010017882134501626,0.02976671332852851,-0.03885428478583538,0.06669373169151105,0.05188876615763466,0.02230595661156628,0.04645395204719015,0.0662947384189297,-0.06587688341271733,0.016503937040635606,0.06320589569669602,0.05006304019668027,-0.028013334425658887,-0.04168082199645863,0.013727994220750642,0.05113119102330687,0.07698599331419051,0.04629100559467036,-0.0375338204076702,-0.07090344089709437,-0.05865307048533918,-0.028719234477031903,0.04039762112237098,0.023786896429853422,0.07145343006552998,0.034629769766454106,0.07382899417706634,0.050514976380346466,-0.03161225044371422,-0.06128343516823868,0.057394801621661606,-0.05391921074707988,-0.07592906240702195,0.0599431561659067,-0.03250615748089034,0.024460666868117348,0.04398735466975429,-0.07829868996202181,0.05268939501328776,0.0039515981572924,-0.06543484429499075,0.06465106604828938,-0.03733355635228627,-0.018740857123307156,-0.07467796944772238,-0.021194897197871234,-0.03296577451843897,0.022338165110956057,0.07831445491464947,0.024852090652882245,-0.02946581441863314,0.0009731903739633939,-0.05094336897847047,-0.06288746689160613,-0.04373811811767108],[0.05476865844405634,-0.040006682353618296,-0.05697242363802188,0.03176461426386653,0.07682828588704686,-0.03844744340343669,-0.002509625757561701,-0.06407132482653514,0.0011395679719535831,-0.03012594099902829,0.06137450449171667,-0.04303102775014849,0.029271349169509034,0.020305157714169273,-0.023846882891902097,-0.014127085472374862,-0.05137142958587769,0.01500689173999448,0.009422064401530445,0.07411441017954466,-0.05869159753345877,0.06884550446996524,-0.04222644762705208,-0.04663774792930241,-0.06955226785043148,0.01311412628721771,0.02146881663326198,0.01932565870765621,-0.06606926175417455,0.010311020561483327,-0.06233028531490345,0.05315945862323149,-0.04011511696544733,0.06034255737063317,-0.055279019934731576,0.027607578588216403,-0.005392747921934124,-0.07413529941327585,-0.02313480327250662,0.04735249692815552,-0.07878579269795577,-0.0704484689918816,0.03539416601766844,0.06720420463311864,-0.03536344684784132,0.013179296725022358,-0.0052152379588838015,-0.06831410140638343,0.06918514513711232,0.04115284949554174,0.04215746005088438,-0.042621038685723076,-0.005733653142831732,0.050147091936653815,-0.0060767684293057045,-0.06766718284758122,-0.005414704983409831,0.021668961969268586,-0.03602641974277793,0.010245792118447188,0.04370316406574707,-0.041439771909310655,-0.01876019437475132,0.02965507860681883],[0.07428778638630254,-0.012794935554542244,-0.001522917788975774,0.03186102248875842,-0.07216503910436915,-0.014243861506387573,0.03537457226790866,-0.059159057663174024,-0.07318889157667036,-0.02727168951851923,0.045350123213647314,0.06613942232712897,-0.012073618535540483,0.04432039820392,0.03958377427898278,-0.008075557460774534,-0.011162439499934335,0.0069092382684840655,-0.05619450556507598,0.06005798480297025,-0.07734867730083038,-0.07699996932737932,0.039846588519908896,-0.04108748596346355,0.011602550910475939,0.04199879299348003,-0.07539030503051522,0.04706792058120886,-0.07390109967387164,-0.049793194038331115,0.041649930430725415,0.032645270851207206,-0.04641967304882414,0.013052813730730849,0.05439709022079237,-0.03559693751639418,0.06354028108537066,0.03972174328920379,0.05282847122896268,-0.025742132897809335,-0.05753825878215604,0.07485075236051096,0.026073924183766445,-0.045450256054903146,0.024456834571888065,0.048511003612888154,0.03659248867098854,0.029604602018279788,-0.05804982097406479,-0.0561355843499561,-0.005511543213161243,-0.05021946396658595,0.06636691687803509,-0.010283045701181366,-0.05911310282149353,-0.0013633409679201635,0.06339227251609793,0.04604946812905332,-0.044464494756474786,-0.05763501617868623,0.005949358611292536,0.003998345010613267,0.05413652238305227,-0.042056027570964806],[-0.07059973437050121,-0.029424645473403184,-0.027856827555892368,0.020770317132902196,0.04967621416652765,-0.03861060565055839,0.005561454510177579,0.012894291478754942,0.07437498382434782,0.00828165687429539,-0.0288857396974655,0.05556596767869392,0.020373401990111947,-0.045420970273479196,0.048043407491033654,0.06197902750593221,0.06105543944973904,0.06866647739110533,-0.05797323910040559,0.0632890758919241,-0.02705317654811109,0.07202855075580633,-0.04997784085660068,-0.07711277864981601,0.06737751001994594,-0.026719638641494535,-0.031741267751224364,-0.04427737483244629,-0.021816759126273948,-0.0270039104114214,0.06218147622305552,-0.02623891043015509,-0.020158759665571478,-0.045962056855067164,0.07511586129148022,0.01498243703156952,0.06348616795003509,0.06921629469033488,-0.0030183288331150746,0.07731103865921497,-0.027886442105566275,0.05188565102933135,0.029288602604747686,0.07257733529998327,0.05217316995495294,0.061686989444190175,0.07846074363370566,-0.03013376895812408,-0.054076999997768986,-0.07699039937679569,0.05830235041566999,0.04707185955543309,-0.055786808800493456,-0.06799413425525237,-0.011573723660850594,-0.05921539662836279,0.055723356644245846,-0.04908619425516984,0.0021317353115229746,0.033555645665316554,-0.035629022812266604,-0.07286380627349606,-0.04633108961011021,0.05421141727885934],[0.07443713781896068,-0.060767775727176794,0.02289567600441039,0.027701684901912937,-0.009046381724846238,0.06064749408660385,-0.06974701366642651,0.05161952750861241,-0.04612097628609995,0.055765373801826744,-0.024993747108802117,0.07746127116904533,0.028759758386644924,-0.018301392743780804,0.04286278395586259,-0.06507407347784937,0.055593914100986234,-0.04115150388445791,-0.023259847856344235,-0.020105633445637185,-0.013655758262747179,-0.01748916456576746,-0.050945065552232126,-0.013552475980805063,-0.025335108925998242,-0.019406298231532206,0.07619812229410307,0.001696263950566288,0.0017774122607544058,-0.023931377494667637,0.0027679096518655353,-0.07826784781957938,0.02760320108459318,0.035553876026826484,-0.06116451147555096,0.06420553107311072,0.06600925271851336,0.06948861932699543,0.05196912350046614,0.01137132383605465,-0.03915364519087925,0.027118450272663838,-0.03857116995183844,-0.027456571303813983,0.038106818751802274,0.058405806286219254,0.04658437897959047,0.04512907670615579,0.047189844856142936,0.04024333948955855,0.055834800690388424,-0.04805943809610364,0.0308885613739773,-0.009612566814642927,0.05606095575285596,-0.023741492144403215,0.011236789483684992,0.017045459508475653,0.05922311328533247,0.051319532163004895,-0.021957119449606734,0.07817491596776159,0.03274521969854287,0.03712099476167911],[0.038766145307116626,-0.004869964590566629,0.051733383975700174,0.0026048015537967458,0.023864611780077576,-0.027409125419813662,0.0435326017286198,-0.0788134265844979,0.0498671453336498,-0.03676847967308105,-0.021865764455025635,-0.0401020107559992,-0.01881579185075068,0.0029991159053599577,0.023406746114253245,0.06516044663572011,-0.000340119104121848,0.011550674996007043,0.06722893371642044,-0.049411837971997816,-0.017740506120126193,0.03209955267792655,0.043441443434391984,0.020963835795703656,-0.007453460621887569,0.04721341297946443,-0.07830336562946125,-0.020361995728608338,-0.016640383466881476,-0.06966633803368597,-0.05507237328160353,0.0027491440885035233,-0.02522639594600517,-0.02517076736614276,0.06117555090248458,0.044648956106968514,0.021998094419859966,-0.07452133710871033,0.07751352923746234,0.022239523957188003,-0.045291484901133744,-0.04993144253536443,-0.07525472944125207,-0.008936657818321005,-0.07626142248056719,0.026419798598812102,-0.05977653609058549,0.06401167445871563,-0.017074903898473916,0.0483032115266066,-0.03491578462429314,-0.07673284695690252,-0.035280947699188554,0.023100706167977228,-0.010895535834851562,0.04322673211220563,0.0323057605586692,0.023875756761678836,-0.05788348872061566,0.039252257877393795,-0.013881006667455885,-0.050235667441586085,-0.01697956407276718,0.032960515201401135],[0.006268711011740656,0.048390771474316835,-0.032337207427099446,-0.06383666351212741,0.07561571416461184,0.02117673943743183,0.028786916732745697,-0.04891017439205404,0.02544206438478483,-0.027601268324524527,0.03970433274479471,-0.0010275874650178842,-0.017499133089230925,-0.04894587013891235,-0.04681991844387169,0.049651242215285975,0.0700327614015018,-0.03315827378787053,0.06670461379256559,0.00576701626319355,-0.02446565002059784,0.047308727990577504,-0.046730715345519126,0.06139242701000169,-0.01076420435847296,-0.07788064481385977,-0.05440754859432134,-0.04343648553685004,-0.0662877118132454,-0.0489535017056872,0.06988649792856959,-0.022411324289660573,0.03954520394183205,-0.058849998113262705,-0.07576339536993054,0.037735768263295985,0.06985032392207385,-0.04355278052613046,0.046290940294078535,-0.0029536530210075096,-0.05683937168772735,-0.0682434372932689,-0.042689523900890876,0.054907912550515636,0.07434992607176309,0.044180948788864485,-0.012681106139459922,-0.04692251071385975,-0.07587981912143703,0.06477958797180534,0.017244769472636576,0.0546434619010085,0.049196992301576946,-0.021783172304821168,0.06009241988773136,0.04325547013919985,0.07531602889247746,0.02976606742783752,0.06909826708886369,-0.013958208075772754,0.045402603482952726,0.041637543342012875,0.03477978336609765,-0.07326311196213803],[-0.01969536294088654,0.05769506641833934,0.016962440007630614,-0.00981464458080025,0.041076008639960755,0.009982136630241516,-0.013118313684461608,-0.03053082088464871,0.0022276094458974884,0.05978303444003498,-0.039774340892572674,-0.02557085198832752,-0.04627155211234875,0.0213229949048519,0.0722822619663669,0.03951800143445312,0.006866780840755988,-0.0024812991720413713,-0.0366052782535205,0.006917210079745867,0.0405071043891197,-0.04498642979056246,-0.033297290721452204,-0.02318799258054139,0.059653111106720384,-0.0524828584592359,0.04705645122190951,-0.07107744857524376,-0.006262828205584436,-0.0392069730478947,0.039895772858913964,0.06819706181922831,-0.06207438769658968,0.002629738301209341,0.0239410840917501,0.04487755101322698,0.03010973038784575,-0.07410500492676318,0.04105149178520766,-0.030920120583306968,-0.07646408855187745,0.07617048743216973,0.010161670892979558,-0.0016191805033519806,-0.002070109124852158,0.07393664513083276,0.002271836762403218,-0.03675201053359727,0.06886343458745525,0.06541201330241728,0.0784136756406779,-0.06923782848431496,-0.06965887064559438,0.0696585360650514,-0.005027044985297557,-0.07749267012476942,0.011267116244863422,0.054529027541974036,-0.04539732898197592,0.034308501556741,0.04028609576087082,-0.01516464436980764,-0.0509423480901604,-0.013793208867640704],[0.0016773796783663497,-0.06219188587774498,-0.06302263719802986,0.06131014440920045,-0.07207096115482972,0.061000690768138875,-0.034081924297218735,-0.05723610691302915,-0.008019202830359016,-0.06627060441793255,0.030158292319504735,-0.05443622622827893,-0.06948794909861329,0.01801496778122748,0.03043325743519278,-0.0266011423654306,-0.0560104162331874,0.0009500598758539014,0.0649035741272752,0.05452018580204158,0.06684600271003374,-0.06847887247865303,-0.010531013317510832,0.030823602770193807,-0.016856621968462514,-0.02974286404807778,-0.06723405488676598,-0.04431582513854945,-0.02586981165480634,0.03752862842034938,0.045800867727265125,0.04120602879602753,0.05871477253487661,-0.0709021737025418,-0.05313152035415366,0.06734099299835143,0.04764742079089958,-0.018187578318149177,0.03436296291667319,-0.0025375212930780805,0.010338797388956667,-0.0756815682873457,-0.07443607404763382,-0.054873775382314,-0.037488899990424596,0.02452306033990286,0.0447259232002913,-0.0694026313821132,0.024273626158984513,0.02085548420431837,-0.04970376733253389,-0.028161073484252435,0.026472101231059884,0.05941442036589337,-0.024128229228766583,-0.04625472102208816,0.026901336250189502,0.013932522985148334,0.0035646190488040175,-0.05989392411363997,0.03562557346983006,0.05767924931096501,-0.06656200767294163,0.0459686840494444],[0.005927087154199099,-0.06330879151718319,-0.026506382262852554,-0.07486306384354302,-0.0773686697224689,-0.04159519507624671,-0.024746957596108954,-0.03555332008556765,-0.07616654644142884,-0.07341041977025405,-0.0605139968191377,0.04310682656361041,-0.04163910928149816,0.07348231771690368,0.06871147551849947,0.01626519141539422,-0.02182348742636487,0.003652332098010433,0.027792853227063645,0.0007281715469369046,-0.047800108670865184,-0.057188602435404426,0.013610725573850829,-0.020573585550343144,-0.0005591619270017515,-0.042180644374853186,-0.019624678172420605,0.061795661208298346,0.02428563666043269,-0.025400320772062755,-0.05438927233231927,-0.07680641766916249,0.06178807957163921,0.06677756402527245,0.015180332915727877,-0.04070627473530887,0.053523446390800235,-0.02309579686448979,-0.06038141695039074,0.05660185696392305,-0.06908748473901957,-0.059523359098791855,0.0698002753752066,0.06681621608225559,0.06967483913796732,-0.00007720087632020383,-0.023624174187724518,-0.07299636138160127,-0.04609598193881686,-0.01786357329980839,-0.014431601611806597,-0.014507880709296136,-0.052105642854785555,0.01440135486224964,-0.0018476123590402493,-0.07047219822683695,0.012131982412912046,0.020735667654149706,0.030069174961937388,-0.07190668976800563,0.038262870519945695,-0.06634754172363465,-0.012219371415018792,-0.07495365985789351],[0.07078942312104688,0.07586662364966708,0.005048298712631846,0.038386119729249164,0.04879139387972277,0.04936698007084474,-0.0723080520595236,0.0742693888226352,-0.04305563604010207,-0.07709867378258072,-0.021784465287085334,-0.028854439566079308,-0.02795512954686978,0.06500151930099704,0.01847754025659092,0.01957939716907871,-0.056266687289704326,-0.028691670293383573,0.029753915432380595,-0.04809074655945744,0.009678649757968527,0.07746710824828701,-0.06810260458113981,-0.04950793233933853,0.07668996359655285,-0.011025287184956684,-0.0334063667658595,-0.07359639372586338,0.06738133528943989,0.007796278863957798,-0.002930609933622202,0.027127608378933164,0.037115497045417827,-0.0040780769952404134,-0.03865465805164885,0.015670086359421815,-0.0640000064936336,0.07543787328581843,0.07655180287513876,0.05429149957586835,0.032264908914200155,-0.019206540545009105,0.0255702517158445,-0.03444846780493696,0.0008636896082946681,-0.0720751033020869,-0.029160970174751277,0.07892078267691031,0.03386191298435576,0.006121290530139001,0.04926636146979426,-0.07344797000289682,0.06661830687437845,-0.05420037709989486,-0.01501217622904573,-0.06721828117798874,0.02021009232545459,-0.024603918017174282,0.04762199827075802,-0.0053895554432836605,0.06612292114313452,0.07653446913866042,0.024389595346903718,-0.022387748931196876],[-0.05889036501328255,0.025666459599222737,0.010606958791172783,-0.052186632578796015,0.06885580670281786,0.026961350084288807,0.073473795962504,0.016763571523376392,0.04150334132762675,0.035135748356851945,0.0006401087573249554,-0.0776069373294036,-0.07282656158113862,0.0707287275800787,-0.02931484226734294,0.004164262461620053,0.007739209671424441,0.057449023392986485,0.061124125660680775,0.07038833612440831,0.06421282107275277,0.024826316472669554,0.058038903375920124,0.021079739158341947,0.0094296702453994,-0.0047714002298901645,-0.02032696049412479,-0.05700953208056682,-0.06222971499929752,-0.0441520601012457,-0.07063412873504574,0.01395755028085475,0.06808432432855575,-0.07199742622036577,-0.032330307259886025,0.05740891435911233,-0.012094605177454327,0.0638701191695842,-0.023518295249576358,0.04962599040464834,-0.041983354983655595,0.06851657931419078,-0.03695547184439125,0.003922363287680707,-0.0036426563431935528,-0.05660755626783532,-0.011708061881330492,-0.044772178170510914,0.014299559651491309,0.07272280220485211,0.06324075291843284,-0.025086704235374024,-0.05747607428184791,-0.03512758926891669,0.005603648925744421,-0.012488647661540855,0.03706062657090042,-0.07554754734255316,-0.0695136973719304,-0.013148220145689378,-0.04904047564348644,-0.036855781055216134,0.01495197609572207,-0.06305166713525245],[-0.07145140889253154,0.041082394073243725,-0.00467873104309524,-0.034160691080731505,0.04365453443948805,0.014484431362669565,0.054305908239276605,-0.006255258551331524,-0.06681352576833663,-0.028830472373786397,0.06880967779326058,-0.00003363389870283959,-0.017564390986004562,0.004203949975554731,0.004418036862113488,-0.04863065253715145,0.04012111984737464,-0.011033702774165372,-0.05411339884721337,0.06606358659487885,0.059786249940871096,0.06842951835446359,0.048006242175085666,-0.038430158924200625,0.046882022982775856,-0.04516075457130976,0.04321719046016013,0.061774258036467536,-0.030997543908806782,0.03458783251990944,0.014575692514716292,-0.00010629869114573662,0.016201430030635122,0.04475899416798478,0.0223872042928379,0.03080708153346616,-0.03081692821902545,0.01026545381170324,0.0003359961256839049,-0.02578407182664247,-0.05305269412829673,-0.04996618112224368,-0.04051965248486035,-0.07179916469156915,0.04713611792116502,-0.03937448457495884,0.041240261776520785,-0.07408425634580598,0.006779021255941185,0.05575369711561528,-0.05577439350890025,-0.0748174990983965,-0.07285853355116713,0.024345066522551403,-0.021895738897930884,0.010570522576018725,-0.0675480415439284,0.03301010506868277,0.04269636253577114,-0.07502158670718226,-0.058964870162168614,-0.040525155541724,0.04378833379187831,0.0013995259943222105],[-0.004384197282652313,-0.06953044966108285,0.06539205595152259,0.05298156512731731,0.041593705560867715,0.006544590119111364,0.07069299837195615,0.07518772131022441,0.06596762259140113,-0.07837777457268592,-0.00882273483461904,-0.0028300428097486957,-0.05169268218552164,-0.07350250161988932,0.012554873105139667,0.007010620196961991,-0.001685677390471806,-0.03872590283993177,-0.06099997342761612,0.07537600073707557,-0.07079745694620368,0.00905504695697435,-0.027968137297417883,-0.043769980956869535,0.016919170838878637,0.001713705794501113,-0.059616841503950385,0.05736178582474668,-0.04226213535235941,-0.050117440686868485,0.07083621941292381,-0.03930628168006772,0.05019323700801554,-0.022066864597508694,-0.007507501142424781,0.0736664158160382,-0.037814587296658694,-0.06491058714679719,0.07406330145668326,-0.06186883637255436,0.011529597951763946,-0.05640397389216653,-0.04110282561895463,-0.037002163702480724,-0.004026046604362904,-0.040168932088742414,-0.0014871532353397763,-0.01771324996718804,-0.022095416079281227,0.03498201729595681,0.015899497285675055,0.04269326415537544,0.059667492131591116,-0.025548753436682118,-0.03351616510219888,0.035316064552523375,0.0782620848932372,0.028667002808420775,0.05056439134686758,0.07370920947617468,-0.008520341415217424,0.02075410087965427,-0.07244016603565324,-0.04629424696359055],[0.0254878886285233,-0.07589810578195261,0.020982546998886607,0.06286011693139144,-0.03528862889439333,-0.07626456967388065,-0.06421568119663264,0.06542619475960672,0.01765852509583125,-0.07632765123064685,0.053734340772311935,0.01570897274996368,-0.01070558620607708,0.04833443931568529,-0.004200613691646768,-0.041783626335532134,0.009846244005362145,0.05532365640310896,0.04937335551830304,0.00047775102070170825,-0.024985071573446663,0.058584798590197044,0.061387552389678864,-0.01377087977997793,-0.01759034085813437,-0.052912181954572146,-0.004664436611440211,-0.07092630252662359,-0.05820121560940027,-0.0034666220049595266,0.060590909680070054,-0.03152197095095308,0.0505066088081098,-0.04745943127989061,0.03185760556066254,0.07311734683486014,0.0539365031351933,-0.03381056128317291,-0.012259681418863516,0.07717150661882166,-0.03454489948419384,0.018956413177225254,-0.0028918339702894806,-0.06964043902573591,0.031243658511609002,0.07033803620792663,0.05977242497912875,0.0002487615212094655,-0.022289640463424697,0.019572911981658957,-0.03837591698189087,0.04299964685193551,0.04920282018764884,-0.056728153178972576,0.0772767819107012,-0.02922366207411379,-0.07644142572432756,0.05291094459357748,0.02528190293319233,-0.005714825126746756,0.0524039761686409,0.06512104418700838,0.004399559192496628,-0.0205444558428201],[0.030292317421260137,0.0122576507002701,0.06071117353971357,-0.023309172364868035,0.036303801301320056,0.05533318890793292,0.07767380067009634,-0.04805340159234922,0.06255025969091098,0.05746187620067021,-0.027175876868710053,0.02281217274320556,-0.040805307963816304,-0.059020907983385794,0.00023824770940611564,0.008492099545915439,0.04732030821113418,-0.06827961604008002,0.07572667779051728,0.032377009522252455,-0.029152763017353773,0.07011034354716839,-0.07632501172232393,0.010424398233897434,0.07744916082931028,-0.058218288287687145,-0.04722857834729011,-0.040051854523918476,0.06463442461703515,-0.00046222333666875467,0.04785283052961456,0.03815202041207382,0.06581243020629396,0.026861915190131744,-0.009079726114182556,-0.010819704037535469,-0.015100612672693374,0.012834260315419545,-0.05618538723127789,0.07777180725139042,0.020692547781249505,-0.019209400284075088,0.017203099494405676,0.019180215337341915,0.06442064940133685,0.00010429178074881783,-0.04874077195188961,-0.01164638104923514,-0.0744240629079209,0.06439595929447024,-0.02966112203443256,0.02359130935448562,0.01706647857834286,-0.04386067399069652,-0.05037662908115342,0.007089464421940969,-0.009726687525421978,0.03407918019769439,-0.026491679020661428,0.0016584580860694604,-0.06975923211689226,-0.018189686726333233,0.0045091475592136995,0.02762348246634666],[0.003799510116914197,0.02007630546251272,-0.06232518694392179,-0.016218535252054123,-0.06253192720410516,-0.07466518151689366,-0.04987803175991645,0.06808236377103755,-0.0404839451122777,-0.050863338615863424,-0.04259130537316318,0.04169563022556741,0.07237436293321567,-0.04370847499077059,0.07856466673624729,0.021013318272322272,-0.0055095204363447255,0.02258006738588142,-0.013657993611728434,0.055510623116695273,0.07487230857529628,0.07123218478687046,0.036074331352748054,-0.05604531636948763,0.021088676771080058,-0.012391789444619106,0.03348210105216402,0.005780036314004232,-0.06043674115169901,0.014939576665370805,0.019334773609011126,-0.035572475288647966,-0.006544150121279168,-0.014225195319200154,-0.0336050982717224,0.04905598487096033,-0.04450917770170587,-0.019463447329440445,-0.06702089824023251,-0.023327528845478538,0.061542900782542265,0.07407891130235383,-0.008606396295977812,-0.05471676394244779,-0.058484143723272604,0.058307785488533145,0.002179352915658547,-0.05202431289095602,0.023823574455689556,-0.019908573693138133,0.03655805051568906,0.05757022804172995,0.034544790105091844,-0.050951687199477555,-0.032051029660450675,0.060839006961295634,0.008822504283502928,-0.06340424416435896,-0.009230446582551632,0.01079118465223614,0.06833230633650768,0.06574489632471174,0.028262078141410976,-0.03652816055667477],[0.04541450602205592,-0.010567729276934569,-0.059090673338302195,-0.03252358396163958,0.05851427208115677,-0.03788801875727015,-0.04078546892174095,-0.07207219130217209,0.07017473508186751,-0.06700398559837178,-0.0780312573459742,-0.029090299229083613,-0.04864301205543581,-0.02758103435625903,-0.008227775184321936,0.05390571457368103,-0.03392503065393927,-0.07110542945933088,-0.04899317010002431,-0.06313028325106688,0.003827658143067423,-0.0713523697581705,0.03139448068944089,0.053870671111852515,0.024209744484973063,-0.03689073871443303,0.05950458436861622,0.06456386381202488,-0.04790225427884735,0.0018528040505304993,-0.040530801080141066,-0.0483137922985991,0.0001373884758390438,-0.00009213823519220914,0.0363046149870278,0.07112261919890059,0.030605771760622343,-0.03162133367234938,0.055364796005600785,0.04226704798904457,