{"weights":{"hidden":[[-0.052119929188075266,-0.05774871997551251,-0.03805530915553452,-0.04866774323098162,-0.06450787123824933,-0.04667278390219932,-0.011563734182242371,-0.05089053974049049,-0.022185110660702365,0.058991231733871226,0.010617792326908144,0.06453661851564345,-0.059214528052402966,0.06623930446242375,-0.02723438988860577,0.008751439606607686,0.023705478089002464,0.06523475037681621,0.06329256284418633,0.07394284696429797,0.04531144444035514,-0.03638206968120523,-0.007055623964916874,0.038397683484268044,0.06299359403730762,0.060844595593344715,0.019198444298746814,0.061410570046308136,0.061187099432888574,-0.05313783683784573,0.015511508669554506,-0.063689944422721,-0.05579952243093771,-0.008098237602814988,-0.030275391590349837,0.002383444009926943,-0.04489840275957536,0.07067061513565753,0.015767324381217182,0.03750391162220028,0.04962820400467567,-0.027178854121764323,0.04020490437311773,-0.05909093216051755,-0.05943596318098974,0.053109674047725326,0.02576883739991733,-0.07727921851288717,0.05681652700581865,0.038319762082864514,0.07023868026455798,-0.049338428597228194,-0.004169116588734348,0.06512294188010585,-0.020875384444066527,0.04346558760366112,-0.032468281589532674,-0.07318741982341564,-0.019015997862939085,0.07786445856869238,0.0003295385558766446,0.05250480982157127,-0.0553175020974138,0.0005883561645245181],[0.07462643386615751,0.00131110365382759,0.07236403240649289,-0.03447989748479732,0.028540035459845858,-0.03702039261619468,0.05111479898355847,-0.011554833919013697,-0.00951531523115086,-0.0009240878314226101,-0.05598141755364313,0.028828638866157302,0.04122707644395427,0.04112681777779548,0.08004391470980568,0.056195400878070526,-0.0463300453573439,0.04530479850273293,-0.025995533049468805,0.06470871885993791,-0.04810073429730011,0.019306174522838938,0.013240866959986967,0.07393378966898789,0.08304958236780109,0.02010548269893163,0.000477984927809018,0.03934352536265775,-0.06550109556703362,0.06394392751668021,0.0329644242517938,0.07857967381061896,-0.026437021521617383,-0.07012822122827711,0.06611693904003738,-0.06937256843716359,-0.04143813719300042,-0.03166213983874527,-0.03392076270927575,-0.015829077591056572,0.05202501298392841,-0.0057493697659086376,0.0002556078044851054,0.04023610332133552,0.05113277326076701,0.06578391018844992,-0.035628501990501,-0.06298185496100947,0.005616033014240027,0.001025050668109728,0.01905107521920884,0.04843005923431092,-0.044688731819412734,0.031741182632678944,-0.03970548558452092,0.002039718231409741,0.0495399655121646,0.03254825533931721,-0.026583496373839506,0.056604936812350154,-0.03353602385512702,0.04602316610796376,-0.05642431092818249,0.038643255871200856],[0.02513147367483525,-0.0742720682977475,0.06624912152112616,-0.004157903868554534,-0.007912859076393575,-0.0050352816814943245,0.04610273078872634,0.01903099054549051,-0.021894156624989256,-0.06978302537125594,-0.018613499563262168,-0.022984736563781707,-0.030049479443988475,-0.01772920912845782,-0.029907225726436455,0.06382473753550993,0.06282501672462615,0.013471079848023416,-0.030162598155633272,0.006336117273252987,-0.046219683370189266,0.0699978415148114,-0.015968420881839078,0.07373127587817445,-0.06922624134995099,-0.052927971822230344,-0.014983975125923787,0.04985113904674978,-0.07147325578768322,0.08303354662880803,0.06658566758767998,-0.022087747512791436,0.06803293934414642,-0.06697560116943373,-0.05739939823579081,0.07595610808472181,0.06869721702716836,-0.045142526721865785,0.011228429210615003,-0.05747278116125372,0.0806244193389948,0.04084301336849159,-0.040467920472685895,0.07325449075351997,-0.06350804162607093,0.05188348919521336,0.06379498931232443,0.03673072360185541,0.05680659642259423,-0.07466332294405686,-0.0365669896285051,0.0053100092437942115,-0.05318646494501626,0.011003476374695294,-0.00834101952719791,0.06605789020414887,0.005604492678004359,0.05926337673049451,-0.052525831880863974,-0.04091454897599555,-0.04079691813169016,-0.011487718243197458,0.0534537270002401,-0.03443272599123244],[-0.04730716945094486,0.0203938231820058,0.03503107605475685,-0.057294511437779,0.015605675933495385,0.01767500599889641,-0.0513936669772196,-0.06891798637134146,0.05265716475574081,0.057861431098646145,0.00541881057858405,0.05347035390635681,0.07452733419327172,-0.0626828669319012,0.032971475514088994,-0.08176431484539243,0.03886063762774131,0.06164207521602762,0.07885134926528878,0.011190004817121372,0.06499978768278897,0.06768084404590839,-0.048724591855197875,0.01552940142827138,-0.05255413669115112,-0.0003395602380872447,0.06424783880011707,-0.03654054699522173,0.02251482603768177,0.0205319490736281,0.005248765506931082,-0.07469533902495573,0.0012349115489815054,-0.07287733289502112,-0.06589413099757695,-0.042926774662032735,0.038191775020479574,-0.01367860696977123,-0.018833703554882862,0.04921086834144699,0.05343600294618568,0.06021757007454369,0.07517240466929395,-0.04172479040763804,0.04848912357518804,0.012886421799342825,0.06757850041260338,0.020016648324264134,0.004616142691422616,-0.002612579480353389,-0.07511043238184296,-0.015412466887691803,-0.05251072603524042,-0.007458533191220096,-0.052048305677806425,0.060732011131719214,0.03577698016773886,0.048789310569880825,0.043336226414143586,0.018733220989108065,-0.04386040770320782,0.07187618821515697,0.018762514486848684,-0.0810093786859671],[0.03236853944107294,-0.026542673477601933,-0.054688353505830956,-0.06501531411832873,-0.03069424511956886,0.014548202677199716,-0.040274544463946224,-0.025103773153717132,-0.011281145742187429,0.05868309802935193,0.019870082190303694,-0.05614012334959747,-0.06834355881984135,-0.008314304389981663,0.0549190811558458,-0.025082526692055265,0.022583883570869843,0.021399915768198222,0.0022256132275851473,0.0008042812313072976,-0.018977255790466566,-0.05474811031102322,-0.01854405507754323,0.06276151693682841,0.02373582231739185,0.007698488533060862,-0.057590775383718755,-0.04142826068629131,-0.04566107300697721,-0.0262474577456297,0.07255613218120986,-0.07813546894098733,-0.019200378966441584,-0.030283505300821474,0.005191750171759784,-0.0717573175439219,-0.06527739737097807,0.014362275208261187,0.05491979744214114,0.03626363196663681,-0.06010199344714101,-0.008703790459772215,-0.020258688341781815,0.04823876048940059,0.01900279213090375,0.07830698745998826,0.06598197177835281,-0.006064727509428452,0.000014361798474475153,-0.059147090682074466,0.04709697843392345,-0.04616861289685127,-0.06918007526000894,-0.036195921013390545,-0.04025428563269026,-0.02574068684147205,0.023488478918240772,0.02015681089607257,-0.07356758054400195,-0.0645173281936606,-0.03326327535724081,0.07151409512520589,-0.06524090784663657,0.05589615585081821],[-0.055207730564670876,-0.03489356278204707,-0.05707029535359791,-0.05398102077085609,0.04580811794532778,0.007051549268375877,0.05607972123633958,0.06448207183151146,-0.059179103989074236,0.059693261668626256,0.03684573351692629,-0.026263793257029086,-0.012965425511696093,0.06012093196319268,0.029003126947213496,0.006165142064624607,0.06610149209492482,0.03405423722278514,-0.021467116006221598,-0.05567045273637703,-0.029771824423714205,0.004373864060731614,-0.028687643212888615,-0.07592891811909634,-0.03125706199570906,-0.008689936735112931,0.053634944864418346,0.011137497818111622,0.028755696508430437,-0.011423911925217712,-0.01269098670687763,-0.05284069903410149,-0.07238244271537393,-0.07302071686377754,0.07389124369024011,-0.0681025068183075,-0.0031923266869759376,0.050851939011199,0.06708790700554172,0.02692771109138753,-0.05700586817222637,0.05115792095317706,0.058590578817505096,-0.06334889497131357,-0.05803684178384107,0.0010622102234932368,-0.0508315772296341,0.019361047818636953,0.03482147514125497,0.031433912917104484,0.06396302165862017,-0.05931545094729888,-0.027934902497373227,0.056139263828625226,-0.07533954498955746,0.05223613268773064,-0.03301759142096816,-0.013682551467991251,-0.06153448376850573,-0.07274301344479192,-0.060817880952985605,0.07824510988461476,0.020232553776877004,0.05310745859225963],[0.05391025692605471,-0.04509388877150421,0.061684721251092055,-0.0603201224264389,0.029094309072613747,-0.02328092351436168,-0.030674840288376897,0.039299559709767784,0.007112487923276794,0.01907917916912118,0.07741208037368416,0.012614833063387553,-0.055631003641140445,0.07307458871791302,-0.04259144516356673,0.07162157891749746,0.037825411458412644,-0.0002660799214214309,-0.0732617749355224,-0.020539933631012742,-0.06882097504133151,0.0028300852741093164,-0.05930931264620228,0.03229316481966175,0.06638783012494058,-0.06986483434390077,0.027962103053786016,0.016934116403087524,-0.04079635952010575,0.048104537620398534,0.03267629571293481,0.0118890993666317,0.07349586247704819,0.028823477714546294,0.02929299592791006,0.06948539138831009,0.03872790635663932,0.05014658040981087,0.038504806020126216,-0.05512041517513914,-0.06787389791422377,0.051338484413639536,0.06182652827525104,0.0772856615349937,-0.022774568195908985,0.009924310941818776,-0.008364946880395812,0.07643368889135464,-0.020796974218754753,0.03964239148945677,0.053890211825261415,-0.02428428438331827,0.001750337605515425,-0.071054076939744,-0.036104928432542455,-0.03680669902345092,-0.014113053607841377,-0.04888465197108412,0.07082415616063857,0.030953266383519643,-0.0762030012301739,-0.04026952136590477,-0.07206187534588908,-0.07603027485953197],[0.004336929396294203,0.027855608649589948,0.03104512500187824,-0.07588325024175951,0.018928768286290865,-0.005966329330835713,-0.0440837447224059,0.0048756269877570655,0.03295865366395665,0.057271866479056265,0.04602007313581869,0.02673679980362654,0.05986995994686807,0.06757682630914515,0.05394129930178193,0.055610678744835884,0.0027490495763060905,-0.02528136487368536,-0.07134239732442815,-0.05844569773371972,0.0348688404619802,-0.01332601423958477,-0.042764978234987636,0.038683750842858675,-0.06064631692028106,-0.013424975415069759,-0.0006736564155095374,0.05763025980424391,0.03220162726730572,-0.059398160113454765,0.06978853895971811,0.04434566871601018,-0.0760515684290759,0.009394209099204654,-0.02534086684726146,0.06317572983741573,0.009126545539759136,0.016034371893022415,-0.013788678472948623,0.027793984727039846,-0.0785466184420615,-0.010470849728100641,0.001550828483622013,-0.06635503280881205,-0.07411961585747695,0.014477160249648194,-0.0036268288283805715,-0.041014733094048454,0.0031913243746340032,-0.02062328107265018,0.03845934368820658,0.06264241782272814,0.06662964061281149,0.07145134183882007,0.04331738023692733,0.024888939104570067,0.004448274622094837,0.07307606149585362,-0.05600503539266603,-0.03298972163952127,-0.04216926122038264,-0.051478046608034074,0.02485934010768613,0.037227956225120235],[-0.03535549721549635,0.035752572256555364,-0.04876601315872164,-0.04631820366519164,0.07126527993994812,-0.0003794800544259965,-0.035931996809464295,-0.015252520974396777,-0.00044169927075840565,-0.06169565704619658,-0.06774446274382832,-0.001306375606788918,0.032367435485621515,0.0005821537383905227,0.07771128738049835,-0.017273376074588752,0.04808116986428741,0.03065671141948541,0.0735690865617991,0.0006655499451078267,-0.01083835361225475,0.057447418523232395,-0.07551209333826549,0.036005958472207215,0.06647113542904828,-0.0664072308339071,-0.0051565323705364974,-0.022082328978603447,0.06283767400962248,0.025145299811632216,-0.05724304194252707,0.006751491558004264,-0.02229963051971901,-0.059481785991939144,0.043614226856889926,0.018663840352451173,0.0034377445764066728,-0.0056870095228649,-0.0485364308149056,0.04214530329744535,0.019269524668167892,-0.005703006648309877,-0.06275861653079803,0.057835011898306206,0.032192275778175294,0.02872761648573203,-0.025801236137688068,0.04702882013514993,-0.014536078606901226,0.014952703883614533,-0.044032393686721044,-0.07625942849632164,0.026058760812851273,-0.03422735522017245,0.0026590197653181586,0.04366356950864702,0.06713714084323759,0.046836631749050534,-0.043868730132354934,-0.04341460314015983,-0.0006842943842017986,-0.06772635566915708,-0.010673783910852056,-0.04209323696939398],[0.032958069800343964,-0.03706701290935607,0.03303816084219933,-0.024804466487686624,0.00008928393434745479,-0.07075141818978663,0.07134488188542559,-0.027084270592329464,0.07498585724284965,-0.07401068519932438,0.06801926481398043,-0.07878658312214078,-0.03798818711885456,-0.06874671364318503,-0.04763897726082564,0.00008599994105101293,0.05806798498371662,-0.03438303996663354,0.07590812019353692,0.032678807191327146,-0.03767546987041632,0.025437693873664603,0.0432844828340797,0.02467280319826801,-0.016737598387496878,0.06706048885041103,0.01778399141754418,-0.03350802521655601,-0.0008189785988545558,0.026613805747261358,0.05220042037619494,-0.06099244652202844,0.06482243467794398,-0.01983566148779057,-0.01986012844582607,0.023000240275571845,-0.04472876280947713,0.0699632740023835,-0.019380123009190738,0.047104500465528616,-0.04964327102188505,-0.036258379135909534,-0.056690189696162414,-0.025333006248071173,-0.050666073449240255,0.04230100914846557,0.031489279028999645,0.007991801305688204,0.0034935130293577555,0.02406205718949842,0.004828225057319292,-0.0075302724620861594,0.034384580417517185,0.0023236460342126557,-0.07062089397985276,0.07314044605621348,-0.07679662401134893,0.027386422928709936,0.011929432264083136,-0.06885565342992823,0.04424374751964999,0.0017953844649966561,-0.05348406623150629,-0.03739781450289301],[-0.023618321652195195,0.014841104583469236,0.0031881132081685534,0.020160287011626508,0.04728443553755967,0.024557895097670635,-0.06366390994729326,-0.0015793291706842248,0.039523995107411614,0.011602803619674475,-0.020797185909814695,0.0756217027085687,-0.018923122046739117,0.05144350992647935,0.031089830914248447,-0.03709309940627773,0.015018817367344221,-0.06247602709010717,0.04070869637271612,0.006308901033961218,-0.028396319566217142,-0.03718989625161914,0.015367597907965434,0.05452928290138358,-0.07798260131388914,0.06615134801610778,-0.07616646804729564,-0.011432697432257683,-0.07804655650831688,-0.051818401330079956,-0.026933640141123583,0.05213097954504132,0.052538028145638585,0.04282692107622074,0.021429209261432564,0.019625271349431175,0.03621936995770223,0.012772419575548245,0.040326858099350174,-0.0398883408098136,-0.028923076421226455,0.0031186148136597646,0.01907473045923076,-0.010357038907766923,0.028407499071517885,-0.026709962018576738,-0.06086304541043787,-0.0614271205685926,0.014368924737394907,-0.026898914994566203,-0.05616352676443599,-0.04927759949221877,0.04708702876630718,0.021033645125937424,0.0065623371557410005,0.07014957756895694,-0.01935762740588108,-0.040950561544580336,-0.03749595705205411,-0.04435061854434149,0.029032721190981752,-0.06467455306883513,0.04036233867347259,-0.03222267175176963],[0.07790777961301976,0.0021296033251408998,0.007622894398513463,0.006535262436574291,0.004081469309167853,-0.0028611084237737104,0.07049546601044487,-0.02607665353383706,-0.06913561369518255,-0.016668801016022413,0.009838341251309187,0.0001867190092033822,0.06727035241184168,-0.005674116257429307,0.05537500278306316,-0.03120033070611353,0.042364759979785276,-0.0002446991734709626,0.05817544658037161,-0.05861766437452482,-0.0378108575113438,-0.018526598335262958,-0.07092041566539273,0.042087633360409674,0.0042662538540395745,-0.06167904698703591,-0.0035012257507534214,-0.0625844737116928,0.05619846376645644,-0.031539604345798215,0.06511376640348446,-0.029084917512337792,-0.06439302238113796,-0.048363889551181725,-0.0327202371611446,-0.04726217968386024,-0.07796198124242402,-0.04379101673416479,0.053708325818825405,-0.0006709714889057124,0.04230198158369014,0.06308359343250473,-0.0440699521196891,0.0033114985318953623,0.06651951001392178,-0.006551245504419973,0.07723171338048473,-0.038292732396640765,-0.07050822469926415,0.01139044272361137,0.02095389742851579,0.019060704520764245,-0.010060086355853527,-0.0017656109214033299,0.01562502178689612,-0.05547980323774864,-0.020150170370370844,0.04658551627191744,0.01045143470037108,-0.03847011438144565,-0.00048797039827185533,0.07664120169970753,0.04808569728946222,0.03326090604586891],[0.005989894718339719,-0.0014775301746576593,0.039172592853183814,-0.07311777705904206,0.028916882961860412,-0.04928035461881943,0.04078240801111434,-0.0630335783690716,-0.015811790789259737,0.07738239580191292,0.020940228862078494,0.06385420922394427,-0.04003140863438166,-0.057282044555318136,0.008400026270845172,-0.018410914832256566,-0.017358451586629183,0.03157498826070598,-0.06389790365644424,-0.07642907177246193,-0.03418438953009143,-0.06314653374679774,0.06515648397912284,0.008495747945960053,-0.051292458594212345,0.024018487936983954,-0.057559903704114415,0.021105404871659874,-0.0029340766725268535,0.06403678782123745,-0.03901008324395919,0.04299089853807919,0.06786542010330077,-0.021890443301669654,-0.05370827104112876,0.07170135898687587,-0.0325326424363771,-0.06683307696182164,-0.03239684368555698,0.04651767316844668,-0.04486569966332002,0.07787745179936834,0.005905086225783744,0.02421981890455161,-0.061897858549472336,-0.07602142886980641,-0.07109152378713397,0.023421898848557613,-0.022025845641557285,0.058236484742800194,-0.050348548969108994,-0.0722219150318432,0.042897137395671414,-0.039867269729373274,-0.05099601908296207,-0.03674136197205029,-0.06855102880784536,0.0197606818250591,-0.017557079270046454,-0.015054307533025944,-0.018986304700238103,-0.019487157844726915,-0.07044699009484505,0.0633199595548612],[-0.05362414411132974,-0.00027030445885295224,0.037791602864046925,-0.03615817680647599,-0.005218640865329356,-0.059904787555261504,0.06918297331838053,0.00007493941656406367,-0.0012134112656106125,-0.0506499737688271,-0.025813293707513372,-0.06225836054981808,0.061249783665283074,0.028226451704300333,-0.013305706843765098,-0.057728978922566024,0.0707861500797668,-0.06036474464151109,0.02313413836619793,-0.057876080523558825,0.006366906234059799,0.047303667157412306,-0.07821700362099147,0.004499478982131395,-0.03726081702567592,0.0437473116450612,0.016490381720417335,-0.05786984734115512,-0.03750740289379334,-0.01456943284163292,0.026522500959966583,0.025071985984595077,0.04251386322297345,-0.02783595447617321,0.004567952928300744,0.03254716564167004,0.06259585745325151,0.03970228366746458,0.05888271731430443,0.030757043453146355,-0.027431250727998107,-0.05494213521989886,-0.02494187458797197,0.02314082912132843,-0.06708719407205906,-0.02403920751711266,0.00045236220472340445,-0.040236710375189735,0.04119303881493896,-0.004543443681389945,0.015608388346803934,-0.011314689196367144,-0.04460491545474666,-0.06373266362385138,0.059820598586210756,-0.009250040506365046,-0.055671088084254736,-0.05942607718507126,0.01228163728730107,-0.019556613352901524,-0.027512096633445487,0.05526002980699965,-0.020508298601213858,-0.06883573328556869],[-0.02747775045269895,-0.046471713510199346,-0.06222344381196159,-0.04184187306487669,-0.010300355534414074,-0.05505921998661541,0.03426123160720424,-0.03911841585113688,-0.006561306806754185,0.07154798436827083,-0.006169632809761212,-0.062174286930662986,0.015341707697014074,-0.05470792593977341,-0.01687257802687304,-0.03547920641572875,-0.013313746050701167,0.0312901616527353,-0.01318259785896486,-0.05582824592745277,0.030462813422829943,0.013755875533126464,-0.020593812085596356,0.050140403027072455,-0.0721567634128563,-0.025300803522148512,0.056764153665494504,0.016772958244346978,-0.04559901179862507,-0.001423006245941463,0.07646760310880646,-0.006528697522307789,0.06404021053372062,-0.009264636819977645,0.005399378328361457,-0.011385501782029215,-0.0662646104565474,0.031463116629670745,0.03434153697803826,0.022027160262444254,-0.07613866947558207,0.0369900415433232,-0.047531752629230824,-0.05260308173436147,-0.004956384825905341,-0.07661741337382508,0.04644111481730279,0.07725863027448573,0.0157323399295129,0.024024254557500496,0.015982998122861053,-0.015017687571536533,-0.009152971680379771,0.03886854205274758,-0.006594172609265509,0.005587489375398333,-0.06629166802427439,-0.0701746535438241,0.05270255305203422,0.03033629935717049,0.00005066139375541546,0.019887865440358855,-0.06502390472958086,-0.05421773275078518],[-0.06683670967385692,0.026503632900979728,-0.008284657255979242,-0.04394242770368172,-0.019255390552305754,-0.002177053890933462,0.040855971753698386,-0.004092374686635722,0.02986473931891795,-0.0014143271268637434,-0.07333436674170657,0.02176155141709502,0.06818013881158246,0.0600874386616251,0.02554326978208741,-0.04795804790144166,-0.050523578809639355,0.04242254114062751,0.01909224363093158,0.042344796561690906,0.06204403642869596,0.061387054220665815,0.0022200069826492376,-0.02022395777352622,0.0015549454733149756,0.040888254697439626,0.02324244999057669,0.07143067360129256,-0.07296828552495908,0.07452522380454407,0.03376052186917356,-0.05510748468361415,-0.03874551065797545,-0.06854984744550686,-0.039448600060708626,0.06647446755162377,0.0739207373192266,-0.06898022542965966,-0.04436452802636217,0.056041395631088654,-0.021945972727636737,0.00500922654864529,0.012042195735976974,-0.024655721520588904,0.06653904066558193,0.07427622225282028,0.06192787008146291,-0.0035213448385146232,-0.04635511538473001,-0.06868636264456113,-0.03156155862141937,0.0600026164000398,0.020317499721678792,-0.06423303875382848,-0.022119979008832676,0.0327967743376074,0.04955367795628319,-0.029716129305804417,-0.06444808369142482,-0.0342907705304011,0.022449062834260725,-0.06316910004236906,0.062432494789763496,-0.048487885212319365],[-0.06340178096439303,-0.06872529778410943,0.037561364983403144,-0.07336087680036116,-0.04023756780441183,0.06752410593302834,-0.026538721607086174,0.06410376971462099,-0.05195697923276558,0.057111000599420786,0.036571870749981986,0.016442214704916337,0.06493033567560634,-0.007260341306508049,-0.06991996050236401,-0.051308351066925904,-0.037354580577504085,0.0025395633417073593,-0.03955184899373453,0.04316356957088217,0.061231310367544096,0.06624579148001489,0.07753968048502632,-0.06511088873883646,0.007167844586280549,-0.0472387494171333,-0.038354862946238064,0.0075298395653797265,-0.05290848440062992,-0.053445759792381746,-0.005141068971396917,-0.020546030603147435,0.01607937928920252,0.01710369115737152,-0.05961736048111035,-0.07806629293944113,-0.0034255285981064925,0.059840900782249254,-0.0743560057246702,-0.01952634782521073,0.02308844234009758,0.042804721300651744,-0.02023104994657611,-0.06588417130104474,0.0257454659761995,-0.002834359769298256,-0.06671389582391035,-0.011911411995646427,-0.04522375135278218,-0.05543084936977018,-0.032582176175676124,0.05911385896517638,0.034300430055465216,0.06333890113171213,0.05039875835860551,0.03675002730595678,-0.00628905609791355,0.04238108184726738,-0.055933280510594374,-0.008940438173415964,-0.044889931343335,-0.03918493158335048,0.03862873193868722,-0.0363178541904144],[0.044943926976339164,0.026336673436250457,-0.04781987563341956,-0.03644975021476486,0.021067729288911888,0.00980623372879561,-0.026845132771286247,-0.04269344006144821,-0.07452490763339553,-0.05479234048387284,-0.05781740887850055,0.0767719263153214,0.0077625556885919786,-0.0017092120008561915,0.0406743966598919,-0.01089626437006728,0.07630911051708003,-0.0645533459309174,-0.02133040138357269,0.003898889540342752,0.021612473666756126,0.057909328784318516,0.0441107337418264,-0.020055631099148832,0.03441542420563671,0.04975921853385188,-0.06965158931760324,-0.025413166864907005,0.0631798400497626,-0.04783971181539886,-0.062427302950513866,-0.037010265555933744,0.02484448385597681,-0.06965152644641487,-0.007343964766420403,0.05106394939962585,0.032101647742220143,0.023949176969727495,-0.05522166076855123,0.04696537465079271,-0.03138991688476752,0.03512347563637264,-0.010493323360064585,-0.026419923927935327,-0.05503218346459998,0.03679282828161562,-0.07028405770127678,-0.059534142287195266,-0.05402677985488014,-0.02284592693542969,-0.007547352573923903,0.06549980267798565,-0.02204268154304176,0.032862108942497484,0.047031258168339134,0.036283606914993966,-0.020479092339242697,0.01582897939502987,-0.07025041088122345,-0.07670445156780409,0.011868301934045063,-0.01721876085881342,0.008530345322640357,0.011845879667884075],[0.029930848785482345,0.061244019509699134,0.017581237124462586,0.013726967707913961,-0.03595522725336398,0.00618461782013711,0.012801958598363129,0.03758981914860974,0.022483593447655527,0.01598886435167777,0.053674796953687355,0.025453395623942263,0.03572742089791535,0.012273451596621498,-0.02578741685919234,-0.006380567551442267,-0.021583018173766816,-0.037262706793456585,0.02312278680018081,-0.029267726912747215,0.04192239826878737,0.005821792885187266,0.007074873640431375,0.03389859622584245,-0.026650168447144146,-0.03794308700760069,0.030852004077718792,0.01234033250064208,0.0709646261898474,0.054251847416559154,0.041105431216645456,-0.044051493219910226,0.05367896163890433,-0.07553197635362949,0.04352934107326513,0.004734588507151414,-0.013800711669217156,0.06392046693675095,-0.055314815881982476,0.0018714614482550653,-0.0763617178438557,0.06718783840516024,0.029360568697321295,0.019057663343498808,0.014150543212972802,-0.04843471170959351,0.032954613183968605,-0.057071736662669306,-0.07595888374371845,0.004158690327753994,0.03354238610324104,0.061062782806205175,0.048037440625304795,0.002527091504791971,0.07893578499354509,0.07777272661251733,0.05836274263540133,0.009816106234611667,0.04415437372060937,0.018482266037294203,-0.07482211806918598,-0.07277383765297654,-0.006470346165475202,-0.05264677116799495],[-0.006009287831873537,-0.01709782315757787,-0.03982949659128339,-0.06987629811976595,-0.025967093258514914,-0.039595722750806306,0.06881776995803468,-0.03817221369351558,-0.057706030964006616,-0.07602856703260259,0.05443446574687493,0.005812087748761975,-0.06430491736864065,-0.035640398949453596,-0.03517200514158581,-0.04464789155489899,-0.0028179231173121,-0.014124374522704894,0.0414139897843572,-0.007062779702332515,0.060786872883822174,0.016457428245378714,-0.003096018761545538,0.07079617904913542,0.020229418214292066,0.01406602398940888,0.06451777262995302,0.057070469885864075,-0.024864750942626163,0.0680790905024879,0.05845220156995012,0.05622837305802605,0.03690853290688763,-0.021428869652519115,-0.028426564648771014,0.0630082139145118,0.001983071044549413,-0.03120582410431046,-0.04859041584219818,0.06965892442212072,-0.039999731167359324,-0.016224120705776803,0.07510080569538968,-0.00003377498320466403,0.074230897106628,-0.005498594863429627,-0.0284814855164507,-0.03180807146006817,-0.040996506251098755,0.01515039716062652,0.02022488523652632,-0.07392932114365092,-0.017837951304103022,-0.026935494143677532,0.027316843168715514,-0.03826314129789463,-0.05470491155046929,-0.034873863433094926,-0.0185609667780573,-0.020441804121633246,0.07401473760527537,0.02255694636379915,-0.061845260421008075,0.039380308943008896],[0.03531010797484853,-0.012826164170284426,0.040084082884700174,0.04292653700587237,0.039655815392465904,0.07304822234799051,0.07115914631460177,0.0327173729490078,0.05221599573696783,0.06155931587353892,-0.0037741557432507326,-0.05969373245448079,-0.006643092068981731,0.015636202144963716,-0.03540628139687066,-0.006922354162637347,-0.05003639445599565,0.05755647907891335,0.018832189939575396,-0.0005582049543712738,-0.06829291218471345,0.039108715961107,0.07140737094536878,0.02381027323937843,0.07743066078906193,0.06459386491457837,0.028340683415083858,-0.06572338445118506,0.019348498416435045,0.07555318890794425,0.06256959596045097,0.023777675812912243,0.06732936052313829,0.04195533988311146,0.008875427547153241,-0.027779617017632867,-0.03183377296516305,0.028267490459703285,-0.014092752443875246,-0.04331194819745655,0.030652351250593488,0.020490170271846696,0.03371078405896095,-0.0238094432718825,-0.007922617896823225,0.03347855818959864,0.03552638844835377,0.05963975623862136,0.06445319600951639,0.06038581228874659,-0.0016185489159293127,0.008443779249794186,-0.0029445372185099208,-0.07493372009015313,0.021313840174622282,0.010864063052446613,0.0007589521618262075,0.049813721666918144,-0.050562374689336345,0.016764529105391078,-0.07545591393633126,0.07363592586025715,-0.03650445691586583,-0.0759484503945013],[-0.06744741759134762,0.05618001566207646,-0.04603772398369181,-0.02373263626850037,-0.015975930950303162,-0.028908846472388585,-0.0006374829509546774,-0.014164141009569432,-0.03408180510311824,-0.004640638211423785,-0.06981723045820946,-0.007294437297775848,0.032906593490234434,-0.03838928192268929,-0.028546730833586487,-0.050348652626286516,-0.03354705678093223,0.030355710548600173,-0.05042893231042082,-0.02278133981528817,-0.04536175482604213,0.07858454812867856,0.014802280741003282,0.022514331966281925,-0.03716340706970187,-0.018770859165379974,-0.024493781328154166,0.03099134423289261,0.07761514384028168,0.015427409513340156,0.01012064814725188,0.047282739594240265,-0.018679566466384426,-0.05387988638956276,-0.003980139241573898,-0.005379901255567625,-0.029185687268673002,0.025833289778603486,0.005528641889106615,0.019305424463225876,-0.03967655785410402,0.00003557196106317227,-0.030290723908633067,-0.058934639416157175,0.03323113411332859,0.05337399396956639,0.0699749882529606,0.01805314517416811,0.04326627019976614,0.06428822372819408,-0.046439847535005255,0.024013820249465596,0.06913073257648827,0.027695554994391004,0.04302759079685153,0.003989735949691729,0.03920671444706745,-0.06395491099832606,-0.0034779845188986688,0.02447660590017769,0.03297455398441726,-0.05227369243787011,-0.003753188141774123,-0.06285349440271946],[-0.061310095822993585,0.06346853402272264,-0.04699160576175674,0.0399399501849468,-0.02527327912578674,-0.045036238703728006,-0.06041006675644002,-0.018440546233386312,0.07523568710848037,0.042142159834046004,0.05654590914640648,0.027441599862596498,-0.010105371097326362,0.07047994360064944,0.010756112777996887,0.019908004885768125,0.007757855249546266,-0.038698989681047645,0.043920390243370404,-0.07202788705452239,0.0667875451649343,-0.028654567730133234,-0.03467175134481532,0.014176960174410124,-0.04779781117425555,0.02342422248062255,-0.042739640868011415,-0.07479422509939128,-0.018158144172561185,-0.0682596545131742,-0.05509505344875405,0.06850453631614903,-0.06530064900989614,-0.0008865708742874231,0.0030717325722008824,0.016260640949934627,0.02754030062062071,-0.05508392727694204,-0.04288693024519338,-0.03562534062264732,-0.02800345514409603,0.00043576708723872264,0.03420406636925881,0.015421139281540944,-0.022310435368164606,-0.07738379445445773,0.06410687319818244,-0.043607991291358845,-0.07348518897839641,0.015730373747351575,-0.0666463224286004,-0.05523426671296975,0.004374608641771477,-0.05159719341777967,0.06294388329627092,0.03720078513302103,-0.0609059362199887,-0.021997289240912394,-0.012357651261997367,0.01264545007634121,-0.06481619713588377,-0.03221005535833126,0.01083168707148562,-0.009122396528526814],[0.01116222751740515,0.07214984415029521,0.03833488605142428,0.03514499638473196,0.034258176869540614,-0.006362563891915927,0.025490635824751317,-0.03295794017747857,-0.026632492185474803,0.051006546843221194,0.04722238575381476,0.07617514638693991,0.07195438322963846,0.0018899224668958872,0.04773945306930015,-0.049918892400952236,0.002013947907745179,-0.0714879840519204,0.06780899547196083,-0.06656396618080168,-0.007984985910995423,0.036000532123891545,-0.05151806175850323,0.07517499292598222,-0.0286265499991423,0.030198824180919397,0.06571954424241554,0.006735877842875343,0.04597882570193075,0.005966173112285769,0.029183444965437472,-0.05776330335470461,0.058461359916643224,0.006221161578927866,-0.0006325970780399328,-0.06332254875118164,0.025652532729056647,-0.06852530556264681,-0.06067462800979015,0.013257364364334147,-0.03439313856502072,0.07536212552830761,-0.014552277926493329,-0.07880159992267347,-0.012252753539957547,0.04823924854078962,-0.03816713591026677,-0.04935284717426523,-0.06472987770373916,0.06615101691244923,-0.009128432213889365,0.011134770670902855,-0.026634728696760583,0.050199918667578385,-0.05305706682099023,-0.028362463093291854,0.006209298231433217,0.06445536323690201,-0.07885230638576855,-0.02171318171115245,0.03856176553690491,0.049722649551550806,-0.026636073004563075,0.05437582020228528],[0.07209276726313715,0.03679903548496176,-0.05088194625881255,-0.05391725325224553,-0.06223994114953387,0.06439364802586785,-0.01757857850322363,0.011674573111302705,0.03234049045695994,-0.0721979166765057,0.024001998692236716,-0.006371706641924133,0.06041256601541013,-0.015716574014538746,-0.0769102178935531,-0.07229175103029474,-0.06537864881645596,-0.012388406348782108,0.07005110427403798,0.03437535011627401,0.0619735426692807,-0.008076970087391505,0.021914253842627164,0.01630126398618201,0.07835961997625808,0.048911529558612214,0.06410084056329615,0.004748316789085181,0.023163058083392477,-0.041652815026329594,0.05422134457534099,-0.041252849561927415,0.024939225427086122,0.07623296013261233,-0.037826673158275974,-0.037798488905773045,-0.0031444016747489917,-0.07762272613087959,0.07318483024940474,-0.024593403617441723,0.04819095443611453,-0.023442459761966926,0.04542154463041521,0.040213883740766954,-0.020214109024178396,0.057870416113695596,0.013717261172143828,-0.0016000639777720154,0.028477524638211453,-0.02233590121861197,0.0705128881980099,0.004753865651021137,0.006878769684121059,0.053272464859881734,-0.035001483843190975,0.01352244672291877,0.06574325350995276,-0.0360848800816606,-0.03817408425574589,-0.0445348412430802,0.05216439340801985,0.035736968236101084,-0.07276231146244314,-0.028698806217044764],[0.06544482466288877,0.04816467454177836,0.012365776809603025,0.035487442355805913,-0.05691811132773674,-0.02242951932765449,0.04681618015250597,0.022354596630927454,-0.04608063280697914,-0.0015762932172625815,-0.060647627732529685,-0.062015191124604394,0.011119531051200763,0.04835038484875592,0.05958347214586468,0.04616657166290781,-0.05860750504600299,0.020907202626257677,0.008247897466233507,0.022455137094989447,0.007502910167324818,0.07373348085007621,0.042964407645284135,0.039349518848363116,-0.008690165239378905,0.04546616160430887,0.04172735539237162,0.07492721066279466,0.030787069566476203,-0.002857395433140455,-0.0365913463080572,-0.013439904011261111,0.00014198057156380715,0.07088448172230238,0.028206026154721252,-0.07850223685616033,-0.060662557193398796,-0.048167219810278494,-0.0621483360968407,0.05742523576372201,-0.05986246456315425,0.046433158833257306,0.025828514071325567,0.014777927629016196,-0.07463307302451591,-0.003751333227098629,0.018974014725352862,-0.04383362140046842,0.0023757571085380475,0.040288945088253585,0.023468741902957287,0.05446788859553277,0.04009359253482137,-0.011432942317378968,0.05809300486272643,-0.017310194294875406,-0.05805364133029198,-0.002659197252964594,0.06845689606642416,-0.014576613691969715,-0.043178024691148745,-0.029672523619347555,0.006652393841025095,-0.022106985917799],[0.0365059468891957,0.02455069334625092,-0.05846774156208862,-0.07482809201680005,-0.04370930040888784,0.013043482103417717,-0.03826069048781492,-0.013086349688203524,0.07630472246958378,-0.06596824847397155,-0.07677221206102823,-0.0502364012008965,0.021983873429652922,-0.06379074557612915,0.024484746062838465,-0.00780986889556641,0.009512247299617775,0.00911782718013337,-0.03741718651913268,0.07552311879037452,-0.062473343095172267,0.021460259450777373,0.02540373050630811,-0.029086872126444695,-0.0391844371287652,-0.07566188263766192,-0.07510603431548833,0.01439293959330076,0.0599706402340203,0.026625194841854192,-0.06148032123475753,-0.020782387467008185,-0.054502046990948246,-0.019945167707140613,-0.008314350596249805,0.0111108799910568,-0.04086053493831777,0.04513534314614615,-0.023746733817602273,-0.011682408936605135,0.07226543297882032,0.015397115742728215,-0.04616907145083782,0.07302709370778991,0.06659744641976797,0.05536039447551392,0.059938947743899754,0.013757778840292478,-0.05447984642487391,-0.04382676283055863,0.07328013242995017,0.0516366508494383,-0.030596440073834816,0.07212563182369372,0.041625713268208,-0.03337681537622141,-0.038033753429861324,0.03644870125974864,0.05684908584884938,-0.0017809460493656603,-0.008830856735733672,0.07469650058124123,0.00937530847781453,0.07074822143415431],[-0.038099386150743486,0.048243154185277554,-0.022535026474147204,-0.07457807428220081,0.03936303029182956,0.04005660692604829,0.006274652196502483,-0.01138666884004402,0.01762867697587023,0.006895130571428776,0.03694000755014113,0.026539230116845055,-0.02077026542095692,0.0487083969505444,0.01740011422813181,-0.025131717557492616,0.023911584520674357,0.021636911370464855,0.03711502037813619,0.014227423190548797,-0.052306957439094595,-0.010709649609429436,-0.04640129272904359,0.04343099584215617,-0.021763908135084036,-0.07423491647244831,0.04193864172653269,-0.05179742089376256,-0.02243348708878803,0.07361604176430762,0.0754961500666506,-0.024066019362299705,-0.032549412603605755,0.025653121064099622,-0.0747056504799889,-0.02085990187708974,-0.030295104716166102,0.007310675922835851,0.025990430755868127,0.010652423882538259,0.0635569882263549,-0.03159146333314245,0.028829303427220267,-0.06630697799854506,-0.05974131986468572,0.03487740013554099,0.0021654411853010633,-0.014570380398964156,0.05249137335525307,-0.03062739540780346,-0.054567157401222074,-0.05594943529404915,-0.015119954576197955,-0.03866665031301235,0.005269077504312127,0.05990914382782825,-0.0008936219885784663,-0.054721473066300534,-0.04687871994965457,-0.037613144305862184,0.0322455206872296,0.024370459141802553,0.056659654759267715,0.0036949741149237916],[-0.06136525379606254,0.0761302627766175,-0.02276794209064051,0.03751070490615996,-0.0035341309628460615,0.02119386048531736,0.01846900132142415,0.07350554682629114,0.05828338058320746,-0.031034116805766888,-0.02292734163315725,-0.02026916350245074,-0.0371340142426025,-0.03757902066149032,0.0677670469214719,0.021616834916733867,-0.0010650994381528594,-0.0037854068084283462,-0.059487865051131794,0.053779855863661526,0.033163582159761035,-0.0005316642267037627,-0.024699030435257452,-0.04875282344797843,-0.007735513254740268,0.0668609828638883,0.03130088661127193,-0.05223240950214288,-0.04182290055076379,0.002956471828389633,-0.03687440824181116,0.06393534430384225,0.01984719825930198,0.015604839387789659,0.010686738652359909,-0.004989681620895348,-0.0688806249523697,0.023406787083089527,0.04798367797247781,0.050096709894509144,0.029602613179305313,0.06790193048806667,-0.03260616678499208,0.07237473458130662,-0.038742213913664794,0.054542198445261925,-0.05515299857067529,0.059119536436698414,-0.003851581094848092,0.045746878281409054,0.04375021068748938,-0.010544209691413209,-0.011470127342932847,-0.0480521596816239,0.058826856226262186,-0.0048558424067230216,0.055831711692866874,0.0656806970003397,-0.060986600915836096,0.017520027841844303,0.028304930011787164,0.07410953440395904,0.03830920708532891,-0.0786530879469496],[-0.0774501078391311,0.059851520104433995,0.024498591324300642,0.04990422414950732,-0.052824893368953275,0.03457424062335965,0.06284306883450333,-0.012225015730994717,-0.03189165480270775,0.0459472896465493,-0.04953353060845097,-0.06395573112151212,0.006647707161636956,0.0400025045901474,-0.056685912090666014,-0.05575141765135349,0.04585938018114587,-0.025575143285178684,-0.058438559996916044,0.054070833918014705,0.06148468575087586,0.020967126162048072,0.02053078191003473,0.07553019544986866,0.014599229182367933,-0.038143073686165443,0.035108132538173235,-0.022647046007278297,-0.07673969264516266,0.05182377780441402,0.0269293528201634,0.003819886707418785,0.07374292344503995,0.07121589982967193,-0.0014343434908380328,0.00341653426879714,-0.016561097847510493,-0.05099437442305206,-0.07033135982327969,-0.01938048408737988,-0.04486374676549254,0.018142099137286892,-0.0646299080547048,0.0636952723254087,0.017644751244031524,-0.0697798629942481,-0.004078894272161892,-0.059070436794099686,-0.00636282737467011,0.0015213971731569739,-0.03534842840350108,0.05426051246302345,-0.0048894878107843265,0.019336280451065217,0.04530785805725484,0.06846756446922103,-0.007874357285176327,-0.022542756193860012,-0.018702757358628565,0.05897589520977672,0.06156887556578148,-0.008694650677304029,-0.06667958196654332,0.07090750042312818],[-0.03478111855829194,0.04522055913714497,0.011379385089276843,-0.038524930709546046,0.0070244856784822075,0.048258711506117186,-0.003402593527210443,0.07094670258010136,-0.02321407439265778,-0.01831327926792344,-0.03142007587890564,0.019038411020088252,0.057891005110451234,0.01764934415884611,0.03469853209835022,-0.06721863166742019,-0.07500026109975447,0.015679849404954538,0.0516008987895401,-0.04142554165562126,0.006360256040444691,-0.01758088116454572,0.05226683161699089,-0.0046519176530459205,0.07659224591690075,-0.06594287321665655,-0.006025524900235987,0.07141516229531575,-0.03465574389817733,0.03398303383689843,0.018554920323611335,-0.03905742384320643,0.03642480140087161,-0.01572682026319732,-0.058960604780371066,0.027863415110085443,-0.0654379750014117,-0.005884489666485639,-0.05063569336302551,0.03887319466508401,0.049274824811024735,-0.051233583750000936,-0.057073056005383836,0.04817157454055139,-0.05526159828163327,-0.041770630370517085,-0.07852463724504119,-0.06325144064747378,0.04730249729578689,-0.05494407900900109,0.011151728099132653,-0.030281535511288767,-0.010302703730097385,0.060029854805105226,-0.05714644308652679,0.014842499850317114,0.03328980525530254,-0.0018066219451741807,0.07803442678479361,-0.06251246976771922,0.068431793738275,0.05413978066334319,0.05865945903389091,0.07042686341237817],[0.020447625871962437,0.05446104886091684,0.027463736398962435,0.07086337811583884,-0.021753310869652657,-0.0525890654950847,-0.011916969179932528,-0.01612514938262635,0.0011911287000941422,0.04202264026446538,-0.0764030161653764,0.05328828198126748,0.028665111915958427,0.04146240356871152,0.01163256686824129,0.07312227292430527,0.07136553483865309,-0.06419374800010404,-0.0022831848854997514,0.03222139801871283,-0.07257109262092051,-0.03025099673733456,-0.06000228320243864,0.05492287425368063,-0.05607498937463753,-0.07885403726929491,-0.05407018005960637,-0.06388746590868057,-0.06457206367283203,-0.04985574610997199,0.05824237242142508,0.04178015824065723,-0.04967137723566676,-0.03173446608600438,-0.060415692096164125,0.012716930073157226,-0.018941669628894535,-0.03491308295836741,-0.07609265562186501,0.05543869153601388,0.03487576611931921,0.037102279724426424,-0.05305874795975501,-0.04498065523104191,0.040024456389981415,-0.048702228711571614,0.07595514263021984,-0.06702876997660105,-0.037195183204607005,-0.055432012619467286,0.07481966149423701,0.07319721410215277,0.011567050943273649,0.04557929317728145,-0.06121366548426603,0.008742918622928926,0.002895822479240485,0.017194874346845565,-0.01189624085224438,0.02824557243166418,0.059581402923539736,-0.0450576008273253,-0.026129063983161036,0.004349170215879396],[0.028999279345824518,-0.07819943040643745,0.010668193193978293,0.034050223481965444,0.0010577096366165336,0.02978154134154761,-0.022270413586604833,-0.023623371026515773,-0.0703235435585055,-0.0759838552123588,-0.0037203513793505113,-0.00028431394699969444,-0.051488958416923504,-0.00935202635056985,0.051226438198265375,-0.024582809278576777,-0.031913559810306955,0.04372283794880507,0.07599018267003306,0.06712529072754593,-0.02937745529443798,-0.021618188900353576,0.06026037071490134,0.016000904426289906,0.04651163456288313,-0.04856282147023856,-0.02550878365312721,-0.07066568205334767,-0.05672917758726833,-0.02286303312886949,0.052767915893833194,-0.04858680751175954,0.05493131333553649,0.05828460679338869,0.043304887189170145,0.03773942068328253,-0.06359130440091938,0.07558913818116746,0.04440920547431365,-0.06905808657998337,-0.059733936417998214,-0.024151128504603665,-0.028519241723769004,0.011175348796036972,0.06091872176086119,-0.04228961599592823,0.06878793322846471,0.012050542809905434,-0.062272312446403945,0.03613435043725804,0.008301824420363478,-0.025273197112331024,0.0735687880423548,-0.052616905218497656,-0.04083781332057913,0.04382659424403483,-0.05055329414008159,-0.012053241194396639,-0.07158023294282015,0.010188543502340486,-0.017249820400265216,-0.013187363035494887,0.0009421196943690393,-0.07128793373643763],[0.06767252931754134,-0.05760769066107097,0.07276021829702065,0.05151230538649043,-0.03096330190343645,-0.059961676024858884,0.0659959045076503,-0.04316362225271093,-0.022713586629060593,-0.04797606375809796,0.035863174942713294,-0.04689071939158896,-0.04767727140532394,0.004177316263880567,-0.03632330846278672,-0.011256182560950685,0.05708422791281229,0.06631395850457189,-0.04369630589555597,0.05313297202618855,-0.033544511209938135,-0.06554325390084452,0.0724776407987922,-0.013001508402671193,-0.029823343805098324,-0.02714672889275542,-0.03103165923504491,0.05259423502595656,-0.022533079636804114,0.00814113101302871,-0.03909183198134097,-0.04679183971860739,0.06233903064727513,0.022698261300679257,0.07146533179578407,0.0589424525051255,0.03198129505715737,0.049897117380044875,-0.04543121786794645,-0.04047202077218402,0.002648317381177455,-0.0011681870067298654,0.0672584199856965,0.05927605425453725,0.07906575837413751,0.039287008334664475,0.05316998385857513,-0.06177302667207724,0.02352929374252259,0.058394994337938766,0.0367435366136009,-0.06583350687566694,0.029821704064418555,0.01955598504960115,-0.02211910325466855,-0.07512185281584936,-0.02995059483215669,-0.05067334863989127,0.04487610742419102,0.03417150946441815,-0.019206265443483285,-0.06707464687709186,0.026863184178746568,0.07426525230726094],[-0.07735154119594927,0.026046045936646327,-0.018512108139203832,-0.0613654328281888,-0.02348001659629183,-0.04256404511610611,0.01770381946999996,-0.03626574611680763,-0.05576837280370214,0.04447876078809977,-0.07277666706123882,0.012142446270414584,0.005688868099153654,0.030619481313165397,0.007682223663882964,0.034985411941487285,0.02267985365480828,0.045705358944100785,-0.06141877342294826,-0.017399884818226363,-0.009437011633690057,0.05459677301680648,0.011615865644563381,0.027411775723458855,-0.06424213557551751,0.027565827574354832,-0.05490748651222937,-0.02661072145313492,-0.058218517530020386,-0.02765185291571752,-0.02308974097575527,0.010230331412196971,0.06272209212591902,-0.07539594425150936,0.02350512146213305,0.000709282673963363,-0.029575065176099383,0.06787198138953585,-0.05434357480231748,-0.06526942075201149,-0.0033837061274197035,-0.00024320596039038132,-0.045425352757584414,0.06433742778750348,0.041677754175303214,-0.04357310294129316,0.00592226037295891,-0.024832504165406676,0.03490075042966961,0.009234360784055973,0.038986149519190785,-0.0720933634893667,-0.0013528145900241686,0.014534415569037975,0.035321319452145804,0.004050720244012012,-0.06927936876200834,0.014070838212424214,-0.0223507607754142,-0.050170205036031736,0.0021633057438419645,0.07151021934898497,0.010176150932633226,0.06271433473863323],[-0.06520257486028583,-0.04960898179788881,0.007442833753464726,0.037595306718240365,0.048270116214086584,-0.023846169337688395,0.03805103789461395,0.010737713472712875,0.004715852622444142,0.02767017706135463,-0.07337757673310566,0.004265593447884648,0.06512089923058603,0.0002185206122502231,-0.06791981050853033,0.0607803008917156,0.01821774824454547,-0.016222984248875496,-0.0007989678437946815,0.04871203944248159,-0.07740591404023911,-0.007912941892153788,0.0002624809608501207,-0.017152577276329208,0.03619557651773097,0.07639841895797325,-0.052184434793931984,0.07547898097740645,0.025456189766940966,0.021288432379143206,-0.061415172753071776,-0.004084149231259742,-0.02767116531495307,-0.021756744692250276,0.004482318677182751,0.005999975945215636,-0.0661372175627714,-0.03820598869969238,-0.03889683059890401,-0.014361888740501537,0.07790242055718313,-0.07528904448889809,0.04957950764767694,-0.016162745240126994,0.078310453279567,-0.0109274976957498,-0.0018970910063648106,0.02168939517265196,0.03426669260066516,-0.035121059115863336,-0.026546715427017947,-0.054374711221231796,-0.07465138381390726,-0.06413141100312049,0.0401577163256742,0.0552576966096935,0.03925176019663765,0.07819309028502573,-0.06070260018974552,0.03463453616372449,0.07900619895092142,-0.06494121521726175,0.025850460646034277,-0.05222708094002755],[-0.012455190471101059,0.027335134018925972,-0.007141108998497191,-0.0501443419496904,-0.0755070152283475,-0.03654058093457939,0.0584905895334297,0.04607937955607483,0.01740924761913707,0.07634646571545933,-0.03800640383407156,0.058979199288947945,0.057457171811655244,-0.005853019356765981,-0.045369269430816046,-0.05878258503322879,0.03517467067733372,0.03588326245020509,0.03366094164911705,-0.016658038868799997,0.00602502530406613,-0.031241133162981844,-0.07372471562067247,-0.021557344720902843,0.03345381572132981,-0.03605025141073343,-0.06848803566870672,0.00537482980034205,-0.03889505129269521,-0.03203923376725899,-0.050131800272224816,-0.027642840914001033,0.05233362275065694,0.026450187876548598,0.04814716420170785,0.008018020920647252,0.03074583835100037,-0.015413152638946851,-0.048484057296699266,-0.0021704615307469814,0.055864960977888775,-0.06568271102159474,0.06983494194372956,0.04099057886261605,-0.013633307030843502,-0.016863428145055682,0.06490633202013646,0.021931480895417875,0.014536743984662617,0.021419063633694054,-0.00022754579365080372,0.03772597606242936,0.0758140370222391,0.030183988422000728,-0.05685609557776713,-0.029248686173632583,-0.01625240058471676,-0.061522605410692856,-0.0071597391657429585,-0.04289589118189158,0.013139259297277502,0.023735197139090086,-0.049404415783400636,0.03296365633367858],[0.04331841624739373,-0.04532440553251426,0.014701864514062057,0.02783161872806787,0.05631199721192532,0.03333108702721528,0.03463013913122138,-0.03751281732811682,0.03477849526382645,0.03753528535520113,0.048175666191969876,-0.013720478321951005,-0.031230049009871617,-0.06299640824925626,0.03813166358869899,-0.011877081396447976,-0.03867748712028327,-0.007754552486132671,-0.056089020254546464,-0.006985706483510629,-0.057072423668932316,-0.050810728580614535,-0.01118068415500125,0.04903851597031762,-0.024703682003697366,-0.011095405968714226,0.02524101215053874,-0.03868352201603669,0.020735568881233714,-0.01679878757560602,-0.06136706147529197,0.044206951905134205,0.04302260185915133,-0.01426547521878455,0.01844570584076536,-0.05698195430716013,-0.014217843063296915,0.05178701586624633,0.0754822970826206,-0.05003827957086906,-0.07037314945203914,0.051934038856161005,0.0263366390243108,0.03899647922939556,0.06518076874771445,0.056232262439543684,-0.07609133734166271,0.03871873324575381,0.010975691005732252,-0.06268662070765467,0.01357493541532386,-0.07391550119407732,-0.05956478293076147,-0.05511218984615479,-0.020528342546368657,-0.009648051396060182,-0.04882094948102417,0.050970685742476145,0.04141319718848656,-0.018886405745933005,0.042745414741287305,0.03230914739484953,0.03838943468344207,-0.04437181326870905],[0.07766471676665841,-0.02037240005242864,-0.06893631072341812,0.05776223913355413,-0.007634251768794324,0.045006413877558236,0.024702448260606344,-0.01402591429775031,0.0021752745554216527,-0.024181449151925397,-0.008012603332596598,0.03531110141367304,-0.017919941482717788,0.06099580194381963,0.059359844687042224,0.028147230680218804,-0.04361807963312995,0.06474378373603107,-0.04722028510070263,-0.057901428729094394,-0.07246675512544105,0.06551942448284108,0.017099175409461053,-0.045979854394512736,-0.07223276344300976,-0.03094781023670632,-0.024621702084380945,-0.02237380700782955,-0.018319474955507637,-0.005196935511103468,-0.024712728929499623,0.04131998206377732,0.01773731530115257,-0.02910344585932929,-0.07809368667400467,-0.052874963630254915,0.0442826089133217,0.05963576179580622,-0.025121348764177407,-0.06250869508465544,-0.04052286104323959,-0.010229940657236664,-0.05845470260513138,-0.00018256154776512048,0.01904056858718436,-0.05764231957919255,-0.0739247111570756,-0.024559810012804613,-0.07762792038346567,0.00567111097988526,0.03448150694452624,-0.021016326179019804,-0.01828275122914301,0.04599188417454934,0.07558229461194217,-0.01564011023485692,0.051509409448933674,0.03798815173827137,-0.02938981526663511,0.07558029752220087,-0.03707239209620888,0.023604334862007543,0.036918429153898154,-0.04205125182164019],[0.022420156529269607,-0.043956385972454534,-0.05604303007690304,-0.008000969205462323,0.04268946804944594,-0.06406187041018414,0.004737995227946944,-0.07432452343423998,-0.07895786539914698,-0.07683837104020856,0.02335243095284529,0.026815302246436214,-0.035723749721846706,-0.002232735472624731,-0.038908998447240085,0.036080913146422346,-0.04342528079266342,-0.06228649184018395,-0.04549411827813883,-0.0030820351049878226,-0.03566360132220741,-0.03582182793989641,-0.0004909268946457982,-0.06426521961218165,-0.038344295585180654,0.02324368918275054,-0.04435033653504326,-0.01267512400117755,0.07138790291919908,-0.01782346380682087,-0.056045708544241575,-0.059563295760841226,-0.024906425666315814,-0.013096573002562867,0.057685839729795726,0.006292790886498244,0.050816478045166084,0.07097973658855962,-0.028873957400890663,0.07386921746003221,-0.012274568373912973,0.03605120673426451,0.04734800869610093,0.02203276776100597,-0.05189559029774087,-0.029266686006418453,0.00567981808786673,-0.023742349796263978,0.06697329880521681,-0.044055155389319214,-0.0628021103188598,-0.07687990770281243,0.05226955144124818,-0.007742712614763722,0.05110395142425534,0.06878789210064762,-0.047467409603462775,0.021888774611454876,0.016655580913088296,0.05797184998368904,-0.031542449828268954,-0.030864862770358263,0.007838269460618242,0.03569470085973671],[0.06140483584777854,0.053883209656536604,0.03140080979236283,-0.035822178733446966,-0.05171827809088678,-0.03195148789351969,0.03246491401540494,0.00093090410028007,0.04766779935409738,-0.0021625708375707167,0.07194338096621063,-0.03977934523448043,0.04913817110551821,-0.07028856380677617,-0.007647178523327848,0.04203754175216224,-0.07114017307382388,0.05566993956217141,-0.010403181623321305,-0.07067979181895298,-0.06982916076834358,-0.010804370724493887,-0.014390531992535684,-0.034968632672413444,-0.02167120341148431,0.036916995644240835,0.011862957786877164,-0.02264797255727251,-0.058363220870677676,0.039177716419647415,0.04686115206768737,-0.0013766648948401155,-0.03267253740351872,-0.03629120992457352,-0.0422124070758,-0.0359960138330132,0.04035771709125999,0.07534427729697103,0.019211456683585558,0.019725079343700613,0.01273476386207135,-0.01918562364828484,-0.02025600253237774,0.010994241703860673,-0.014731407877750536,0.041573989995649985,-0.05422547695417991,0.011615652564885766,0.0734143439911761,0.02097913740059531,-0.03620584088239312,0.04799355124693627,0.04213523761044363,0.03921015963768629,0.0461724546319109,0.031118567950670122,-0.057742078948006606,-0.01891232838235449,-0.029767366554734897,-0.07434140240087639,-0.04616248211012018,0.028017430398284335,0.014677879020898092,-0.0009101301229728232],[-0.053521831524283525,0.04614588374384067,-0.007612717155366839,-0.06859428576015086,0.011680653506540137,0.06018642160335255,-0.06871627626318358,0.044267925275706985,-0.07146287973024923,-0.004696280972095244,0.06315791542703574,-0.061292873460635375,-0.06138031233234706,0.06915631966617175,0.0551929195778012,0.074742921538797,0.03403939999879476,-0.02930645137197152,-0.05123740377092064,-0.040310936356290836,0.05040869066308372,0.05803694694125952,-0.005269505886723121,0.018317778183467453,0.04580375349694886,-0.044672179302881886,0.031752542214783235,-0.007919294344000011,0.06218724493934474,0.04406410155789061,-0.010703328946095002,-0.012268525400691092,0.01838105601023653,0.07780746100546392,0.06292581483648466,0.044770161379406585,-0.02155221352526825,0.04717073007522446,0.03448077596505235,0.05180982669463185,0.07131623510948588,0.07242891280699365,0.05646258962721755,-0.009262169662378479,0.07712201181416678,-0.07683254214086493,-0.0011415728305906668,0.025986669093697137,-0.07430093047481066,-0.001658839034184845,-0.010962865512989516,-0.017536093832033535,0.07260108779416218,-0.014757078342168528,0.018137539156118154,-0.04697585326330619,-0.0499725879132277,-0.006495699166520244,-0.0074015490509321035,-0.05779806114556221,-0.0011318632911033165,-0.03858965845962994,0.06191963965516939,-0.003744990985636557],[-0.05508527255699916,-0.05758997455486877,0.05199045233098838,-0.05893539675537512,-0.07677979723468772,0.06978460783610572,0.001158798286948773,-0.020036926422841238,-0.033810976947903776,0.06746286314200307,0.013344375944913483,0.05783086147297104,0.030933522997091272,0.008156705670776946,-0.015368636067675434,-0.005127425149759761,-0.001559121953206065,0.03679597733544102,0.07149632624207014,0.04163426005632503,0.06639961771006088,0.07406765308709806,0.06097216351290132,-0.060045983683009986,0.04943819858095059,-0.03455734663932087,0.00646054297478636,0.030468442856764477,0.016912814631829712,0.03727633520114289,-0.04975472783997987,0.02765123219195707,-0.07030989383492668,-0.06121063339064046,-0.016013413997813017,0.018531974329506623,0.00046162019180508927,0.07284643117207572,0.06414815229762626,-0.0071906680108712075,0.004978862242483799,0.02215732968948339,0.027925123136749722,-0.03622443390938146,0.024914805899824866,0.012930981404243137,0.02653787761121762,0.0025686246361434125,0.04725320319361003,-0.0235699568351302,-0.024139611293681994,0.060184613040619,-0.02043161653101849,-0.052470451918747996,-0.07211430450437203,0.018933405337668303,-0.03816869149010994,-0.011493762039733497,0.07071633666057715,0.011547061752909184,0.024159309828601504,0.05342880740268209,-0.015456554673874497,-0.049569802024857876],[0.06995070576343643,-0.04752372105994837,-0.010876848137864542,-0.047098747169422736,0.04303391054836286,-0.027672733602192592,0.05935155901646439,0.06833503993684256,-0.02788693479529079,0.07854440594361779,0.07141947257032806,0.07291582154631862,0.0156916340607762,0.025137576404645524,0.025954773008340874,-0.03337884678801067,-0.016618824699150977,0.042576862529709776,-0.025689193509659636,0.0636744371235979,0.0038469124164751288,0.06646867793739503,0.06701228540310429,0.06304288767486485,-0.06577932437059655,-0.007194059448035997,0.07054106167019171,-0.013340295954639337,0.048749726720003085,-0.07169253113160862,-0.04009439248354001,-0.018153016924638995,-0.019918917489075955,0.025789519325123363,-0.04249698793526003,0.06365967340794504,-0.05898332717796795,-0.0715679425904189,0.046161054223526066,-0.06257120083745545,0.013491702389382734,-0.029330662324039112,-0.008685732962433173,-0.06251598393840893,0.07711384392028531,0.04275564298659076,0.008816268751308184,0.06165792266567686,0.006214938027633022,-0.06611011143733994,0.06239434932193634,-0.02579433737211598,0.046339081790625944,0.07818792326092813,0.056908775004697654,0.005628330678826744,-0.04541389596926699,0.06804688060984942,-0.011054491608284233,-0.04141488485179421,0.07064173195697829,-0.06816649581614541,0.04498081138367167,-0.013109440535487182],[-0.04413030858176506,0.07553322296615689,-0.07578260840866127,-0.061024102363653014,0.019127290777285748,-0.01659242645135621,0.06364379814177605,0.00881337018642207,-0.05278039952104437,0.048477291201356645,-0.03887202638763818,-0.01212941506293085,-0.003995186254592224,0.05942625186148219,-0.06813780666249705,-0.04218481793606044,0.07349604081782626,0.07518107586175214,-0.013738702647830104,-0.02233920804759889,-0.062274017939533875,0.06199452566601912,-0.06636178911135879,-0.02846984455232973,-0.025480716037407567,-0.06187959017823399,0.02696204240910158,-0.009854389809597167,0.07535086428623478,0.017664666667049193,-0.05858809513715087,0.07623984596831718,-0.02325927049360654,-0.050956907735353836,-0.011709529358786197,0.021981607234206835,0.02366889031903384,-0.06914235596195746,0.035819416542212976,-0.027278945816502642,0.013540370281136782,-0.07520573115108782,0.009947233491820882,0.07693228192891115,0.05087820534881803,0.032574498894469804,0.01572867040108809,0.07252267069565202,0.053238149202362924,0.030240195136250307,-0.009619610898035471,0.025318379057856114,-0.008827220897223936,-0.07035234275294859,0.023654602291109397,-0.07387387239294459,0.05874764117732034,0.04753186319273452,-0.017595170528348893,0.011300592604742041,-0.03875002802453024,0.019936346011312913,-0.008092139788516759,-0.06531361674167381],[0.04679954503377066,0.03049012785699133,-0.023900320023885684,-0.04716492538644778,0.016478821195400922,-0.06620753096479214,-0.06732831749016638,0.07804584174977743,-0.04308735550893952,0.038244478101026706,0.061341386511939995,0.029444752209686183,0.04741482352045006,-0.0695179380235092,-0.06370523317606024,-0.04644842193140795,-0.055822471200268335,0.036099479567837406,-0.06740870098805536,-0.025953683266827027,-0.07101160599017842,-0.042846645101606066,-0.07386537305081378,0.018297580569206322,-0.0184572253959352,0.007521554363213689,0.07288155472529229,0.0034449618129539666,-0.03219305670379234,0.027274073114960707,-0.07477863467353976,-0.0015749375368738518,-0.03183804470134929,-0.05003681726682036,0.0690857991898696,-0.04349096217691517,-0.000978383469312904,-0.05705093922269403,-0.044730013420174054,0.03703966241409808,-0.047458985114465876,-0.01900052457286418,0.03320293485935157,-0.0655915694051835,0.058757490543435625,-0.048128486361550045,-0.07886443168885962,0.07193196993827845,-0.03116748357443809,0.04091951251677202,-0.058271292002699815,-0.05160808648084751,-0.030813471831784567,0.05840451896681316,0.04838674781443083,0.026941200893750315,-0.04634106852804704,0.06914894631841541,-0.010355510039011872,0.05056619506768871,0.0789296409619808,0.035076874543746236,0.009577476443526222,0.032524294274784704],[-0.0190364560599205,0.02610052607045582,0.013963523819968359,0.06933540823192248,0.019323939332973373,-0.0634295090257517,0.024216784402399064,0.029639239306322146,-0.04150032096745089,-0.07570587411585784,0.03274406265417894,0.030793010999828348,-0.028783470679435656,0.07087100804647574,0.06579961502989595,0.017594935621425938,0.00767289586429377,-0.045868710452438344,-0.024300040090600366,-0.0649457385745087,-0.05018438813008545,-0.07595332098502668,-0.022981858573447023,0.026434648560895245,0.06591809117040608,-0.022520021412129044,0.04700819222318688,0.06389869510214521,0.018441288713593705,-0.006510431978560804,0.0068394103705425625,0.012340744629701528,0.008926458037407686,-0.042646148763933966,0.06047130807346511,-0.027182337110665387,-0.004057133786008835,0.02849459170026066,-0.07899615538283151,-0.044565675449950284,-0.028704084461961342,-0.045723783143565545,0.043874975629105216,0.07583805849163848,0.03256055642791211,-0.04310208229248202,-0.02374143833994921,0.018130414777024116,0.00021602891829086902,-0.03637356583534346,0.039429747702983756,-0.010552946379241302,-0.0769709452912615,0.022900107280310073,-0.016451768706575266,-0.0748210673069435,-0.016412875607490815,0.031810488180344876,-0.07721222176071807,0.05919234120169873,-0.02321923390374621,0.06867341646420065,-0.023809780040253165,0.001266084593560086],[0.03993225201575697,-0.03561064535421598,0.03925772240733614,0.029065123973092716,0.06514895558948249,-0.0716714050511969,-0.06450424544180317,-0.07663585009323748,0.0026889885415503213,0.02877076900348253,-0.002673988158036672,-0.047812834051330605,-0.016050251926399414,0.025760995414216132,-0.02169463188839257,-0.013119660463592508,-0.06673915343965062,-0.07631711939760323,-0.038552800601035296,0.030142362135255063,0.01252953398931983,0.016095117693166735,-0.03288219176093873,0.055521748628917914,0.026263588252389582,0.03255381311248927,-0.05355673862913748,0.008688713435024276,-0.01603315103991079,-0.012685901678637335,0.05151053514293693,-0.01599214158894929,0.06874370505066674,0.015056950736586572,-0.07075094856327606,-0.0501526885544681,-0.023330651574343674,0.02052554276880529,-0.00902341646779558,0.05765624668944678,0.004648072131763362,0.04246513474076193,0.06979977955723918,0.05640314365623351,0.03442797395494932,0.044324623214952404,0.05133968780272955,-0.029463198966867606,-0.01178381456209566,0.034973877167583725,-0.050532155631048306,0.05067642737962392,-0.0188970247867426,0.00933195629602356,0.035813917563292094,0.05230795446483993,0.04229114132335911,-0.007479595865501769,-0.029871011596570782,0.032573113787131645,0.011460251914475661,-0.06775773058912188,-0.041935090643833085,-0.016780851298533198],[-0.04167886524279741,0.05610679310063197,-0.059037356774969685,0.06404127582395423,-0.004034268073063349,-0.013184390755459637,-0.055777044429442174,-0.06284584119799669,-0.03758926592725785,0.02838968204481497,0.05514948568173183,-0.03311899269207456,0.03006637827251984,0.016699597394116358,0.06988890469099711,0.03969149983830988,-0.0244967798365415,-0.056044569129290275,0.060804986829828586,0.03430174266702839,0.059582924945709076,0.04470926988353365,-0.041458058782400053,-0.009827684403014477,0.0014428996874819384,0.056675349948535236,-0.043002740310591245,0.06203332446301947,0.06128108054044237,-0.008471213479980201,-0.07007368325358025,-0.0020112402950376116,0.06177778595000226,-0.012785691439497,-0.03079633812345006,-0.0077409886794574155,0.020762464533844324,-0.0677185242465404,0.013762153058479918,-0.06389117499565217,0.009791826919314859,0.013682115541323668,-0.07614002192332191,-0.005081963400882908,0.049806982582853536,-0.024801538172282825,-0.06729824912530966,0.03793119202112875,-0.012704942085494112,-0.01620855391467917,-0.016999045234301437,0.042474768966800545,-0.01807367784411143,0.008339905288985027,0.06464133388781089,-0.0077935229375948895,0.03970037757126924,0.06795161983701296,0.06681476310404151,-0.020087850407973642,0.01437376308252023,0.04482814372463096,0.05602899677482142,0.04712938136122027],[-0.05314607920201118,-0.021802425219275442,0.00014888584667254422,0.0002338220349370519,0.00030828263712918383,0.05192473801609483,0.01609127084631074,-0.044180286131866066,0.0348390229000635,0.05518121941875539,0.06787445262911221,-0.012703397891710624,0.02087915217301281,-0.051073010767314186,-0.00823402969049345,0.04291766617319323,0.05347334755207727,-0.01697934778765521,0.00534595776456469,-0.013723076862548736,-0.03147935612415839,0.07196858563923184,-0.053078913258594575,0.06715408678594224,-0.02061936693346636,-0.07717376329815788,-0.014467881504392115,-0.017193118517820398,0.06585120150831947,0.010407312877748336,-0.00440914832481153,0.05311599182654501,0.03354915089587604,-0.06009618828298547,0.06395176880364706,-0.05152551078904317,0.02965075318051735,-0.003998374413693505,0.07063787107777818,-0.001706253032009333,0.006635770420220512,-0.007867298694199488,0.07688608929187621,0.036478627198911096,0.059622449738894724,0.05972864483325512,0.033049680545372634,0.07067949295184286,-0.058352694106922925,0.027677288324791407,0.06979366069313216,-0.06452619961688084,0.006138521417558673,0.03308411211816739,-0.0011968718902923034,0.008719008123392253,0.07796592382609752,0.058182299542629684,0.004812443109896695,-0.04383399538277898,0.05644160460889653,0.011960724671155379,-0.010998056149966897,-0.005970089406445959],[-0.007286663814253678,0.06836476576567661,0.011099812774097655,-0.02637839010129906,0.008195209306879761,-0.07423875471129163,-0.009005358593706131,0.01885177013220561,0.04562114160973432,-0.011803950945751835,-0.024792125494009724,-0.057300259002134174,-0.0352986483964929,-0.042550364050537255,-0.038882111801184116,0.01957330191057504,0.014677974297501298,-0.02281767805869252,0.03624211297297724,0.06037471829943422,0.014949055202840136,0.0772524573173032,-0.008644897009746058,-0.060088515791983536,0.007576566642861465,0.04607170247855202,-0.05854538659554647,-0.003348191411804636,0.03631501676408933,0.02634537749464156,0.0029401510199684087,0.07877927584477687,0.046724554148665394,0.019826256074582216,-0.05620853453875655,0.07806962986500475,-0.003505175073540332,-0.052919282962538644,-0.012536150403031049,0.03738520822300108,0.0578618437756802,0.016705262585375243,-0.07721828245246677,-0.07027027265143942,-0.028602107517715747,-0.052266825620908695,0.06393974138677268,0.06781008621456516,-0.05416856527090385,0.02124510671250799,0.01879124251943772,0.055641219102579256,0.04844147443703429,-0.04965381820365596,-0.04297705386092038,-0.03455810420756277,-0.03725752094097395,-0.013818199316776516,-0.0787537005797927,0.04084050581832592,0.005498735488111122,0.034919396698431804,-0.06318367424393616,-0.0057834806547325006],[-0.04401806798241518,-0.07712200996343102,-0.05734553789307416,0.023325309559622295,-0.013599176589008262,-0.026702893005378432,-0.02626263770997575,0.045282467681150004,-0.05589462051842748,-0.017154837164300985,0.03912237669777503,0.07254849781849494,0.018361407056631238,-0.046304126374868776,0.05370615530577362,0.07238278403594613,-0.06609310545906426,0.04727133997698946,-0.05772185440529022,-0.07014505594452462,0.00515159742977927,0.03456643812830007,-0.014235206866878026,0.03154507536015959,-0.030990877738769712,-0.06007206063489866,0.011529395789099886,0.05337215061588534,-0.04859241626478448,0.07532288088503049,-0.02364956512460441,0.041465130760065014,-0.06996928596480442,0.015769166337875232,-0.051936497469668136,-0.07427600786888895,0.011744787579340457,-0.01116604579334057,-0.062499462224169154,-0.075386586901339,0.01700175302386907,-0.030454884723845693,-0.020398920992070767,-0.06315139251921592,-0.054108008783372304,0.011630024361272978,-0.039493984623895105,-0.032926220494618845,-0.050137770204375806,0.027016757329675,-0.026713534658076948,-0.058069082279333224,0.015173775827112436,0.05345295587682921,0.012423534789986986,0.020002813082240934,-0.04046175243926096,0.06265717498277876,0.016526465401306565,-0.061584740179908726,0.0031369342379482077,0.032843132048652635,-0.0350779497056204,-0.030085421856422163],[-0.027768167561557252,0.009992609215914543,0.0028235265512300558,-0.06752393373989969,0.023025324917137834,0.04822459280162761,0.013882965238586807,-0.07809460047905356,0.03520189368686666,-0.026695645958007243,0.0020744110704910244,0.002444647428370782,-0.07130985705825293,0.04821959784481791,0.00348105043789609,-0.07931518300032261,0.07721627603654428,-0.07452993201675277,0.02944785310329749,-0.06617327308555411,-0.03442487557839583,0.03441288013828037,0.05473549116501196,0.032519621489123816,0.06000123664163516,-0.04041583788678769,0.01101862763493387,0.04801201635325288,-0.06371053578249976,0.04163791747772409,0.03461464916608356,0.07082467863784937,-0.02621272772499058,0.07263621894529737,-0.015116215604878979,-0.0749967018821933,-0.0034044874088719353,0.024947635012420463,-0.0012356622613541458,0.04423353914095703,-0.024563055315113522,0.06397878554188051,-0.06946592966776802,-0.015655370278064854,0.013527554778283246,-0.06805750117859391,0.061722020273797425,-0.021796969606576466,-0.07699816377412919,-0.06410380321156452,-0.04326716515311149,0.01803778224760488,0.0469861168045379,0.07149866964502889,0.058288656928413986,0.072792382910434,0.0474193024232193,0.03044437104715763,-0.06199166811518702,-0.0627934692040785,-0.026837753454058037,0.07446201879792469,0.01831340643489542,-0.05638287131560924],[0.0754210493919339,-0.01936794210243054,0.022379526116780648,0.03602666239067065,0.05536023107577959,0.03932064966002555,0.00528248466529631,0.026627022986394664,-0.018113195992227226,-0.06509249498651021,0.040300105755794645,0.06777003091721431,0.002573907055295328,-0.0638632722177382,0.011974690860705604,-0.002374533015870316,0.02103499631733483,0.01693580769644804,0.02323744650065144,-0.05887274832334212,-0.031041579847956375,0.027197564077367533,0.011939198403875315,0.008783284792421958,-0.009164894928673218,0.07314713963626011,0.07063948438256754,0.0001931145058674857,0.06953546589656957,-0.018602448739712018,0.06608154643356773,0.044183313742483236,0.020988731590296097,-0.01674726354329917,-0.006306705809710536,-0.013559860066893296,-0.00010037943731007994,0.050345545980313065,0.03499693994918543,0.07544115858864765,-0.049521286787291216,-0.0625241995310953,-0.07725692177838933,-0.07715896895961685,-0.017062830101651414,-0.05875913285475467,-0.0505296088828146,-0.06284536794097972,-0.020604046615004503,0.02256625229811795,0.0173605324177789,0.03512712901887337,-0.03763775692685517,-0.047762712187907425,0.06096779207090431,0.054208640809066955,-0.028694114593361984,-0.041139003133491676,0.06422225134513738,-0.010968440818741775,0.0721075899420035,-0.0501707524746358,-0.07733359440915039,0.006818579797906332],[0.002551593482348344,0.07874603128599773,-0.06483471145089031,0.07129240824873714,-0.05151293523702087,0.035610895401703396,0.04580270602232747,-0.010330899513331862,0.031132262100449302,-0.0005495813006125178,0.04514700792329802,0.058902328851106134,-0.04474017961906857,0.0040588627539196245,0.034860824680043645,0.03877874947504249,0.05806275232222056,0.06257924285848016,-0.011332797909942977,0.003670957260448558,-0.038290127752217205,0.01035041077565874,-0.07750411712193564,0.0028067450775410823,0.07615739778674453,-0.03907790887909385,-0.028467128244826008,-0.050069992240488734,-0.03827643361725894,-0.019666979763236576,-0.016590391863025078,-0.013544572666160904,-0.024309249485606737,0.0029930434044806225,-0.039992412409949905,-0.020044144633706237,-0.03519544592671753,-0.007967371896814596,-0.01852044985932234,-0.06904962066039606,0.058573078820516926,0.07744938794121814,-0.05552880334658297,0.008842590791508018,0.056562792666820974,-0.0723059897895126,-0.054033574247024825,-0.06071514652716418,-0.025221680448924567,-0.015623560553152647,0.008664686877564767,0.03459700071464459,-0.017605436882579845,-0.026317141278044374,-0.006213177803881618,0.06591183569133718,-0.03241085936121116,-0.025475340510103035,-0.033633467985835275,0.04720253684925423,0.0029824246491839904,-0.024268309077479375,-0.019743324321405284,-0.04178868396776618],[-0.029142483424889697,0.03313618484591753,-0.02582563870501283,0.06428423899025792,-0.0025784254975794656,0.015899071736495584,-0.0007262121646333774,-0.03221869407142991,0.038560744315385385,-0.02067822460918513,-0.034774407465794785,0.021637426323342576,0.003468900481062313,0.05076476461898895,0.05309806864796523,-0.03216614247447445,0.02380169737338635,0.07368796133522983,-0.01964822091055364,0.04081179379406311,-0.023048309579390937,-0.03493007932306433,0.07866023404764735,0.04992608486451711,0.020136213199006,-0.004927731161836731,-0.015360260953283801,-0.05965537408502922,0.07549089811102452,0.017996727871320443,-0.048725777895240754,-0.03905239732261623,0.00021056266393435302,-0.053265125540628254,0.03082135643134987,-0.04545728759395099,0.06833628204232853,0.0429655350591106,-0.07144589573376052,-0.04680328092158347,0.05179704671896353,-0.003382620760069248,-0.052422367124679875,-0.056987472865462546,0.0784155697112352,-0.05870878690225048,-0.0506147856180428,-0.013136604916332341,-0.05442991389902143,0.04177486292254996,-0.04275414688632063,-0.029152109848916797,0.051273829076917715,0.0222091015641523,0.05113107715054933,-0.012663202475712653,-0.03786802298948336,0.038291269718596053,-0.05137587423082286,0.026568814824678988,-0.051296631239057124,-0.06532020096284048,0.04902068166041364,0.0373796699192378],[0.031229636940079068,0.07397614903679564,-0.04268833089831802,-0.0296481017102813,-0.008442663103533473,-0.031509439945223074,0.04914878146997122,-0.07535490348279429,0.046704527809723936,-0.005410545084720756,-0.06884656186831231,-0.04182572478679198,-0.06804347126845794,-0.07220877253109226,-0.013600386337200544,-0.02862612974483326,-0.07179297841566,0.025587492005431284,0.017767409407318274,0.01345052432744022,0.054170571137197816,-0.07855405544766597,0.006445566999598274,-0.052686440569032725,0.04912057065221766,-0.06447230292537247,-0.04348472737539169,-0.057030622163632076,-0.06629145277256357,-0.05505970184969552,-0.07048244273474702,0.04080990142701566,-0.0007911864994796035,0.007478818456453743,0.04837444779232343,0.07219282611521276,0.009119215214143812,0.030209252668616796,0.040580511450127935,0.025084130944875282,0.047360094893402975,0.05295099525010862,-0.01644560631274195,0.03873807865390108,0.07184655045124991,-0.03634839151922082,-0.04969059148565175,-0.06426562247398872,-0.07867657680891821,-0.06784104686338989,0.05223743036006182,0.03351700952693879,-0.002854641834418759,-0.026299385882924475,0.012524075627495308,-0.026295629895839483,0.021083548118938165,0.05926741911973399,0.01741164845836198,-0.04477800342486147,0.01175243187683159,0.014906325376158285,-0.033905748319416715,-0.037409580511236946],[-0.056757486342771016,-0.0780964037999522,0.06765629753862397,-0.04354273596077163,-0.06163892486967512,0.028420664889105496,-0.07058967271883827,0.03373527138255212,-0.037691374048467556,0.010022133656897636,0.02974848812261513,-0.03886012356319016,0.06668363767613758,0.05188971556323584,0.022288032407948462,0.046460341096114854,0.06629529745105157,-0.0658792660640597,0.016490881155428617,0.06319005843167357,0.050064475447947114,-0.028020074865773088,-0.04168554502927097,0.01372081518182253,0.05112309700943637,0.0769722691621788,0.04629711831378705,-0.03753000933329499,-0.07090621964471808,-0.05866800108414264,-0.028713761197526305,0.04040320271254832,0.023780216765180943,0.07146083926087586,0.03461862545390502,0.0738154468660072,0.050520024505126465,-0.03162274993888425,-0.061286823915333424,0.05739621077894839,-0.05393779145678666,-0.07594657102564976,0.05994286726567588,-0.03251202748503664,0.02444303432310902,0.04397296195762552,-0.07830034243523729,0.052693643647161656,0.003935002462300299,-0.06543051835110478,0.06464370315623627,-0.0373481687650838,-0.0187379698371888,-0.07467530250282109,-0.02119222853582764,-0.03296591939673737,0.02231963944708392,0.07832118886976001,0.024844294533453874,-0.029462071615467794,0.0009582777846804972,-0.05096116102520674,-0.06289007715484929,-0.043733266468987834],[0.05476865844405634,-0.040006682353618296,-0.05697242363802188,0.03176461426386653,0.07682828588704686,-0.03844744340343669,-0.002509625757561701,-0.06407132482653514,0.0011395679719535831,-0.03012594099902829,0.06137450449171667,-0.04303102775014849,0.029271349169509034,0.020305157714169273,-0.023846882891902097,-0.014127085472374862,-0.05137142958587769,0.01500689173999448,0.009422064401530445,0.07411441017954466,-0.05869159753345877,0.06884550446996524,-0.04222644762705208,-0.04663774792930241,-0.06955226785043148,0.01311412628721771,0.02146881663326198,0.01932565870765621,-0.06606926175417455,0.010311020561483327,-0.06233028531490345,0.05315945862323149,-0.04011511696544733,0.06034255737063317,-0.055279019934731576,0.027607578588216403,-0.005392747921934124,-0.07413529941327585,-0.02313480327250662,0.04735249692815552,-0.07878579269795577,-0.0704484689918816,0.03539416601766844,0.06720420463311864,-0.03536344684784132,0.013179296725022358,-0.0052152379588838015,-0.06831410140638343,0.06918514513711232,0.04115284949554174,0.04215746005088438,-0.042621038685723076,-0.005733653142831732,0.050147091936653815,-0.0060767684293057045,-0.06766718284758122,-0.005414704983409831,0.021668961969268586,-0.03602641974277793,0.010245792118447188,0.04370316406574707,-0.041439771909310655,-0.01876019437475132,0.02965507860681883],[0.07410369949803473,-0.012727214818275922,-0.0015986449065455242,0.031779268543624783,-0.07242093464362331,-0.014497160398724177,0.03518226251405647,-0.059222875676588856,-0.07333623604758892,-0.027219191569285855,0.04503995073373988,0.0660287877971951,-0.012252090397560955,0.04431962261729581,0.0392785475734426,-0.007988053860801937,-0.011169197519527219,0.006854662768491285,-0.056422419694143244,0.05978665992030054,-0.0773411793876671,-0.07712482189939195,0.03975483146858419,-0.041219564061441796,0.011456027353056982,0.04176137937430277,-0.07530762902194298,0.047113690316483076,-0.07396151410029099,-0.05004974590577802,0.04172181540251136,0.03271904969580775,-0.04654324605554714,0.013156804800704676,0.054201198982172065,-0.035831968646645874,0.06360584978884978,0.039536885056371145,0.05275800722241485,-0.025735785486049587,-0.05785671424814097,0.07455249780312335,0.026053326022740082,-0.04556084658560656,0.024154769505262144,0.04826328216763335,0.03654943201968899,0.029657330583299817,-0.058332428603816364,-0.05608172499540441,-0.005646137840261905,-0.05047138837137267,0.06639749279964155,-0.010255957009565365,-0.059085679696005436,-0.0013817082337135844,0.06307817217728283,0.04614280647232127,-0.04460608684707739,-0.05759069306829651,0.005693117068592011,0.003695503634079043,0.0540784212070394,-0.04199262979345008],[-0.07080457158644567,-0.02935431830583923,-0.0279431843428041,0.02067742859104741,0.049393351308709726,-0.03889080529113861,0.005347743467471555,0.012820885133235368,0.07421025460690946,0.008335428603923714,-0.029229091239423004,0.055441393806148355,0.020174771872324138,-0.04542511023995964,0.047707193190097516,0.062071097195578094,0.061044252900124024,0.06860348370146886,-0.05822476768619908,0.0629894286256805,-0.027048654605234663,0.071889145645496,-0.05008116448657237,-0.07726056684505374,0.06721415154815731,-0.026981899833926112,-0.03165460494063367,-0.04423095635785634,-0.021886427299458888,-0.027287414032804304,0.06225631457414716,-0.026161878987841763,-0.02029770387140827,-0.045852468809189986,0.07489872802969198,0.014721470644611231,0.06355369945717144,0.06901101658552053,-0.0030993900134987052,0.07731439711925558,-0.028237870046916767,0.05155747184470415,0.029262621047437456,0.07245285246011393,0.05183913732632196,0.06141294425894908,0.07841026898323322,-0.03008010215440106,-0.05439042407997326,-0.07693575936756557,0.05815208727734206,0.04679470424994882,-0.055757286820912896,-0.06796823246281919,-0.011547536628634288,-0.05923928052764313,0.05537633930912198,-0.04898795939245741,0.0019737976267060683,0.03360065891284194,-0.035910721906310665,-0.07319814578080357,-0.0463984398359112,0.05427689932518666],[0.07443724318264901,-0.060768013986661214,0.022895627198551052,0.027701658545916344,-0.009046171279990647,0.06064770702155369,-0.06974689462325205,0.05161947371691277,-0.046120913859444876,0.05576515582696123,-0.024993450011103122,0.07746127837003554,0.02875985838161346,-0.01830153949855001,0.042863057190891216,-0.0650743471139677,0.055593782080955056,-0.04115157834492814,-0.023259672873560892,-0.020105405739829864,-0.013655909433250247,-0.01748913876995806,-0.05094508277549424,-0.013552444926402306,-0.02533505529298778,-0.019406112949610737,0.07619785993146051,0.0016960504366441565,0.0017773598494604654,-0.02393117235145834,0.0027676595769664347,-0.07826810034427914,0.027603231697878115,0.03555359582997296,-0.06116438818574989,0.06420572262254734,0.06600902373924863,0.06948873705626543,0.05196908213469521,0.011371172453343986,-0.03915335210083926,0.02711872167314232,-0.03857128693920428,-0.02745656639823493,0.038107092279786724,0.05840600153378099,0.046584296585670766,0.04512886424062656,0.04719009541269348,0.040243121024936226,0.05583484451704488,-0.04805923432781835,0.03088838141677658,-0.00961275205034613,0.05606078040869116,-0.023741612547201685,0.011237077224921139,0.017045177595212443,0.05922316945971674,0.05131931977699294,-0.021956900316347564,0.07817518882373772,0.03274516133243893,0.037120758295892634],[0.03863974749765808,-0.004806422800605771,0.051688700045894424,0.0025554152586980522,0.023684663392684317,-0.027587027662998927,0.043400421081832855,-0.0788493891301498,0.04976834249927726,-0.036716458756428594,-0.02208750141873866,-0.04017292352201385,-0.018937787229180374,0.003010842428614685,0.023189859819656284,0.06523901027152469,-0.00033286633174696586,0.011522111481518061,0.06706970383276492,-0.04960326776200949,-0.017722699121962098,0.032018223087100534,0.0433845092983062,0.02087693200236656,-0.007551440353328552,0.0470467713727812,-0.07822890384276654,-0.020315276058355623,-0.01667366702492425,-0.06984686357797458,-0.05500574648605635,0.002817098243397561,-0.02530711476396581,-0.02508042142831904,0.06104092286513511,0.04448405926738187,0.022059780821927825,-0.07464805420969803,0.07747264938981306,0.022256884100755686,-0.045518717411385176,-0.050143199802466995,-0.07525781069394463,-0.00900768634119817,-0.07647658836305041,0.026245418766839532,-0.05979624290842038,0.06406355224787982,-0.017275622620306012,0.04835564711291691,-0.0350047147475199,-0.07690961061700403,-0.035245697542363674,0.02313332717569047,-0.01086276441239011,0.04322537818609109,0.03208181194159496,0.023958491077101178,-0.05797773909102113,0.03929799627512772,-0.014061210361027192,-0.05045115477766406,-0.01701093147441537,0.03302046024225035],[0.005656721810834855,0.04855419366867838,-0.032615231319272554,-0.06413322315185517,0.07478229390250724,0.02034965201369852,0.028147825310086194,-0.04915195962107087,0.02494191621879496,-0.027483834854488166,0.038699811494439317,-0.001414376369895034,-0.01809575455457455,-0.048991634955935434,-0.04780590714257597,0.049877913465903714,0.06996651687601489,-0.03337244361937071,0.0659559792167678,0.004884931688944164,-0.024487046075450655,0.04687851006720154,-0.047057118943329646,0.06093967996778981,-0.011261313136201703,-0.07865667562836826,-0.054196249616663965,-0.043338843330656907,-0.06651890960064305,-0.04979131461033751,0.07006381442604209,-0.02222669802158294,0.039118174465061266,-0.05857369190596592,-0.0764088741917723,0.03696415269672699,0.07000675379147159,-0.04416812772095546,0.04602791557800543,-0.002979223018850119,-0.057869015162437754,-0.06920903943516096,-0.042797726640107184,0.05452132788727806,0.0733709965462858,0.04336799801669608,-0.012860039272495393,-0.04680519149471668,-0.0768017349437603,0.06490101811329006,0.016783825892872348,0.05382427756548852,0.04924631677204234,-0.02174398288278466,0.06013276569471512,0.04315310244683908,0.07430078156773444,0.030010328102831208,0.06861583857863571,-0.013865384262511197,0.044569690353426096,0.04065783694943264,0.03455564543532284,-0.07311091843106818],[-0.019717754273375406,0.05770229892348285,0.0169528005618776,-0.009825013972548683,0.04104512500823028,0.00995159702087006,-0.013141673932847178,-0.030539034662236546,0.0022094930157318666,0.059788486651457404,-0.03981170082272988,-0.025584622952636384,-0.04629322771409959,0.02132219412175869,0.07224574080433166,0.03952758198537534,0.00686524677148615,-0.0024884857465500964,-0.03663279699634473,0.006884553322507214,0.04050725941252345,-0.04500186237842271,-0.033308808766336996,-0.023204310888081864,0.05963521126373499,-0.05251151567991096,0.04706547558791161,-0.07107277676251433,-0.006270677657627573,-0.039237916062098824,0.03990352532948211,0.06820506753869789,-0.06208970350762772,0.002641253394150763,0.02391745167266545,0.04484912331945815,0.030116722712886804,-0.07412746860446905,0.041042453026602616,-0.030920123477700484,-0.07650194840925965,0.07613488734011056,0.0101585216483753,-0.0016329602174259088,-0.002106501217093549,0.07390689459932974,0.002266000882630708,-0.03674656141591756,0.06882929443343715,0.06541760609536494,0.07839709841021981,-0.06926802469203339,-0.06965604765326118,0.06966100346525238,-0.005024532362255533,-0.07749557261650408,0.011229362754021087,0.05453928395504587,-0.045414530696043696,0.034313000317184386,0.04025522613983626,-0.015201040616065968,-0.050949958961860366,-0.013786461518559964],[0.0016467098148331407,-0.06218644677853956,-0.06303776714899566,0.06129424549368262,-0.07211191601070932,0.06096019942820946,-0.03411379435236582,-0.057249410544248557,-0.008044695381435268,-0.06626732939807961,0.03010979875041211,-0.054456437267899074,-0.06951784840591871,0.018010729466874067,0.030385177826762182,-0.026592747724405317,-0.056015701270790974,0.0009379351230746887,0.06486664104843201,0.054476972745721185,0.06684285073165545,-0.06850112511491964,-0.010548376286452608,0.03080046683993503,-0.016881708622917147,-0.02978107598534852,-0.06722636496998638,-0.044313398047253365,-0.025882709644318172,0.03748749894526904,0.04580692679552146,0.04121246445373459,0.058692651581907236,-0.0708914797266617,-0.05316376593253929,0.06730290725360757,0.04765250819770385,-0.01821832188117812,0.03434849893478537,-0.0025409053036399842,0.010288864142485128,-0.07572881459279798,-0.0744432768268611,-0.05489385944528536,-0.03753623967314071,0.024483388117036552,0.04471537865682659,-0.06939937930271405,0.024229086315116295,0.020858958395564946,-0.0497272823882577,-0.028201522519889208,0.026472219969662758,0.05941405851532201,-0.02412849529829841,-0.0462616939000537,0.026851854283985083,0.01394171260469685,0.003540037351070473,-0.05989174357120181,0.035584497509035584,0.05763138440842022,-0.06657463549727427,0.04597364409310044],[0.005919148943481492,-0.06330593776500637,-0.026509701599242437,-0.07486663662583876,-0.0773797525590909,-0.04160617090158884,-0.024755287593538226,-0.035556108810815945,-0.07617294734745203,-0.07340819129343243,-0.06052744944952547,0.043102017858307244,-0.041646840160804444,0.07348224600407527,0.06869831237931674,0.016268944617325674,-0.021823827473982305,0.0036499417410959124,0.02778300216497858,0.0007164064331175699,-0.04779982889771424,-0.05719403602133066,0.013606731457957206,-0.02057931523649811,-0.0005655091993327398,-0.04219092800246604,-0.019621156168053707,0.06179760128057422,0.024282980225522402,-0.02541142286894829,-0.05438619983647199,-0.07680326828484507,0.061782749757732756,0.06678199847025063,0.01517184605220487,-0.04071646076713477,0.05352623721285292,-0.02310382407487524,-0.060384507569264,0.056602077591047815,-0.06910125785130337,-0.05953629179897571,0.06979935650584716,0.06681147774636606,0.06966187502915248,-0.00008795547719801668,-0.023626088326812678,-0.07299414359185906,-0.046108232576227835,-0.01786130400719426,-0.014437410242367178,-0.014518775971744273,-0.052104374228443155,0.014402479402205121,-0.0018464711411792223,-0.07047303051730286,0.01211836313586761,0.020739644774376013,0.030063013606079717,-0.07190481487766663,0.03825178829356118,-0.06636048145009715,-0.012221938202986666,-0.07495096091376859],[0.07067930007622507,0.07589376609823426,0.004997304490617542,0.038331912009778264,0.04864285697563196,0.049219148688235445,-0.0724227692310914,0.07422489091183986,-0.04314592282224416,-0.07707961554151574,-0.021962901160704616,-0.028924594327239764,-0.02806231401218457,0.0649917576830445,0.018301354416237675,0.019617712834862865,-0.05628015779734009,-0.028731191657072632,0.029620211099536654,-0.048247837766363016,0.009673161869547931,0.07738992231480804,-0.06816162116886355,-0.04958969048367475,0.07660035258201926,-0.011164245292514523,-0.03337072403209252,-0.07358087027706472,0.06733878562888375,0.007646478742949569,-0.0029009738221914827,0.027158451886710518,0.03703831286569593,-0.004030914623305187,-0.03877065576500116,0.015531663259064422,-0.06397409839417015,0.07532747869484836,0.07650354983059782,0.05428526187066796,0.03208116689151813,-0.019379339462739443,0.02554938071913041,-0.03451847908759924,0.0006888435636704663,-0.07222047372064433,-0.0291942907751833,0.07893978019112088,0.03369751894068166,0.006141058052719425,0.049183268175916714,-0.0735954505522394,0.06662531145866608,-0.05419520964185237,-0.015006760610309085,-0.06723814449700202,0.020028498555789045,-0.024562445451262474,0.04753500564456372,-0.005374874011904395,0.06597376402954565,0.07635938662296814,0.024348061288392796,-0.022362632389777246],[-0.05889765239231109,0.025667688006746132,0.01060331122715733,-0.05219046918001199,0.0688459652380919,0.026951626841687375,0.07346615913017442,0.016760330668802198,0.04149722436366841,0.035136471634814516,0.0006283995340068904,-0.07761178872812338,-0.07283372663862718,0.07072766229406226,-0.029326349049089293,0.004166208980409087,0.007737892175235194,0.057446076872468464,0.06111526856193972,0.07037799852832709,0.0642120189829271,0.02482095173763013,0.05803473249468895,0.021074141925858374,0.009423601117517642,-0.004780566596218145,-0.020325187846090585,-0.057009007531080326,-0.06223284678770458,-0.04416191072547594,-0.07063274135227463,0.013959023368806188,0.06807899385123145,-0.07199493057122407,-0.03233801620138195,0.05739977386470582,-0.012093455380996088,0.06386273334038159,-0.023521802818623993,0.049625126832748154,-0.041995099684125285,0.06850527740553654,-0.036957241534230065,0.003917511365860288,-0.003654077646999032,-0.05661715231214974,-0.011710635444061337,-0.04477146001634213,0.014288797901959947,0.07272357179605085,0.06323508410101396,-0.025096406848836572,-0.057476101931715144,-0.03512773362525623,0.005603528882616078,-0.012490369452889666,0.037048791689678534,-0.07554540829625149,-0.06951961321475585,-0.01314775649145799,-0.04905017950550551,-0.03686724668639653,0.014948904281592885,-0.06305054001266802],[-0.0715442359339921,0.041123153346635646,-0.004714161984408135,-0.03419925998162356,0.04352411754379026,0.014354650990439134,0.05420895378853544,-0.006284413346438368,-0.06688689981203538,-0.02879792854061375,0.06865053615327603,-0.00008738610883461377,-0.01765402950318071,0.004208403858534616,0.004261345804494442,-0.04857922410429761,0.040122275343219764,-0.01105786723155173,-0.054229538083070905,0.06592457196904225,0.05979491213372932,0.06836821017690643,0.04796225112374872,-0.038495242404739165,0.04680898862917748,-0.04528182624796711,0.04326600140801839,0.06180331373257679,-0.03102488671362823,0.03445648554754689,0.014618673766390432,-0.00006225599643842757,0.016140580480240613,0.04481883223989164,0.022288237993592683,0.030687497594023717,-0.03077740685524852,0.010172110212203725,0.0003031826386646235,-0.02577579333978617,-0.053216947494877084,-0.05011884441900277,-0.04052575032599991,-0.07185309334753383,0.04698082724202255,-0.039501026251910494,0.04122237150494939,-0.07405163649771589,0.006633345788430917,0.05578688804818049,-0.05584109138465449,-0.0749448746298388,-0.07283761607855359,0.024364178775793967,-0.021876509781820454,0.01056553816195522,-0.06771003582859787,0.03306453646583646,0.04262613240430697,-0.07499336701583967,-0.05909588301690479,-0.04068120408215037,0.04376234370033322,0.0014379568328748492],[-0.00453561616102552,-0.06947149324165737,0.06533160652464795,0.05291596223965155,0.04138321538411293,0.006335979527120243,0.07053515452424086,0.07513719204314633,0.06584718817311812,-0.07833134740407391,-0.009078944443397798,-0.002919832468002094,-0.05183918229011694,-0.07350069817231554,0.012302991178399213,0.007086185157346313,-0.0016887639527478628,-0.03876887796285609,-0.06118671856505765,0.07515226959840009,-0.07078876264315948,0.008953838636004763,-0.02804217544955401,-0.04387781780484783,0.01679910597189943,0.0015179768179541878,-0.05954525044993395,0.05740227638950104,-0.042309808649344714,-0.05032871433144853,0.07089853928543527,-0.039242380392294655,0.050092742408370534,-0.021977717676359507,-0.0076685151771991806,0.0734733853727812,-0.03775747660223029,-0.06506207328275344,0.07400715082133966,-0.06186084803280577,0.011267058358598533,-0.05664823756988714,-0.04111754833074405,-0.037091888777344095,-0.004276132748759343,-0.040373398394538615,-0.0015203047290909578,-0.017666792753501755,-0.02232951660690903,0.03502924269880463,0.015789953166301655,0.04248570579686862,0.05969558875588832,-0.025523862597330423,-0.033490817979920706,0.03530321996126431,0.07800401929360713,0.028747288708974698,0.05044905368484937,0.0737483512568298,-0.008731008900951836,0.0205042091290125,-0.0724859995499165,-0.046239084788778334],[0.025339546658596713,-0.07583237640992727,0.02092630064282873,0.06279875186407771,-0.03549775129974392,-0.07647121088682308,-0.06437045976543097,0.0653801298965644,0.01754139105059078,-0.07627471969716844,0.05347935798453098,0.015623298960385423,-0.010849330484753885,0.0483419063383644,-0.004451886753186395,-0.041701184381419086,0.0098487508411121,0.055285636663019846,0.04918836905988176,0.0002551693496963012,-0.024970606158561188,0.0584871124559649,0.06131753439894816,-0.013874663967311247,-0.017706775161108097,-0.05310477323715363,-0.004585895222851133,-0.07087935549446296,-0.05824424247713878,-0.0036766157968862044,0.06066036105576232,-0.03145115447302196,0.050410004355397005,-0.04736286821580449,0.031699434600791845,0.07292581816571118,0.054000498771162204,-0.033959313078608284,-0.01231149983072423,0.077185406834997,-0.03480707285035771,0.01871122313658126,-0.002901101746282941,-0.0697262778005006,0.030994807171214653,0.07013556096838416,0.059744359148867776,0.0003017575277578068,-0.022522551408891558,0.01962655508682309,-0.03848200321724209,0.04279393910059712,0.04923686858808115,-0.056697133700798555,0.07730816358168534,-0.029231024255638016,-0.07669973128294315,0.052998522869642246,0.025170506857473744,-0.005668943815248871,0.052194898152054484,0.06487235076018938,0.004358464852613198,-0.020482506410605665],[0.030025628747456304,0.012371891955030422,0.06060853708993621,-0.02342110394687778,0.035929130885283066,0.05496248461323056,0.07739503395316616,-0.04813841554694749,0.062339064001826865,0.05755308204419892,-0.027633543436445838,0.02265671177971456,-0.04106320842068911,-0.05901043487973479,-0.00021104384378116495,0.00863651209343065,0.047321796692571826,-0.06835024689612448,0.07539419891903183,0.03197873590062796,-0.02912991772863282,0.06993362431583254,-0.07645219983728513,0.010236675015271654,0.07723952003722229,-0.05856562842275863,-0.04709195074972736,-0.03997111626223334,0.06455462483073077,-0.0008383305323798878,0.047973181923924,0.03827516531623522,0.0656376154515223,0.02703037727582359,-0.009363495246093829,-0.011163601398631684,-0.014989874324167249,0.012566683512688137,-0.0562804164558751,0.07779336123005448,0.0202228520068296,-0.019648155707960472,0.017183721837623542,0.019024670951334824,0.06397566079353895,-0.00025888831414852537,-0.04879377994982676,-0.011555171933311794,-0.07483988573533693,0.0644886576992842,-0.02985269593020716,0.02322241854424037,0.01712434341871069,-0.04380819034428974,-0.05032370184353108,0.007073527506729633,-0.010189824302430515,0.03423207321156195,-0.026694043799696438,0.0017371456151729617,-0.07013427708448951,-0.018635234589009016,0.004433054252520659,0.027730815310946663],[0.0037927125140901426,0.020078383010741937,-0.062328172316934265,-0.01622168478510963,-0.06254119745144827,-0.07467425053482275,-0.0498850555837304,0.06807980867073483,-0.040489456637285134,-0.050861793277407086,-0.04260258188814511,0.04169143768166239,0.07236776230993681,-0.04370880264037205,0.07855359397596351,0.021016108124353654,-0.005510068888933067,0.02257783844139778,-0.013666332491826954,0.05550086843517689,0.07487226764760142,0.07122746986257164,0.03607080105074917,-0.05605028993825663,0.02108321960767511,-0.012400343935357857,0.033484724349795124,0.005781345080695458,-0.06043917958254554,0.014930223592804373,0.01933699762084875,-0.035570188818876546,-0.006548824796715789,-0.014221842800268402,-0.033612288414626566,0.04904737625913701,-0.04450717575581076,-0.019470260499576404,-0.06702369977927793,-0.023327618100280004,0.061531490681330056,0.07406809834995945,-0.008607428254176097,-0.05472097650441205,-0.05849511805608521,0.05829878502547234,0.002177515468552444,-0.0520227697503593,0.023813266551398184,-0.01990698775974006,0.03655301013691672,0.057561027397291735,0.03454555528443364,-0.050951035877334995,-0.032050368561016215,0.060838047274163344,0.008811160424868122,-0.06340125975015559,-0.009235740977585028,0.010792433611302743,0.06832296481640782,0.0657339958252568,0.028259714100779685,-0.03652622282469315],[0.04540726817151449,-0.010565395273221695,-0.059093782296667625,-0.03252692472296932,0.05850432554227098,-0.037897875221812816,-0.040793000475986656,-0.07207484141632285,0.07016891545154363,-0.06700224320086096,-0.07804330200633547,-0.029094743547482548,-0.048650023554131214,-0.027581296271476253,-0.008239579814086323,0.05390880750488702,-0.033925526253517274,-0.07110774669377898,-0.04900206412775698,-0.06314083341452667,0.003827706713735513,-0.07135734989578284,0.031390765737161895,0.05386544584400726,0.024203961734531307,-0.03689998871333804,0.05950748667059884,0.06456536644846128,-0.04790478560752674,0.0018428328778004985,-0.040528300736096666,-0.04831124579812665,0.00013245580225765323,-0.00008843864715844236,0.03629694357495028,0.071113450179419,0.030608021944379626,