{"weights":{"hidden":[[-0.05211313158525121,-0.05775079752374172,-0.038052323782522046,-0.04866459369792612,-0.06449860099090622,-0.04666371488427023,-0.011556710358428424,-0.05088798464018777,-0.022179599135694936,0.05898968639541489,0.010629068841890073,0.06454081105954847,-0.059207927429124105,0.06623963211202522,-0.027223317128321985,0.008748649754576305,0.023706026541590805,0.06523697932129985,0.06330090172428485,0.07395260164581635,0.045311485368050006,-0.036377354756906406,-0.00705209366291799,0.03840265705303704,0.06299905120071256,0.060853150084083464,0.019195821001115713,0.061409261279616906,0.061189537863735106,-0.053128483765279295,0.015509284657716884,-0.06369223089249242,-0.055794847755501094,-0.00810159012174674,-0.030268201447445676,0.002392052621750262,-0.04490040470547047,0.07067742830579349,0.015770125920262598,0.037504000877001745,0.04963961410588788,-0.027168041169369935,0.040205936331316014,-0.059086719598553286,-0.05942498884817713,0.05311867451078613,0.025770674847023434,-0.0772807616534839,0.05682683491011002,0.03831817614946644,0.07024372064333033,-0.04932922795278998,-0.004169881768076147,0.0651222905579633,-0.020876045543500983,0.04346654729079341,-0.03245693773089787,-0.07319040423761901,-0.019010703467905687,0.07786320960962578,0.0003388800759765007,0.052515710321026206,-0.05531513805678251,0.000586418432542895],[0.06533140889584374,0.006743946555333547,0.06948444662455709,-0.03791064595968777,0.014893572275576921,-0.05062966144768593,0.04128327860138013,-0.013891802296197922,-0.01683141121621918,0.0036185607941435945,-0.07303273306965026,0.023754260250760897,0.032188717987133186,0.04264261298706016,0.06363325673457235,0.06294875721423486,-0.04539074237488933,0.04360347881338052,-0.038052272034547044,0.05025023102153949,-0.04629250873549714,0.013386781850089399,0.009304126468682311,0.06770073438766183,0.0760034703441571,0.007578370359125996,0.006835665076603365,0.043610818652434664,-0.06774575138057358,0.050368498641036714,0.038723057503087736,0.08455553154232487,-0.03238781719468184,-0.06269264055234684,0.056166298689603704,-0.08197358445057557,-0.03622027261792909,-0.04118683121721425,-0.036752520483349906,-0.014051591703654888,0.03476297626316353,-0.021987297502365048,0.0004891938337120994,0.035225645905835566,0.034792332059441995,0.05265261416673959,-0.03682461128796952,-0.05855560652891613,-0.00971290674842259,0.0056404698699035515,0.01256485107958513,0.0350493276669895,-0.041543042814370275,0.03484414936762084,-0.03670639333532332,0.0023759430397193044,0.032479817724414155,0.039596932008899,-0.033565209704998426,0.06079894065203593,-0.04731360773848717,0.02961685962783452,-0.058540370438038725,0.043936859033686944],[0.0244551463471329,-0.0727833824124849,0.06653844769793332,-0.004004455185009895,-0.00925611369759908,-0.006398308974182545,0.045338485374483234,0.019357879980935414,-0.022306001132301086,-0.06842415068450297,-0.02050168152044518,-0.023046886408578503,-0.030695331673082974,-0.016806382509801505,-0.031644133263262084,0.06553888183089523,0.06363404843296787,0.013922301635456713,-0.03128717416753795,0.004889650912015515,-0.04528487960888952,0.06981444604786978,-0.015870436635387022,0.07352027822829842,-0.06957032158398599,-0.05410813392967701,-0.013349275083635991,0.05119005528715219,-0.07115705697589257,0.08172899527074104,0.0681421922082672,-0.020484241782832296,0.06781799651644194,-0.06523661073789923,-0.05818240513403312,0.07472884551532982,0.07014629423249315,-0.04589732440155875,0.011472021261556838,-0.056533380723638914,0.07877331111380266,0.039107616761951104,-0.039747610854617824,0.07320834742215733,-0.06524529088305539,0.05063793214468202,0.06429003523464862,0.038051580446690096,0.055206956963042106,-0.07329854819173039,-0.03685098303508136,0.0040122505169424,-0.052066051687716795,0.012162848742215873,-0.007232563021949605,0.06679652212216139,0.0037654845544231224,0.061012026223672806,-0.0528972095461881,-0.03958262759078973,-0.042185169590551415,-0.013229345903487464,0.05380044859708084,-0.032951087091549425],[-0.04792298816951083,0.02186935567862914,0.03534867405352982,-0.057111102907567934,0.014343700559935267,0.016391856917345477,-0.05209542392891696,-0.06856630544175106,0.0522942200165227,0.059211240790831926,0.0036286468563460315,0.05344631015272215,0.07394025243714623,-0.06175406983513964,0.03133175248341941,-0.08006982469931818,0.03967803369900798,0.0621156772006031,0.07780032959918878,0.00982808968691449,0.06593861015806546,0.06753981248521644,-0.04859388135448912,0.015363020912177774,-0.052849072723921205,-0.001443392242336042,0.06586475557467453,-0.03520883223835603,0.022855309049555617,0.01931095736127896,0.006790397824970395,-0.07310770814589987,0.0010638162455944484,-0.07116231475300502,-0.06661332267570184,-0.04407817545885168,0.039628379314461316,-0.014371629327510056,-0.018563039850365472,0.05015477915463672,0.05168552389370935,0.0585717125845536,0.07590482060060329,-0.04173267754151039,0.04684652336958338,0.011721113952628856,0.06809199756321506,0.021328391553564377,0.003106889890871265,-0.0012573907251317033,-0.07534856122244177,-0.016630832883282806,-0.051392795412969455,-0.006300835941419473,-0.05094144588161414,0.06148237234485649,0.03403608268501397,0.05051659165444324,0.0430128161962431,0.020058323015048545,-0.04516793329884393,0.07022774549197049,0.01913306148047551,-0.07954004298667906],[0.03237542471717876,-0.026544767181441612,-0.05468534793404306,-0.06501209344170902,-0.030684809691839926,0.014557482479195331,-0.04026741481499209,-0.02510121012517423,-0.011275578759256494,0.058681536935992484,0.019881456456557943,-0.05613587210195458,-0.06833687758219491,-0.008313980716565264,0.05493012594411083,-0.025085358490554207,0.022584429160978414,0.021402169649592708,0.0022340453318958997,0.0008142732172252505,-0.018977221779704675,-0.054743345123452074,-0.01854048425027638,0.06276644777820775,0.023741358243908654,0.007707263374256311,-0.057593424860167004,-0.04142959072322871,-0.04565861216679062,-0.02623800234653498,0.07255386897559814,-0.07813781320235337,-0.01919565507418555,-0.0302869018816154,0.0051990336377926785,-0.07174862869074758,-0.06527942013675755,0.01436916062637649,0.05492261701569579,0.03626371522958494,-0.060090314983376046,-0.008692827916148546,-0.020257651604969597,0.04824300690868941,0.01901377779974601,0.07831612723186962,0.06598381521104277,-0.006066296791441452,0.000024788097817254507,-0.05914870557487606,0.04710208994376116,-0.04615938874934358,-0.06918085604545869,-0.03619658659809602,-0.04025496431110669,-0.025739723253782095,0.023500014060456847,0.020153786257963952,-0.07356222154967636,-0.0645186104018126,-0.033253826393749825,0.07152518712936998,-0.0652385355304168,0.05589418729127114],[-0.055207730564670876,-0.03489356278204707,-0.05707029535359791,-0.05398102077085609,0.04580811794532778,0.007051549268375877,0.05607972123633958,0.06448207183151146,-0.059179103989074236,0.059693261668626256,0.03684573351692629,-0.026263793257029086,-0.012965425511696093,0.06012093196319268,0.029003126947213496,0.006165142064624607,0.06610149209492482,0.03405423722278514,-0.021467116006221598,-0.05567045273637703,-0.029771824423714205,0.004373864060731614,-0.028687643212888615,-0.07592891811909634,-0.03125706199570906,-0.008689936735112931,0.053634944864418346,0.011137497818111622,0.028755696508430437,-0.011423911925217712,-0.01269098670687763,-0.05284069903410149,-0.07238244271537393,-0.07302071686377754,0.07389124369024011,-0.0681025068183075,-0.0031923266869759376,0.050851939011199,0.06708790700554172,0.02692771109138753,-0.05700586817222637,0.05115792095317706,0.058590578817505096,-0.06334889497131357,-0.05803684178384107,0.0010622102234932368,-0.0508315772296341,0.019361047818636953,0.03482147514125497,0.031433912917104484,0.06396302165862017,-0.05931545094729888,-0.027934902497373227,0.056139263828625226,-0.07533954498955746,0.05223613268773064,-0.03301759142096816,-0.013682551467991251,-0.06153448376850573,-0.07274301344479192,-0.060817880952985605,0.07824510988461476,0.020232553776877004,0.05310745859225963],[0.05391025692605471,-0.04509388877150421,0.061684721251092055,-0.0603201224264389,0.029094309072613747,-0.02328092351436168,-0.030674840288376897,0.039299559709767784,0.007112487923276794,0.01907917916912118,0.07741208037368416,0.012614833063387553,-0.055631003641140445,0.07307458871791302,-0.04259144516356673,0.07162157891749746,0.037825411458412644,-0.0002660799214214309,-0.0732617749355224,-0.020539933631012742,-0.06882097504133151,0.0028300852741093164,-0.05930931264620228,0.03229316481966175,0.06638783012494058,-0.06986483434390077,0.027962103053786016,0.016934116403087524,-0.04079635952010575,0.048104537620398534,0.03267629571293481,0.0118890993666317,0.07349586247704819,0.028823477714546294,0.02929299592791006,0.06948539138831009,0.03872790635663932,0.05014658040981087,0.038504806020126216,-0.05512041517513914,-0.06787389791422377,0.051338484413639536,0.06182652827525104,0.0772856615349937,-0.022774568195908985,0.009924310941818776,-0.008364946880395812,0.07643368889135464,-0.020796974218754753,0.03964239148945677,0.053890211825261415,-0.02428428438331827,0.001750337605515425,-0.071054076939744,-0.036104928432542455,-0.03680669902345092,-0.014113053607841377,-0.04888465197108412,0.07082415616063857,0.030953266383519643,-0.0762030012301739,-0.04026952136590477,-0.07206187534588908,-0.07603027485953197],[0.004415353663259593,0.027834683207735612,0.031080713115323903,-0.07584540139262382,0.0190353256222616,-0.005860880000360881,-0.044002226094851014,0.004906444831096065,0.033022344062084236,0.05725685538154753,0.04614812315029475,0.02678625746242994,0.059945973750931116,0.06758268251860636,0.05406708137418216,0.05558183353458027,0.0027574857024799285,-0.025254018917467487,-0.07124737998715427,-0.05833343123964741,0.034871540314654226,-0.013271035734950075,-0.042723248771367364,0.03874153060324253,-0.06058288613669762,-0.013325749143172664,-0.0007006730004645477,0.05761782414275782,0.03223114228344919,-0.05929127448581128,0.06976588559259737,0.04432220763291611,-0.0759970385671359,0.009359003800301375,-0.025258115359081214,0.06327344301623206,0.009106529730107745,0.016112861925657272,-0.013755043837702886,0.027797224484175206,-0.07841536742160139,-0.010347663458954088,0.001564623445638549,-0.06630572544339103,-0.07399505667649245,0.014580727154244142,-0.003603988583342509,-0.04102973215980812,0.0033086931143641407,-0.02063877712091363,0.03851816521862172,0.0627476174948679,0.0666233128303072,0.07144637490810023,0.04331219410379447,0.024902005658419574,0.004577892479422303,0.07304515267371839,-0.05594351623456747,-0.033001485727273454,-0.042062615525768544,-0.051352795143525656,0.024887976420938828,0.037208562397372906],[-0.035288219573118076,0.03572677895797453,-0.04873864316106157,-0.04628885345469865,0.07135824707403295,-0.0002867680052487727,-0.035861643274467996,-0.01522971501561535,-0.0003880453948011529,-0.06171589764407755,-0.06763042719901424,-0.0012662753612718756,0.032432561025887346,0.0005816392904665771,0.0778228013847447,-0.01730663829704608,0.04808279267895451,0.030676011639631254,0.07365262903785251,0.0007650964566017153,-0.010842043571327181,0.05749286954312821,-0.07547899452867744,0.03605389233420045,0.06652465602299416,-0.06632056911826485,-0.005187996180635851,-0.022099994946254028,0.0628590327362517,0.025239328747520037,-0.05727055147683177,0.006723422874198318,-0.022254841088542903,-0.059520987488875104,0.04368600113551359,0.018749880578540365,0.0034127099697792065,-0.005619403212382247,-0.04851134150258154,0.04214211751427411,0.019386133051523636,-0.005593388333959625,-0.06275191191729039,0.05787517556267557,0.03230320398317161,0.028818545261456552,-0.02578619515234024,0.047008424662093734,-0.014431956739143756,0.01493187864998893,-0.043983313023498206,-0.07616694750002045,0.02604657113354389,-0.03423813960536939,0.0026479863355794962,0.043669451599682385,0.06725267542688676,0.0468012481973231,-0.04381717955164514,-0.043431680241292785,-0.000590588768245844,-0.06761523620716155,-0.010653034406877334,-0.0421174421556769],[0.032968892028675166,-0.03707221297493762,0.033042103810389134,-0.024800195318575857,0.00010463343808282657,-0.0707362432006969,0.07135623528913557,-0.027081080185318088,0.074994340228214,-0.07401489851251089,0.06803810034847968,-0.07878047292319473,-0.037977705094387096,-0.06874753210934502,-0.047620704191729556,0.00007955535736808927,0.0580675311083949,-0.03438045748760249,0.07592168962725632,0.03269516847241643,-0.037676832904210596,0.025444735819205533,0.04328945415009195,0.0246802534132128,-0.016729177526615423,0.06707470613050473,0.017777873040213582,-0.0335117890333073,-0.0008160205866900204,0.026629097565153685,0.052194986153300184,-0.06099800892177866,0.06482938408553386,-0.01984306837335539,-0.019848546844670665,0.02301429170017475,-0.04473380082953599,0.06997414263632694,-0.019376537390047226,0.047103190908822694,-0.04962408639160441,-0.03624032424347886,-0.056689763459042135,-0.025326892587802602,-0.050647720572648235,0.042315752110829774,0.03149108821003312,0.007987569080263608,0.0035106298496450942,0.02405776295957817,0.004835894956240531,-0.007515190641284924,0.03438175302539159,0.0023210619257029476,-0.07062350305640476,0.07314072901615415,-0.07677770980602754,0.027379618330258523,0.011937534802679884,-0.06885934033187588,0.04425900708899438,0.0018137173703000914,-0.053481265967941775,-0.037402661703302566],[-0.023455580468935245,0.014791844285934547,0.0032591585321047295,0.020236553272663577,0.04750742033360093,0.02477823930333397,-0.06349438612588348,-0.0015180047001322704,0.039655772885282936,0.011566300936254076,-0.02052800691018393,0.07572236292383669,-0.018765747315112897,0.051451621856147545,0.03135408129868078,-0.03715917073015827,0.01503218200402978,-0.06242241355034325,0.040907964847599544,0.006545060260064999,-0.028395007876192507,-0.037077430689624845,0.015452249691081013,0.054648224820187406,-0.07785146655430707,0.06635829469727687,-0.07622860212313386,-0.01146368333777189,-0.07798836485550159,-0.0515949960264571,-0.02698641596931771,0.05207652087973604,0.052649619535579104,0.04274728006763116,0.02160094390792513,0.019830200686367188,0.03617210102870806,0.012935423237631865,0.04039393342117517,-0.03988608704223646,-0.028648138415552336,0.00337695052980815,0.019099684691935973,-0.01025622827954021,0.02866956775181223,-0.026494017435153203,-0.06081920095136407,-0.06146370104656741,0.014614996850712039,-0.02693653228705274,-0.056042931703523376,-0.04905771370411765,0.047068959597862704,0.021018519896727324,0.006546830122494903,0.07017279229459991,-0.019085188247089067,-0.041021610943872744,-0.037369373605045615,-0.04438023792957934,0.029255963266670734,-0.0644122250103978,0.040418342800468035,-0.03226825713400808],[0.07793773258794387,0.002121525095578688,0.007636570751287584,0.006549689339522262,0.004122232026052413,-0.0028209024354624843,0.07052655954242686,-0.02606490546347786,-0.06911125127620009,-0.016674609546108783,0.009887179907308523,0.00020554033605246926,0.06729931086893925,-0.005671831395865212,0.05542319767770571,-0.03121130057857152,0.042367886549443554,-0.00023423726501375482,0.05821180954488414,-0.0585746440267022,-0.03780990814148229,-0.018505593343064876,-0.07090447388859566,0.04210971959981052,0.004290577094124148,-0.06164139337731148,-0.0035116007010365796,-0.0625891912521897,0.056209620427684105,-0.0314986542843017,0.0651051055341818,-0.029093870153577214,-0.06437224859824085,-0.04837756154041709,-0.03268858358281932,-0.04722462135603137,-0.0779697610388254,-0.043761168181713446,0.05372102570937351,-0.0006698072810841654,0.042352176159611024,0.06313036729305192,-0.044064714095067195,0.0033303026193185104,0.06656734761300273,-0.006511855664770085,0.07724035275386945,-0.03829859012050701,-0.07046325752217356,0.011384429058424761,0.020976374796963574,0.01910089652043519,-0.010062637031371198,-0.0017674892585460406,0.015622945262361725,-0.0554748808045757,-0.020100480358386505,0.04657368058182541,0.010474930176774122,-0.03847462582934085,-0.000447453401940439,0.076688835109739,0.048096555846967,0.033253519129175874],[0.006076943722627552,-0.00149486550950744,0.03921490038737067,-0.07307366329253517,0.029034038798918433,-0.04916467313548896,0.04087309155186599,-0.06299635988652344,-0.015739610144193363,0.07737136960756208,0.02107926779064768,0.06391100154781545,-0.03994638515505445,-0.057271277452564974,0.008537639834173183,-0.018436629495744667,-0.01734481866391041,0.03160854921924687,-0.06379262094687248,-0.07630568229930618,-0.03417686764674318,-0.06308413838238235,0.06520519314824258,0.00856131654058157,-0.051221135129722956,0.024127557018230824,-0.05758372436828748,0.02109700258384201,-0.002898324183369711,0.0641523710646218,-0.03902921593173674,0.04297081411112909,0.06792762096680192,-0.02192302020503141,-0.05361654055690356,0.07180988786232946,-0.03254895267475418,-0.06674627700561044,-0.03235668701743219,0.04652584675161568,-0.04472279352435809,0.07801224819926333,0.005924356529907325,0.024276210826061892,-0.061761812535227986,-0.07590716569005856,-0.07106274262189789,0.02341079203583175,-0.02189744972651367,0.05822487317116056,-0.05028215882149403,-0.07210675576269915,0.04289516746103631,-0.03986778846375035,-0.05099680558116739,-0.03672276725210166,-0.06840988743711113,0.019732648992375743,-0.01748748447407477,-0.015062072772321062,-0.018869270323788895,-0.019350495175313547,-0.07041199087774914,0.06330416886887313],[-0.053454242089598834,-0.0003228985665109026,0.037865702597306664,-0.0360789241760203,-0.004985539539610239,-0.05967425191859814,0.06935875791524147,0.00013838682444200994,-0.0010757856544310281,-0.05068932819274878,-0.025531784307437674,-0.0621534224489065,0.06141401529505868,0.02823398057575381,-0.013028744603294212,-0.05779933719888885,0.07079922372730074,-0.06030946535134287,0.023342322208618677,-0.057629259789853546,0.0063672500245043825,0.047421009078971905,-0.07812921587834021,0.004623409483446602,-0.03712439343715397,0.04396394282050569,0.01642406404877346,-0.05790339702368691,-0.03744701594075006,-0.01433543400749818,0.026465830477722965,0.025013732241932443,0.0426301830207546,-0.02792062152312584,0.004747573364501617,0.032761739339481885,0.06254527750861716,0.039872557211146374,0.05895198786011438,0.030758580216374686,-0.027142883575185153,-0.05467091103413773,-0.024916655582976645,0.023245685330923214,-0.06681338983780892,-0.023812506312643374,0.0004977124743837689,-0.04027605615112366,0.04145078956859644,-0.004583985072746144,0.0157342354882983,-0.011084460517288385,-0.04462475131179054,-0.063749557109396,0.059803377661932736,-0.009226655607113741,-0.05538606016515731,-0.05950127062404629,0.012413861336045119,-0.019588603404351628,-0.027278365380526613,0.05553371981011023,-0.020449582870993653,-0.06888481902168704],[-0.027006704844630067,-0.04660806352548389,-0.062013325669560984,-0.04161788993485,-0.009654285377530712,-0.05441995598902327,0.034752466426798134,-0.03893721879225002,-0.006177168823348223,0.07144793438058407,-0.005391030598479207,-0.06187922856677481,0.015801113211133977,-0.05467967750589918,-0.016108074425807313,-0.035664179500781205,-0.0132701413306728,0.03144964069372566,-0.012604660172150913,-0.055146439424134865,0.030471590887167537,0.014085355249499235,-0.0203452872285721,0.05048739145892858,-0.07177629578871485,-0.02470213166611195,0.05659046012814115,0.01668892169500285,-0.04542608632704007,-0.0007752067113362691,0.07632075236290901,-0.006680518038561595,0.06436622417354433,-0.009489030630627941,0.005899447189009376,-0.010790245427253603,-0.0663956058540712,0.03193716578582427,0.03453901464979305,0.022038875682661503,-0.07534083264435078,0.03773808465815628,-0.047454892339525226,-0.05230830848837796,-0.004197676508332252,-0.07598928596760617,0.046572343299259515,0.0771585727582185,0.016445563091047513,0.02392137039859144,0.016335931999081208,-0.014380969494888346,-0.00919983960102253,0.03883012478321821,-0.006633798732327257,0.0056596095067968704,-0.0655043155166519,-0.07037376410528898,0.05307185872457357,0.03025619853694244,0.0006962126478740913,0.02064590107902121,-0.06485590985423112,-0.05434431340030317],[-0.06666217888755559,0.02646408417341652,-0.00820229202689317,-0.0438552298390359,-0.01901998253925097,-0.001944209248090094,0.04103749436259088,-0.004020267710188212,0.030008027447873103,-0.0014410152474223596,-0.07305252460576085,0.02187385222286005,0.06834962798216535,0.060105596946600864,0.025820536196797538,-0.048014732938816806,-0.050499813127511735,0.04248687742365377,0.01930355022930174,0.04259359923742361,0.06205541245563903,0.06151102605210871,0.0023154445538997722,-0.020093328743747998,0.0016974037483226917,0.04110754334582318,0.023189818444646414,0.07140942626081831,-0.07289952779534756,0.07476099771623228,0.03371742392238552,-0.05515254813013559,-0.038622378462756096,-0.06862041512257375,-0.03926467513139392,0.06669185377549683,0.07388326377563678,-0.06880549249523406,-0.04428639227927039,0.056053992180587896,-0.02165743449397176,0.005280899447293675,0.0120775490448983,-0.02454359206849562,0.06681272517514242,0.07450445914443028,0.06198262819121749,-0.0035480331496693476,-0.04609581412610278,-0.06871400292327041,-0.03142957427074694,0.06023517453357631,0.020309401637775316,-0.06423814647042128,-0.022125558427477723,0.03283066418312304,0.0498388434273621,-0.029777707709357792,-0.06431002877608519,-0.03431062540115299,0.022684621549099324,-0.06289402890925977,0.062499324297093255,-0.048524071243516397],[-0.06329958338066585,-0.06875934094298902,0.03760471113558551,-0.07331433676117059,-0.040096945975846926,0.06766341616287345,-0.02643249254326806,0.06414073067809468,-0.051874735451231044,0.057085081373897506,0.03674219743798374,0.016504638208308324,0.06502913545975267,-0.0072574520075266696,-0.06975266984747568,-0.051353147572340725,-0.03734849176310283,0.0025715968953042303,-0.0394262768621424,0.043312927577189096,0.06122972078205553,0.06631562931692588,0.07759158639173998,-0.06503681947693102,0.007249733691662422,-0.0471079859979325,-0.03839715586490502,0.00750763498986896,-0.052873583554421164,-0.05330448322525872,-0.005177471541625599,-0.020583151335142425,0.016148695990536244,0.017050156491299213,-0.05950906901832763,-0.07793783922871333,-0.003458279286588234,0.05994274103647193,-0.07431554903568272,-0.019527435410910655,0.02326254509731171,0.04296809315549499,-0.020217404333545387,-0.0658218350511184,0.025910986432613,-0.0026976922856342474,-0.06668839657466816,-0.011937451459803145,-0.04506793428829611,-0.05545742196247886,-0.03250721562028093,0.05925232241500807,0.03428636231683671,0.06332678589102801,0.05038644698921936,0.03676253329792645,-0.006116672573387011,0.04233303539511854,-0.0558545480675014,-0.008961827657782863,-0.04474942680283097,-0.039018558067801835,0.03866236721124706,-0.036349601483969776],[0.044943987227385955,0.026336533724785012,-0.04781990335797981,-0.036449764387032985,0.02106785235599055,0.009806358105251932,-0.02684506316544264,-0.04269347092953064,-0.0745248708273428,-0.05479246723405408,-0.05781724010731753,0.07677193103878548,0.007762614186435976,-0.0017092970494591497,0.04067455673386241,-0.010896421452949851,0.07630903197203118,-0.06455338865161292,-0.021330299269499624,0.0038990223290500843,0.021612386498212687,0.05790934397756006,0.044110724240968374,-0.020055612443320832,0.03441545500565716,0.0497593255436968,-0.06965174037295922,-0.02541329051281256,0.06317981001121727,-0.04783959213572623,-0.06242744929750495,-0.03701041303214706,0.02484450199202314,-0.06965169514856408,-0.00734389233329368,0.05106406107500095,0.03210151082513845,0.023949245344799704,-0.05522168417590765,0.04696528738141517,-0.03138974895972211,0.03512363412249758,-0.010493390376420922,-0.0264199205442746,-0.055032022993146065,0.036792940451864625,-0.07028410597519977,-0.059534265540246295,-0.05402663132531375,-0.022846051401314408,-0.007547326794715626,0.06549992253536208,-0.022042785833283965,0.03286200267104028,0.04703115176266591,0.036283536831908526,-0.020478925366982922,0.01582881446619409,-0.07025037774409768,-0.0767045745236615,0.01186842838135215,-0.017218601278807685,0.008530312145618524,0.011845743837812249],[0.030029566366207388,0.06119930152346159,0.0176180498106875,0.013767047699713174,-0.035816205879098145,0.006322049079182065,0.012905163944084952,0.03761988788547388,0.02256102631896181,0.015952709904104242,0.05384469258089805,0.02550975254283118,0.03582282301834808,0.01226791307430901,-0.025620292250534363,-0.0064363652744889215,-0.021585589376147983,-0.03723795683481757,0.023245838668940047,-0.02911980274444409,0.04191196116037037,0.005886320276591745,0.0071209187567122635,0.033967474495788505,-0.026572847763208646,-0.03781430671570677,0.030798733801121962,0.01230839763372106,0.07099262122970273,0.05439165773067752,0.041058281495384555,-0.044099207720601295,0.05374266983388983,-0.07559685990957,0.04363434768529584,0.004861522639030366,-0.0138442126636436,0.06401926813829657,-0.05528115575499658,0.001861327332548472,-0.07618720474169029,0.067349642110195,0.029366116594874814,0.019114369222129512,0.014316197961371778,-0.04829996568100637,0.03297231076670152,-0.05710813602048735,-0.07580414479920658,0.0041218332042507674,0.033612922122399636,0.061199525912531104,0.04801368900981515,0.0025056758581744683,0.07891395027920012,0.07777682689873792,0.05853542159014722,0.00975684348411056,0.04422839113642901,0.018451141490667844,-0.07468308802138428,-0.07260818784592349,-0.006443871146006458,-0.05268860632375013],[-0.005987625685580714,-0.017108290144433744,-0.039821658052879176,-0.06986778792989742,-0.02593640461617358,-0.039565387656261865,0.06884045878177736,-0.03816587265251309,-0.05768916602604407,-0.07603702327967045,0.054472184234662886,0.005824312598462586,-0.06428397255291361,-0.035642090649525074,-0.035135246061897725,-0.04466085813574099,-0.002818870339248598,-0.014119252288928241,0.041441152280137054,-0.007030037628129431,0.060784111384256864,0.01647149133122078,-0.003086106998678615,0.0708111136725789,0.020246273635798607,0.014094445903817211,0.06450552224263488,0.05706288586935281,-0.024858865618770227,0.06810976985977986,0.05844124509038997,0.05621719030785461,0.03692243359843292,-0.021443795785914824,-0.02840340366438463,0.06303632781723839,0.0019729292964269776,-0.03118407896046334,-0.04858326493139423,0.06965624733754575,-0.03996117914814804,-0.016187975435549194,0.07510162218777264,-0.000021527238658400072,0.07426756699613683,-0.0054689539169923765,-0.02847789037594766,-0.031816596885007195,-0.040962397795797384,0.01514175463848755,0.020240220610660668,-0.07389913856555204,-0.017843675544027153,-0.026940719860621014,0.027311583005876442,-0.038262619821659495,-0.05466685718039065,-0.034887555136715986,-0.01854476575264648,-0.020449242751633453,0.07404540353194379,0.022593606275294022,-0.0618396991531556,0.03937051917635947],[0.03535930716721928,-0.012848634078736185,0.040102406436655906,0.042946499899857354,0.03972519753037048,0.07311671119354175,0.07121049560191961,0.03273225647839957,0.0522545092504172,0.06154113221467692,-0.0036892546970149465,-0.05966555837740255,-0.006595662529133926,0.015633323761311938,-0.035323008701341696,-0.0069503305290491,-0.05003777899701703,0.05756871499377266,0.018893592399378836,-0.00048430366568257325,-0.06829823178229438,0.03914077720712666,0.07143029489353735,0.023844598378383555,0.07746923845294794,0.06465811876366698,0.028314002293708368,-0.06573941349340162,0.01936242949880763,0.0756229403923847,0.06254609540953349,0.023753703324787188,0.06736097830093273,0.04192265754828447,0.008927907965226117,-0.02771616813024975,-0.03185564183347901,0.028316789277683913,-0.014076113355973797,-0.04331708453153728,0.03073954092964627,0.020571331778702046,0.03371345390198964,-0.023781218335477985,-0.00783989589401905,0.03354582660828391,0.03553517339862904,0.0596214853762873,0.06453045720790022,0.060367474240019016,-0.0015834962919824096,0.0085119141767833,-0.0029565322816813818,-0.07494451971752022,0.021302838196689947,0.01086601964399904,0.0008446815299113786,0.04978401427895542,-0.050525573477197334,0.016749054820239376,-0.07538670700251374,0.0737182453430786,-0.03649135501841052,-0.07596942360658464],[-0.06742945413761085,0.05617293620511217,-0.046030519566970525,-0.023724914366664563,-0.01595093210683174,-0.02888412230338362,-0.0006187137674786202,-0.014158132555445574,-0.03406753461207111,-0.004646182802340903,-0.06978677242268493,-0.007283826063024642,0.03292400071448517,-0.03838952328133752,-0.02851704527954187,-0.05035766814956568,-0.03354673022590362,0.030360806014183825,-0.050406692463949,-0.022754760110462888,-0.04536284754152535,0.0785965906518321,0.01481106835958566,0.02252706296177716,-0.03714920872248542,-0.018747620666676002,-0.024502286110795975,0.030986522599625633,0.07762078115902618,0.015452418338033694,0.010113212962939799,0.047275101892704834,-0.01866766054580649,-0.05389043449055433,-0.003961015362059391,-0.005356931050559543,-0.029192501029721915,0.025851260580155216,0.005535280872989359,0.019304437526661708,-0.039645466575408496,0.00006479102285023608,-0.030289016294072928,-0.05892402203293048,0.03326081724732048,0.05339812643901854,0.06997888815563114,0.01804758135685493,0.04329406017202465,0.06428255969301716,-0.046426848686928666,0.024038444171179917,0.06912735190710903,0.027692551153367783,0.043024538742736575,0.0039912283208630855,0.039237405004237114,-0.06396447984213749,-0.0034642879733149524,0.02447188515662832,0.032999475905567434,-0.05224398732430803,-0.003747767840414742,-0.0628600559094082],[-0.06130478812549695,0.06346934190552446,-0.04698814591584112,0.039943368680717295,-0.025266688973352804,-0.04502975600202408,-0.06040457832585424,-0.01843741728042284,0.07524032719558046,0.042143255897452256,0.05655314813586196,0.027445579817343326,-0.010100157004911571,0.07048199977255577,0.010763594302432795,0.01990851727369772,0.007759962870984448,-0.03869593691502413,0.043926444424686156,-0.07202105286047923,0.06678937955349018,-0.028650283026397494,-0.034668122214034355,0.014181427388843886,-0.04779318841024128,0.02343044747001731,-0.04273907937569112,-0.07479299001322559,-0.018155138543548457,-0.06825298458518499,-0.05509425872565383,0.0685052982985921,-0.06529647282569347,-0.0008864983736899507,0.0030772658016538926,0.016266763538810226,0.027541123478689183,-0.05507867598380557,-0.042883704790655904,-0.03562345867273351,-0.027995717373686488,0.0004430671358024098,0.03420645059386986,0.01542517741081141,-0.022302988312752344,-0.07737728691341565,0.06410964183771743,-0.04360696176185044,-0.07347816062291619,0.015731410876173517,-0.06664195218034173,-0.05522771958075986,0.004376008726236618,-0.051595644701317826,0.06294535286873723,0.037203159942453115,-0.06089826623427437,-0.02199687627104239,-0.012353152858588248,0.012646735715494179,-0.0648096681542063,-0.03220259134001631,0.010834686707043762,-0.009121486899907476],[0.011318935346149486,0.07211682218155166,0.03841000234918977,0.03522421313877909,0.03446842816191312,-0.006153667729387066,0.025653740782542216,-0.032892067924868235,-0.026503245772327193,0.05098475710916265,0.04747430631247374,0.07627644489279393,0.07210678060548963,0.001907955053518819,0.04798743717269364,-0.04996729431933515,0.002037011900760668,-0.07142875023801394,0.06799831887413374,-0.06634178983199368,-0.007972997844468872,0.03611234826650739,-0.051431810602227714,0.07529251096500765,-0.028498277246366624,0.030395304032281866,0.06567466312631863,0.006718851250439927,0.04604206118130411,0.006177896445558988,0.02914709585289497,-0.05780141276484328,0.058572724523461454,0.006160265296206361,-0.0004676263306162315,-0.0631273392788707,0.02562115490397905,-0.06836836719918497,-0.060603519927516336,0.013270500081486674,-0.0341346882948247,0.07560469220293774,-0.014518971419213674,-0.07870037038561692,-0.012006473345520482,0.04844423442184131,-0.03811648400948495,-0.0493746917145072,-0.0644980364960785,0.06612823044280082,-0.009009042911654476,0.01134311968051072,-0.026640019704350645,0.05019731050230953,-0.053060199800249376,-0.028330426951534125,0.00646475664216651,0.0644026785501646,-0.07872795914529133,-0.02172894758015054,0.03877242343378128,0.049969384657833224,-0.026574182218488934,0.05434555026146299],[0.07250045528476824,0.03668428800596753,-0.050699051089244336,-0.05372149036152028,-0.061681598638445606,0.06494753540857202,-0.017151833062315415,0.0118333476393742,0.03267310974409895,-0.07228118321735529,0.02467571565428213,-0.006115311432858722,0.06081059662267952,-0.015689919774106928,-0.07625033266192574,-0.07244895669871919,-0.06533817468330036,-0.012248388407379495,0.07055177146601964,0.03496570947143293,0.06198376192503408,-0.007791151902200618,0.022130856130506863,0.016601902436994893,0.0786906905005985,0.049430968071619064,0.06395446699869156,0.00467836472134678,0.023314754711802776,-0.04109225884741661,0.054097570658921894,-0.041381525500971475,0.02522247821463639,0.07604261038198332,-0.037395735952890204,-0.037282575047592637,-0.003254247769613219,-0.0772119878165562,0.07335775099160222,-0.024580447883126157,0.04888061362162019,-0.02279639386301381,0.04549021274434717,0.04047041944630727,-0.019558628381627863,0.058414306945241315,0.013833627202852913,-0.0016834128285659806,0.02909470120132224,-0.02242201406558426,0.0708193646504768,0.0053011506559452965,0.006841218998377328,0.05324186912394684,-0.03503282164568895,0.013587121422621192,0.0664228835038261,-0.03625382089879388,-0.037852825614346726,-0.04460169113730612,0.052720950626835364,0.03639210903907653,-0.07261578722112019,-0.02880556232130598],[0.06581150212733296,0.04800839277304301,0.01250689605138343,0.03564150583428214,-0.056402750185004985,-0.02191931368235355,0.047199914829813706,0.02247165389023268,-0.045790936074339796,-0.0017012153886379572,-0.060020693960808565,-0.0618019408527966,0.011474434999063945,0.048335738448428915,0.060199236255406685,0.0459682039274963,-0.05860917713644606,0.02100445657788821,0.00870476579596904,0.023001962756951544,0.007471437083078071,0.07397608475408536,0.043139100001200345,0.0396070359648306,-0.008402232233908036,0.045943341333737724,0.04153959840066363,0.07481640470473058,0.03089706044482688,-0.0023413338317734363,-0.03675668085399031,-0.013609622494060737,0.00038301614069998716,0.07065340772859037,0.028595282550195972,-0.07803031051276176,-0.060814234382215615,-0.047799363334254275,-0.062017903855162045,0.05739593587724886,-0.059218637615252236,0.047033505493017165,0.025855292623158263,0.014990835712193241,-0.0740212009460534,-0.0032519824761640505,0.01904663624621896,-0.04395885214560661,0.00294825786378595,0.04016120327523732,0.023732479106512123,0.05497227100242348,0.040014764936015315,-0.011504973377295311,0.05802078627384553,-0.01728819716770086,-0.05741671794034948,-0.0028692550275774744,0.06873509779940241,-0.014684780804277186,-0.04266273721796701,-0.02906015120463533,0.006757453001572678,-0.022254371717618987],[0.03662084117383675,0.02450879477100508,-0.05842037669922536,-0.07477693891928686,-0.043549929007446066,0.013201339457881297,-0.03814099994930864,-0.01304627103814082,0.07639674146806687,-0.0660008244745366,-0.07657859272743521,-0.050167348887693426,0.022095299822475493,-0.06379013553725188,0.024673787952092525,-0.007864189925933535,0.00951678218263994,0.009152005445856877,-0.03727506658265442,0.07569216942204503,-0.06247776752684122,0.02153827885149743,0.025460970961565785,-0.02900451630025085,-0.03909303717203501,-0.07551484380992263,-0.07515741656315922,0.014364578105407375,0.06000858020904694,0.0267852654505049,-0.06152504798933136,-0.02082831498241323,-0.05442471933287247,-0.020009635698149085,-0.008192134131119987,0.01125687997552317,-0.040901061623524304,0.04525062763783446,-0.023702482710670686,-0.011686093089983016,0.07246383098490822,0.015583184880574348,-0.04615608460329901,0.07309603417814355,0.06678604107189587,0.055515314314191634,0.059966073659483594,0.013725345999822405,-0.05430282738520734,-0.043860013758906996,0.0733643436980819,0.0517939126156329,-0.030615157823233062,0.07210900238465871,0.04160884076055453,-0.033365108730657914,-0.03783749699521237,0.036390703915784445,0.05693757915919263,-0.0018083483832940963,-0.008670898852185624,0.07488517402157625,0.00941193026761676,0.07070892542681032],[-0.037761889708599186,0.048139957914955636,-0.022387004064017033,-0.07442058082340447,0.03982501734569861,0.040513869446643744,0.0066265274435894,-0.011259774566066234,0.01790239789230518,0.006818240432838813,0.037497642310284206,0.026748396929579747,-0.020442405112832518,0.04872425777879701,0.017949010840751706,-0.025270241529936923,0.023938832702802164,0.02174761718439736,0.03752919359523638,0.014716968496130207,-0.052305049972462124,-0.010475811488203436,-0.04622586239784149,0.04367717601035254,-0.021492378137489745,-0.07380589724492474,0.041808382664240376,-0.05186281448670807,-0.02231258506669488,0.07407783872570033,0.07538517621061136,-0.024180667787000513,-0.03231739045685426,0.025486413446374916,-0.07434823165424365,-0.020432835090097145,-0.030394139097235793,0.007648667738504432,0.026129329320527778,0.010656656200135754,0.06412901752933964,-0.03105315782291166,0.02888039055424962,-0.06609869151277349,-0.05919735692736055,0.03532704410504302,0.0022564066578066406,-0.014647187640538928,0.053002678018600154,-0.030706478047124484,-0.054316601430839245,-0.05549321260077349,-0.015158109235815084,-0.03869889259843915,0.005236045655154254,0.05995680604047556,-0.0003281618959135277,-0.05487020493362572,-0.046615575879856715,-0.03767588532594187,0.03270955452857985,0.024915684827343625,0.05677696946433332,0.003598734362601415],[-0.06131374778435844,0.07612382622246695,-0.02274093442654878,0.03753821880353097,-0.0034667000236942875,0.021260537454929604,0.018522369487874064,0.07352910136976384,0.05832609951138677,-0.03103716745564785,-0.022847659881500032,-0.020234688248357117,-0.03708388998973098,-0.037569619867368516,0.06784642892617783,0.021606174050081778,-0.0010546880497477253,-0.003763617177495539,-0.05942666162552963,0.05385075824766704,0.033170652873747854,-0.000494201711189301,-0.02466899758034948,-0.048713384461265115,-0.007692573262532911,0.06692421224840958,0.03129107525835445,-0.05223360494063509,-0.0418004808244303,0.0030245568647899275,-0.03688155955020817,0.06392776272286108,0.01988416834268418,0.01558959394950286,0.010740583404301143,-0.004927175534352848,-0.06888674966626836,0.02345783228348236,0.04800858037455903,0.050104127807958754,0.029684254028650003,0.0679792076766023,-0.03259244436736785,0.07240920194654502,-0.038664460873935436,0.054608351795798545,-0.05513417686272373,0.05911628770011401,-0.003777701840872837,0.045743464657520674,0.04379004725460755,-0.010477279705383232,-0.011468510761313526,-0.04804911993034495,0.05882930833515468,-0.004842498722082306,0.0559125861633226,0.06566865094335353,-0.0609454001399987,0.017519276569010502,0.028372143023398563,0.07418811444746061,0.038331310203336404,-0.07865840766027757],[-0.07740645655189769,0.05983021412611927,0.02451449453645927,0.04992154864484771,-0.05276254891745552,0.0346359332007393,0.06288897957879945,-0.01221225873164455,-0.031857378666389664,0.04592995858823108,-0.04945713208417926,-0.0639309616739337,0.006690151516915855,0.039999089755026286,-0.0566107622012876,-0.05577760835118812,0.045857332540260524,-0.02556479759282834,-0.05838375400585775,0.05413725576248123,0.06147903727189663,0.020995439811313393,0.020550806003948888,0.07556029154823617,0.01463327266505479,-0.038085396233060315,0.03508306387942237,-0.022662447455925938,-0.07672789233722106,0.05188627388938078,0.026907069987090592,0.0037973603812896917,0.07377089319392643,0.07118534281878226,-0.0013873265899137029,0.003473410023914685,-0.01658183763480498,-0.0509503378794222,-0.07031697103662343,-0.019386032390827007,-0.0447852943131668,0.018214929482023627,-0.06462832853625644,0.06372014746094802,0.017719014758730965,-0.0697195221902217,-0.004071760961070955,-0.05908787157555265,-0.006293351473728897,0.001503741843042361,-0.035317482207064155,0.054321773605259145,-0.004901233338952311,0.019325612172268407,0.04529706383825518,0.06846855989405191,-0.007796791743936882,-0.02257061414151905,-0.018670028479291764,0.05896076073398702,0.061631226532682104,-0.008620138654187884,-0.06666843442256769,0.07088749792597243],[-0.03472073864398228,0.045191557835493376,0.011400953669111627,-0.03850092616777716,0.007110143312512677,0.048343584500000654,-0.00333952397073478,0.07096415572520207,-0.023166869652621165,-0.018336977262178766,-0.03131537857013081,0.019072577691322683,0.057949321297305394,0.0176446762144452,0.034801790573183056,-0.06725473445355969,-0.07500291045110868,0.015694182242509708,0.051676434061226455,-0.04133461515953145,0.0063526517358717,-0.01754196240786915,0.05229439257866758,-0.004610107235706394,0.07663932880863224,-0.06586350741366746,-0.006059881583500846,0.07139405155200182,-0.03463943521644241,0.03406911689042452,0.018524381859399048,-0.03908853703274273,0.03646360411754587,-0.015768592950399847,-0.058896012000985834,0.027941466799976746,-0.06546620674299823,-0.005823866720777788,-0.05061568925567416,0.038865796022829545,0.049381976750178226,-0.051134495140163126,-0.05707075917989858,0.04820564087135992,-0.05515927742996588,-0.04168800248647506,-0.07851456182369963,-0.0632751033690726,0.04739806600770743,-0.05496817521024735,0.011194569664833962,-0.030197314056225662,-0.010318574535619013,0.06001532444910737,-0.057161096224140846,0.014843973260030657,0.033394965307085404,-0.001844616548263113,0.07807951609883054,-0.06253313777087934,0.06851755458539738,0.05424213127385029,0.05867499391475043,0.07039947750957029],[0.02094303845822207,0.05424755099166008,0.02765361256680552,0.0710703250725693,-0.021056704273028373,-0.05189951726972136,-0.011398593388103239,-0.015968334009308947,0.0015820826720125184,0.041851491705960565,-0.0755545897495062,0.05357568439640555,0.029144671106674853,0.04144125176844433,0.012466250998558127,0.07285233450963449,0.07136136433180253,-0.06406356078092759,-0.0016655483111619373,0.03296104690102115,-0.07261535044919674,-0.029923738980947003,-0.05976705118231368,0.055270537318894745,-0.055686079031738556,-0.07820872483817266,-0.05432615306641042,-0.0640388951603928,-0.06442500155860295,-0.049157477279622906,0.05801671721928349,0.041549004856046304,-0.04934695726134768,-0.03204927321872242,-0.05988886429609283,0.013354766126352611,-0.019149082980017582,-0.0344165605389598,-0.07591762312742041,0.055397055235965977,0.03574561791909446,0.037914526104540665,-0.053024079074160464,-0.044693356571932887,0.04085209965911706,-0.04802698958093406,0.07605169231322678,-0.06720039107501266,-0.036420917883822096,-0.0556067889164425,0.07517563571521803,0.07387917165608159,0.011458258925953702,0.04548030031050923,-0.06131331577969483,0.008771057016776536,0.00375775535560986,0.016908641569210747,-0.011521020392507485,0.028097744937284265,0.06027786227459175,-0.044229669930007286,-0.025988662801044324,0.0041481194598418595],[0.0290931832042928,-0.07823847259221961,0.010704897222412142,0.03409016161809813,0.00118962833961686,0.029912323058937054,-0.02217259207053927,-0.023592847785760148,-0.0702488322061764,-0.07601492294239366,-0.0035596550526360514,-0.00022923591267854943,-0.05139786004387749,-0.009354960949006551,0.05138409836433797,-0.024632553117905683,-0.031913250194369254,0.043748404397520514,0.07610700872065157,0.06726529116956796,-0.029384707130261735,-0.021555501132718632,0.06030532500683903,0.01606733602818561,0.046585796120242086,-0.04844047679649219,-0.02555579169469565,-0.07069319179228142,-0.05670076274506399,-0.02273114652418148,0.05272658464301175,-0.048629230796184725,0.05499316744887793,0.058226478045265664,0.04340508489004723,0.037860595742723165,-0.06362912136328087,0.07568357626330134,0.044443185469448754,-0.06906471046843853,-0.05956902887566057,-0.02399657830575157,-0.02851166494573147,0.011230582523848273,0.061075085697482885,-0.04216173600909715,0.06880727070034227,0.012019507256279111,-0.06212590119431385,0.03610256669584891,0.00836965329204524,-0.025143892769563803,0.0735494680203188,-0.05263438308790584,-0.04085557223290714,0.0438329245247821,-0.05039052716110324,-0.012105955918772462,-0.07150874209999887,0.010161738814408738,-0.017117645535374804,-0.013030572846429812,0.0009695309025407416,-0.0713247392964604],[0.0677271248315608,-0.05761696535796622,0.07278744789224569,0.05154064236672937,-0.03089091287178923,-0.05988969529278968,0.0660523693586486,-0.043139696294463376,-0.02266824943981697,-0.047981605332035125,0.035949308894483153,-0.0468546614582613,-0.047624196509544255,0.004185266296478679,-0.03623798694269059,-0.01127055881651192,0.057093706020645604,0.06633573882007508,-0.04363060202672852,0.053209619769422886,-0.03353870049781639,-0.06550352709149847,0.07250868050515946,-0.01295985240481622,-0.02977823994148628,-0.027078948514945224,-0.031044946166850045,0.052590401550191866,-0.022510175102590894,0.008214164594679323,-0.03910216411590442,-0.046802753337333934,0.06237827493599302,0.022679454341885345,0.07152280761885893,0.059009630410924656,0.031972500593561846,0.049951759929171016,-0.045405435066791,-0.04046580755101309,0.002737363987219344,-0.0010847594652962408,0.06727146126885551,0.059312091395248595,0.07915048746648448,0.039357503585163996,0.05318876577642365,-0.061778594849492524,0.0236092703694042,0.05838915485500644,0.03678555182853714,-0.06576185344227047,0.029821661914489147,0.019556945015543264,-0.02211839594676238,-0.07510922372408972,-0.029862586200843193,-0.050689223607430514,0.044919730565615254,0.03416810442817946,-0.019133328717294677,-0.06698960377063344,0.02688565405107639,0.07425687688482698],[-0.07730110550509081,0.026034988286847294,-0.018488134928869433,-0.061340089994593845,-0.023411833235844313,-0.04249662759717551,0.01775637619853908,-0.03624473680423742,-0.0557267196996611,0.04447137402508844,-0.07269534990345942,0.012175084676192598,0.005738109155190901,0.030624974325272884,0.007762298030711971,0.03496933264089794,0.022687016066585027,0.04572421862893303,-0.06135762457358285,-0.01732800805835458,-0.009433469288120201,0.05463261592461253,0.011643698813773369,0.027449666461647638,-0.06420110261682509,0.02762928127170415,-0.054922340495971195,-0.026616603048534606,-0.05819830427635244,-0.027583706727834004,-0.023101860452036178,0.010217591885546478,0.06275795430916671,-0.07541580702320719,0.023558079662211226,0.0007721271025285117,-0.02958557404954953,0.06792249685227078,-0.05432072904134955,-0.06526545920340845,-0.0033002196338559374,-0.00016466898634207966,-0.045414864675131686,0.06436983745954243,0.041757116668836886,-0.043506809410050355,0.0059384106980517135,-0.02483985661154003,0.03497560232138157,0.009226656706475597,0.03902452318711206,-0.07202617345178354,-0.0013548184027753986,0.014533236952610221,0.0353199904465013,0.004060778174908448,-0.06919702672471342,0.01405339980465005,-0.022310621975510862,-0.05017566505828127,0.002231212180092324,0.07158964631674862,0.010195901835951681,0.06270412512168254],[-0.06519457630571707,-0.04960816640566058,0.0074478875118888675,0.03760017907257067,0.04827998706017924,-0.023836590328844682,0.03805923440319723,0.010742182846260682,0.004722634506577613,0.027671457889518965,-0.07336654375332652,0.0042714308979703184,0.06512869601576263,0.000221360470208905,-0.06790846637359557,0.06078072932030628,0.018220584938062227,-0.016218606252825136,-0.0007900018572351866,0.04872242838624383,-0.077403491227494,-0.007906671073480543,0.0002677690848865307,-0.01714599639071991,0.03620254319707005,0.07640778576960656,-0.05218394916260549,0.07548054310774076,0.02546041934655417,0.021298498848135096,-0.06141435522667069,-0.0040832920979548635,-0.027665078091341243,-0.021757127664011548,0.004490624551951849,0.006008959762018971,-0.06613636983734633,-0.03819821925148707,-0.03889226374542941,-0.01435941071518345,0.07791415754750514,-0.07527805222848989,0.0495828267038806,-0.016156825896283648,0.07832164831978597,-0.010917777529669367,-0.0018932546864411362,0.021690526893892788,0.03427728080642607,-0.035119860153692374,-0.026540261784502403,-0.054365046865491824,-0.0746496925442177,-0.0641293559690404,0.04015960035626183,0.05526096709377732,0.039263315063229824,0.07819332499621892,-0.060696056388972984,0.03463616023096299,0.07901576647532298,-0.06493037401729106,0.02585466575665032,-0.052226024989753164],[-0.012340850137105367,0.02730757381314615,-0.0070877228183138805,-0.05008801959505164,-0.07535218940546975,-0.03638764883770637,0.05860930094169042,0.04612578040113292,0.017502842246751766,0.07632741217984126,-0.037820846887264725,0.05905207720496273,0.05756831995302491,-0.0058421778864360995,-0.045187059375397555,-0.05882129284619597,0.0351889909120267,0.03592475714040997,0.033799644081865234,-0.016494661680062712,0.006031167371086131,-0.03116007236497334,-0.07366345957862017,-0.021472105797886464,0.03354654945835188,-0.0359069893837502,-0.06852416547812898,0.005359591477615139,-0.038850815677764314,-0.03188452550177699,-0.05016172313682963,-0.02767396092655926,0.05241384784206913,0.026401828503926108,0.04826766943314912,0.008160768026602427,0.03071962747906173,-0.015298899233087002,-0.04843387491559722,-0.002163536676235555,0.056055398077956266,-0.06550419003800734,0.06985707450067735,0.04106353541370601,-0.013452682460968247,-0.01671279381200953,0.0649412721329551,0.02191231099026209,0.014707073374215708,0.02139931038214283,-0.00014123723317565148,0.03787763336807291,0.07580717271196491,0.030179255406873096,-0.05686123284548062,-0.029227669729707962,-0.01606441643787003,-0.061564607760808146,-0.00706944804849705,-0.042910264755123315,0.01329404440669103,0.023916723242176828,-0.049361131713731736,0.03293838698076309],[0.043384483935738745,-0.045337662915476806,0.014733801129103866,0.02786533665943547,0.056400542779344844,0.03341883254192017,0.03469886615760414,-0.03748470553586388,0.03483303967028884,0.03752680045466156,0.04828132468138911,-0.013677375610184029,-0.031165669524876385,-0.06298837584058008,0.038235891611482525,-0.011896757674723537,-0.038667242728367954,-0.00772926793422887,-0.05600930978782906,-0.006892083739579037,-0.05706680173192183,-0.050763275334758634,-0.011144067475994815,0.04908836089369444,-0.02464947034964292,-0.011012573391138014,0.02522282173673081,-0.03869009326475635,0.0207624371130753,-0.01671004093747957,-0.06138170518110297,0.044191569842975335,0.04306981120369678,-0.014290285385593357,0.018515269419402722,-0.056899634258937556,-0.014230351326795662,0.05185314281921189,0.07551270884700374,-0.0500321821009928,-0.07026455106743992,0.05203599976666013,0.02635114309333783,0.039039431110776394,0.0652828344058958,0.056318566431187905,-0.07606955706865293,0.03871026084313481,0.011073297275026536,-0.06269550798259406,0.013625389189173668,-0.0738278568040528,-0.05956636227960077,-0.055112726673188873,-0.020529032317784787,-0.009634024120785257,-0.048713743564900734,0.050949144318902184,0.04146580813164053,-0.018892425292933657,0.04283423395644658,0.03241239840482517,0.038415640319042405,-0.04438391735635137],[0.07767143017910216,-0.020374458218017852,-0.06893339723446099,0.05776537364954339,-0.007625035146411836,0.04501554467192312,0.024709442340207277,-0.014023390173127181,0.002180717595648817,-0.024182985192636616,-0.00800153841889074,0.03531526310596621,-0.017913418076998783,0.0609961188034174,0.05937069004363408,0.028144468357770038,-0.04361754345330926,0.06474598600394092,-0.047212065986870645,-0.05789168695103567,-0.0724667185673446,0.06552408207829609,0.017102627464783367,-0.045974946894480936,-0.07222734949530231,-0.030939248426080857,-0.02462429933207458,-0.02237510605227474,-0.01831706701948961,-0.005187687599969677,-0.024714939851796756,0.04131769492839686,0.017741927409011406,-0.029106771873271858,-0.07808656046733967,-0.05286649703580883,0.04428062703635024,0.05964242484012786,-0.02511858014944158,-0.06250861127051084,-0.04051143782948198,-0.010219314339032753,-0.05845368818607244,-0.0001783987602628356,0.01905141267325949,-0.057633351370481874,-0.07392289697706195,-0.0245613386717496,-0.07761772842185112,0.005669536778918522,0.03448650073792886,-0.02100723958845407,-0.01828351359117304,0.04599123640391702,0.07558163464545054,-0.01563916564325098,0.05152062456393074,0.03798520096455929,-0.02938457849732949,0.07557904806657954,-0.03706318288680764,0.023615185242319363,0.036920767824438705,-0.0420531683728147],[0.02242945961240499,-0.04395817287245432,-0.05603842281965209,-0.00799634122759633,0.042701737644142944,-0.06404980564288536,0.004747592636867869,-0.07432058423080602,-0.07895038986067766,-0.0768394572758378,0.023366977634547877,0.02682131462551214,-0.03571473620247704,-0.0022314508043319433,-0.038894489925856486,0.03607839587155424,-0.04342384533006016,-0.06228286637911656,-0.04548307626479494,-0.00306897591699527,-0.0356627919682877,-0.035815179993349745,-0.0004857302042116132,-0.064258184798285,-0.038336639695672255,0.023255191684798414,-0.044352627141852626,-0.012675807189683062,0.07139160415024869,-0.01781106197809456,-0.05604758334723824,-0.059565221845328704,-0.024899918596625627,-0.013100001461913278,0.05769562274839283,0.006304064795808427,0.05081479389980076,0.07098890474035381,-0.02886978701465138,0.07387006737011843,-0.012259438310422283,0.036065323748684985,0.04735010725965464,0.022038834147372496,-0.05188120750337841,-0.029254641573388765,0.005682812875370669,-0.023743532524517785,0.06698666011208254,-0.04405630955297363,-0.0627950816967763,-0.07686778029829228,0.05226929690044317,-0.007742628017076641,0.0511039016825379,0.06878989662825129,-0.0474524924081197,0.021886013901154057,0.01666286000809719,0.057971200650992774,-0.03153024902903695,-0.03085053800405056,0.007841884423317997,0.03569321155066384],[0.06155104679692494,0.05383951648835885,0.031465106287274475,-0.03575349946266345,-0.05151837862449851,-0.03175364746809614,0.03261710346034335,0.0009862453955091547,0.04778621174300106,-0.0021948455738899073,0.07218465578086114,-0.0396885388042316,0.04927943992149254,-0.07028080580860453,-0.007410066975199489,0.04197886465111956,-0.07112781225108834,0.05571845823227616,-0.010224376545108452,-0.07046788372009066,-0.06982756321216,-0.010703005739972953,-0.014314375616789943,-0.03486156057318499,-0.021553321369842372,0.03710264372511351,0.011807816616406858,-0.02267517364499242,-0.05831076882566959,0.03937818618080039,0.04681434486836118,-0.0014248059552032315,-0.032572284769808404,-0.036361965483925326,-0.042057822850509005,-0.03581332351226226,0.04031596212425007,0.0754903349952299,0.019271902051781448,0.019727498999882537,0.012981147312209966,-0.018953716917834006,-0.020233195854583573,0.011084956805201983,-0.01449657384039555,0.04176797668057279,-0.05418593918386301,0.01158327324426856,0.0736352668191852,0.020945946677416987,-0.036097601509260335,0.04819068849423255,0.04211948657443655,0.0391971060931797,0.046159078572304786,0.03113982119437528,-0.05749761120703168,-0.01897543953500915,-0.029653778522505992,-0.07436745247527793,-0.045962672173082676,0.0282528657506204,0.014728350180234273,-0.0009505509369996123],[-0.05349406449901344,0.0461394967563334,-0.007599611703712097,-0.06858043817481527,0.011718200714467384,0.060223610271497315,-0.06868735285322694,0.04427935082950515,-0.07144015076555538,-0.004700612327047709,0.06320286803359743,-0.0612750271863349,-0.06135337369211144,0.0691591782346322,0.05523708427929508,0.07473388842417922,0.03404313077542232,-0.029296218409387804,-0.051203852330400194,-0.040271234299829886,0.05041044789709343,0.05805661580812741,-0.005254257690370629,0.018338603427614664,0.04582648357950318,-0.044637181196635366,0.03174409982312664,-0.00792270752877593,0.06219817072615179,0.04410177967338842,-0.010710264839750417,-0.012275748927906649,0.018400679690572217,0.07779608122786584,0.06295515823347432,0.04480480577732097,-0.021558278694942833,0.04719859363932017,0.03449311499114738,0.051811748397466405,0.07136220123320008,0.0724722966337766,0.05646817780352746,-0.009244310274291715,0.0771658069146547,-0.07679592312671699,-0.001132907044864154,0.025982324548745352,-0.0742595879593262,-0.0016633397464824377,-0.010941805754969867,-0.01749907247941746,0.07259969720543759,-0.014757922658203144,0.01813657966043199,-0.046970503795890205,-0.04992710713410756,-0.00650550733591099,-0.0073795421610548554,-0.057801266919323906,-0.0010943304304534974,-0.03854562488457379,0.06193030727013383,-0.0037507507805229798],[-0.055017446762405435,-0.057612736616743015,0.05201952459227501,-0.058904628366425134,-0.07668666365556912,0.0698759633244846,0.0012294052694349438,-0.02001237177127277,-0.03375652349797784,0.06744559029180398,0.013457076202688207,0.05787212589476503,0.030999367584529907,0.008158658881936082,-0.015257426394295106,-0.005157204798950047,-0.0015551149564008953,0.03681726008030567,0.07157963562932247,0.04173276499568695,0.06639846575014845,0.07411415580919539,0.06100665658333466,-0.05999689974279559,0.049492595681759184,-0.03447117565361131,0.006432458759016479,0.030453793178564375,0.016935968507857682,0.037369594289747544,-0.04977889431059993,0.0276265052051068,-0.07026406781588757,-0.06124639554327547,-0.015941364461436156,0.018617788600291167,0.00043985035364537214,0.07291423073197455,0.06417494042487937,-0.0071914438115423494,0.00509458179630286,0.02226590519331866,0.027934137412700958,-0.036183040997361374,0.025025026348798596,0.013021812131082366,0.026554883150727057,0.002551295726086552,0.04735654628364624,-0.02358765365905914,-0.02408992869987459,0.06027665011362191,-0.020441113145843914,-0.0524783920068323,-0.07212259512830639,0.01894165423232783,-0.03805421603515918,-0.011525513460686913,0.07076867352299271,0.011532873413645419,0.02425276843897913,0.053538605586968026,-0.015434140203113542,-0.04959080692426877],[0.0699685407008712,-0.04753134616884323,-0.010869977537422545,-0.04709128444893014,0.04305896775737856,-0.027648001698532643,0.05937023374715455,0.0683407363233201,-0.027872808406077948,0.07853834128967987,0.0714499484242102,0.07292617045920573,0.01570891255404892,0.025136867366548497,0.025984749211452687,-0.033388507252656054,-0.016618911889991293,0.042581566258524994,-0.025666979935974818,0.0637010671252058,0.0038453949500093436,0.06648045755411873,0.06702077904265637,0.06305531185999759,-0.06576527250653245,-0.00717083481634624,0.07053191219291403,-0.01334568183773645,0.048755074579152784,-0.07166736681407311,-0.040102454775499195,-0.018161242203460135,-0.019907208829204652,0.025778243266415608,-0.04247796135750588,0.06368253682981495,-0.058990725276696535,-0.07155008138767817,0.04616741829533638,-0.06257263587454784,0.013523125389831529,-0.029301310946709236,-0.00868443032369616,-0.06250558596905162,0.07714346718486043,0.04277978739346488,0.008819824933909998,0.06165183039029382,0.0062428123747480845,-0.06611632596471166,0.062407179749767165,-0.02576981152925254,0.04633521395369745,0.07818441819327243,0.0569052544405738,0.005629405706095993,-0.04538290753624612,0.06803667298235903,-0.011040993003491746,-0.041420147862203306,0.07066671397534284,-0.06813708240076678,0.044985912714469216,-0.013116614848736332],[-0.04405216706910298,0.07556891406868055,-0.0757211149366697,-0.06096516763975587,0.01921697962920995,-0.016504868521126464,0.06372350818894106,0.008870238693706295,-0.05270929394021679,0.04851560080562461,-0.03877615410279715,-0.012063419554025649,-0.003917688930629949,0.05947404596303656,-0.06803874244560634,-0.04215075058121805,0.07354330685618518,0.07523862084845924,-0.013654722868854604,-0.022246101213799878,-0.06222941490144868,0.06206312005788791,-0.06629980258477254,-0.02839879322034833,-0.02540899299717869,-0.06179409827385743,0.02699565131860783,-0.0098137099469697,0.0754057768329983,0.017756041873567375,-0.05855200200528723,0.07627627109184869,-0.02319240626279122,-0.05092925294993765,-0.011629219233114186,0.022064497266589152,0.023704687124958976,-0.06906618116970972,0.03587659186132706,-0.0272336368872222,0.013641723487989272,-0.07510977315224518,0.009997716008572612,0.07699868890354852,0.0509762239722008,0.032663991715815556,0.015782497416740794,0.07255977330808952,0.053331604972659666,0.03027774869611006,-0.009550652029001858,0.025407767955512073,-0.008786936214093726,-0.07030896160087469,0.0236957971781555,-0.07382313052459996,0.05884744023883017,0.047565071720905225,-0.017525643987502195,0.011341742022852621,-0.03866268698271892,0.02003342357101539,-0.00803668561071438,-0.0652765436332743],[0.04683327106532405,0.030480388354563015,-0.023885265875157883,-0.047148938920293315,0.016524812953239338,-0.0661621473611661,-0.06729348767942123,0.07805874731347355,-0.04305995017187976,0.03823734546705642,0.06139656402709999,0.02946573568065616,0.0474476136743276,-0.06951590437688013,-0.06365072244195728,-0.04646161309194027,-0.05581934377192657,0.03611085968068444,-0.06736745610183256,-0.025904942689138753,-0.07101097931322627,-0.042823142245410735,-0.07384767133561998,0.018322349981407336,-0.018430027406725093,0.007564376196970303,0.07286917922375626,0.003438972075606442,-0.032180733355799254,0.027320267370855418,-0.07478909117147492,-0.0015857555991474793,-0.031814835831227024,-0.050052812052163616,0.06912146336021971,-0.043448420720457195,-0.0009877583583565914,-0.05701717676803884,-0.044715971729213586,0.03704052387287062,-0.04740204806793521,-0.018947198997890793,0.033208409344849886,-0.06557056818569688,0.05881139791481847,-0.04808370277078767,-0.07885501333537114,0.07192486955350788,-0.031116691587935008,0.040912173033635174,-0.05824621485138957,-0.05156262695926613,-0.030816814751902382,0.05840180383343365,0.04838392967133825,0.02694633651846088,-0.04628487886949586,0.06913482095393195,-0.01032915639530525,0.05056046196743381,0.07897566618218517,0.03513079633983829,0.009589476454991084,0.0325152636244523],[-0.018968754432749733,0.026068811658104932,0.013988380782206352,0.06936270433057513,0.019419424503193485,-0.06333466414631354,0.02428737128684563,0.029659548822246987,-0.04144715294879871,-0.07573161700514378,0.03286149178488447,0.030831641555484908,-0.028718267210552303,0.07086637917391446,0.0659147506126151,0.017555345240562674,0.0076705891358535075,-0.04585224339513511,-0.024215406656879695,-0.06484399722270823,-0.05019217289456448,-0.07590932810865347,-0.022950544848064306,0.026481670771906333,0.06597079601946523,-0.02243135904546928,0.04697059690319042,0.06387576091396534,0.018460193036735278,-0.0064143843245611015,0.00680599944861593,0.012306717277059898,0.008970190559227938,-0.042691766439842654,0.06054292066024229,-0.027094617142520143,-0.004087948100157991,0.028562456892345465,-0.07897326590148158,-0.04457327528303778,-0.028583837314336776,-0.04561119830948284,0.0438780963156528,0.07587674099927272,0.03267467247737237,-0.04300935641532058,-0.023729559058060398,0.01810485803428475,0.0003224736137514224,-0.03639957732372544,0.03947772526698956,-0.010458691397424396,-0.0769879047735278,0.022884560713117133,-0.016467464757679205,-0.07481885149215761,-0.016293989820318117,0.03176884010267125,-0.07716144533161226,0.05916988550353559,-0.023123506089614086,0.06878737795906685,-0.023791830655115136,0.0012362091778188274],[0.04007713402397148,-0.03565279875701328,0.03932233195496139,0.029133347679107507,0.06534639924297757,-0.07147596094923553,-0.0643536779753746,-0.07658073862677583,0.0028062992238769946,0.028739595244201374,-0.0024359839512659233,-0.047722677812862026,-0.015909509144234633,0.025769611090522407,-0.02146008889026061,-0.013176493569142122,-0.0667264592494393,-0.07626847233876381,-0.03837616277740664,0.03035201560698536,0.012531676316539593,0.01619528352599571,-0.0328062743585488,0.0556280268074311,0.026380661964164793,0.03273747706723981,-0.053610244533173014,0.008662979599948162,-0.015980963095639088,-0.012487558645452975,0.05146539962751608,-0.0160386008272186,0.06884321313401726,0.014987185079722534,-0.07059748854462354,-0.04997071411114527,-0.02337154869524283,0.02066997192597453,-0.00896342366591105,0.05765921966442705,0.0048928691198295736,0.04269332275727789,0.0698229517161171,0.056493226396070746,0.034660062211020304,0.04451703146365114,0.05137931640223238,-0.029494636194421643,-0.011566025076687051,0.03494182188299791,-0.05042462743498698,0.05087138344445618,-0.018912169028450204,0.009319909303275803,0.03580121543285576,0.05232960372897718,0.042532628474857136,-0.00754070718554452,-0.029758614043184698,0.03254848772043682,0.011657775820326228,-0.06752512703580975,-0.04188434238796918,-0.016819866243325227],[-0.04164903706419305,0.05610095375981288,-0.05902293787337895,0.06405648357099979,-0.003994337977830767,-0.013144821737147084,-0.05574611092819515,-0.06283321191670956,-0.03756483685148602,0.028385970781245412,0.05519716975790244,-0.03309961210916214,0.030095420621850142,0.016703330338206316,0.06993570148719704,0.03968278480618562,-0.024492073352997062,-0.056033076738631137,0.06084094870187736,0.03434378803904295,0.05958554868840268,0.04473065704244053,-0.04144144827330739,-0.009805194907330565,0.0014673411161535421,0.0567126427429626,-0.043010757552189124,0.062030493848789246,0.0612933164924384,-0.008431142355242446,-0.07008013349592886,-0.0020180240249704044,0.06179882574554838,-0.012796678929556044,-0.03076498158274681,-0.007703986597237606,0.020756972462318165,-0.06768878420735144,0.013775869938486625,-0.06388834717229588,0.00984063068619406,0.013727901114045666,-0.07613341352513966,-0.005062567370541677,0.04985356061531296,-0.02476260652673217,-0.06728834712746494,0.03792749430081019,-0.012661007680666692,-0.016212445340385514,-0.016976300848175276,0.042514219521616756,-0.018074275175590692,0.008339793480496934,0.06464112774475508,-0.007787131973947012,0.039748684660491196,0.06794211108592568,0.06683853301831624,-0.020090441358781436,0.01441343686699271,0.044874863485615014,0.056040985482106155,0.04712404651764892],[-0.05300100493092986,-0.021853513274864383,0.00020976588550544235,0.0002991536488812854,0.0005092244545686624,0.052123659027952865,0.01624281506639552,-0.044128812777515736,0.03495539591835698,0.055142147127197505,0.06811733123564262,-0.012615578870200197,0.021019897251544576,-0.051070873217438306,-0.007994727876940062,0.04285087604604989,0.05348035702234697,-0.016935026323545096,0.005524956466830771,-0.013510170128102978,-0.03148353626439268,0.0720672957011574,-0.05300569247581522,0.06725848592606984,-0.020503675322514847,-0.07698714003036732,-0.014530830098311777,-0.01722716912041923,0.06589990782283017,0.010608867162243778,-0.004463603604522488,0.053060067243531635,0.03364720587802639,-0.06017539775575398,0.06410576965964175,-0.05134082461863041,0.029601425331674792,-0.003852776228515028,0.0706946491775712,-0.0017095915242510227,0.006885786827074097,-0.0076335588950452804,0.0769037669917966,0.03656637253791683,0.05985891285772836,0.0599233012597349,0.03308492441667705,0.07064020504960475,-0.058130340447106896,0.027637115849655638,0.06990029842468774,-0.06432913363885016,0.006116411895100976,0.03306474629743674,-0.0012165431184954294,0.008735126305004679,0.07821242909337302,0.05811134254286564,0.004924522053273219,-0.043866818218040345,0.056642537698257556,0.01219841694556149,-0.01095111570125548,-0.006017909262748323],[-0.007286660473373606,0.06836475816684263,0.011099811203236613,-0.02637839095959417,0.00819521600249297,-0.07423874794779979,-0.009005354846820897,0.018851768396629515,0.04562114358194728,-0.011803957902466829,-0.024792116045317687,-0.057300258790777804,-0.0352986452263184,-0.042550368771865986,-0.03888210313744793,0.019573293164689844,0.014677970077091006,-0.02281768045384382,0.036242118542538254,0.060374725521821444,0.014949050367446965,0.07725245811598917,-0.008644897577443732,-0.060088514821601956,0.007576568330155193,0.04607170831534334,-0.05854539497193029,-0.003348198257257283,0.036315015069757706,0.026345384008209616,0.0029401430300838834,0.07877926773470237,0.04672455509222453,0.0198262471158389,-0.05620853062804209,0.07806963594915646,-0.003505182545514464,-0.05291927925066771,-0.012536151740135573,0.03738520337819386,0.057861853066999924,0.016705271229168123,-0.07721828619887447,-0.07027027251559866,-0.028602098886004877,-0.05226681940839258,0.0639397387454303,0.06781007941090285,-0.05416855731756128,0.02124509972568472,0.018791243895596076,0.055641225560339146,0.04844146866356899,-0.04965382412858687,-0.04297705955553854,-0.03455810808593248,-0.037257511771796224,-0.0138182083237712,-0.07875369880374124,0.04084049901013283,0.005498742444419964,0.03491940541662828,-0.06318367612077484,-0.005783488172046552],[-0.04401879648213238,-0.07712035752800252,-0.05734519666284458,0.023325495231865428,-0.01360063421575778,-0.026704369656127012,-0.02626345654820788,0.045282842688654214,-0.055895051292975326,-0.01715332453451048,0.039120331731060005,0.07254845128603549,0.01836071736597587,-0.04630309918741011,0.05370426282482769,0.07238467908000441,-0.06609218652777529,0.04727185949859743,-0.05772306091445713,-0.0701466257177775,0.00515264819272586,0.03456626187478572,-0.014235084529037191,0.03154486310916232,-0.03099124658468789,-0.06007333834871771,0.011531217259376308,0.053373641513883976,-0.04859204785396624,0.07532146108648399,-0.023647825616462375,0.04146690256653835,-0.0699694943113708,0.015771113329472602,-0.051937349044161,-0.07427733212248881,0.011746407528750773,-0.01116685477378097,-0.062499173815027856,-0.075385540124987,0.016999734225575363,-0.030456769865848207,-0.02039811005531084,-0.06315142334061158,-0.05410989872495339,0.01162867248117466,-0.039493413474063585,-0.032924751186716235,-0.05013950486066547,0.02701827491440967,-0.026713834943990416,-0.05807047899248165,0.015175030404395336,0.05345424751468835,0.012424775045507203,0.02000365570510767,-0.04046375876410004,0.06265912940154164,0.016526078608733914,-0.0615832587845666,0.003135418240695575,0.03284123850241191,-0.03507754152691097,-0.03008377866437893],[-0.02776252324197268,0.0099927269356609,0.0028268281634393376,-0.06752061350329229,0.023032482904848644,0.04823166143851839,0.013888767354917946,-0.07809168184294002,0.03520667684487971,-0.026695203904037918,0.0020826491481252415,0.002448662323750539,-0.07130435026169345,0.048221215628835176,0.0034892724510135593,-0.07931546138712654,0.07721799173176175,-0.07452710651188017,0.02945437282914252,-0.06616573663229722,-0.03442348494205895,0.03441721220403524,0.054739050139830554,0.03252415260220092,0.060006043628518704,-0.040409095363735624,0.011018435860080392,0.04801266120107922,-0.06370769810243815,0.04164514155121315,0.03461473589082336,0.0708247061009031,-0.02620852170875001,0.07263550189251827,-0.015110345084227306,-0.07499006614942967,-0.003404321765208396,0.024953175054619265,-0.0012325700753685533,0.044234975323029675,-0.024554601274405237,0.06398675789373397,-0.06946390307683786,-0.015651358274622863,0.013535707523281513,-0.06805046117523661,0.061724528258875505,-0.021796561693616344,-0.07699041341054455,-0.06410339773673202,-0.04326265572044969,0.018044863968810138,0.04698699286984518,0.07149968549792567,0.05828960897866952,0.07279439594582146,0.04742770832152722,0.03044401890033138,-0.06198706521945018,-0.06279277770503451,-0.02683064913377396,0.07447022267932149,0.01831621749893322,-0.05638264626498138],[0.07579531719974664,-0.019463767237288026,0.0225516123869677,0.03621027799495289,0.05587027536663545,0.039826629782568436,0.005674149008359856,0.026777261675254734,-0.01780634075857716,-0.06516006404452304,0.040914019093696706,0.06800837267341042,0.002939631118531042,-0.06383192849231867,0.012576398215275522,-0.0025085997164238237,0.021078818727051217,0.017069416907294608,0.0236955886961936,-0.05833386547534613,-0.031025057994377082,0.027462311512367433,0.012141481995168157,0.009061408888025719,-0.008859339491180772,0.0736220350942724,0.07051507742750701,0.0001374691319485547,0.06967928264573582,-0.018090156468695273,0.06597760059473268,0.04407489020176118,0.021251121002410018,-0.016911353369358947,-0.005911653517095093,-0.013087968916145162,-0.00019183569377668092,0.05072257725517166,0.03515992610714046,0.07546029837256579,-0.048892665753616935,-0.06193530993908682,-0.07718772286399869,-0.07692059180630878,-0.016465318934107753,-0.058261924146250865,-0.05041732951783813,-0.06291304079952101,-0.02004082715169019,0.02249610826220994,0.017643811260352516,0.035626986589567325,-0.03766418860300799,-0.047782869612706245,0.0609468258742438,0.054274348429528385,-0.028074871770018762,-0.041283609756420855,0.0645188563068296,-0.011021175269149664,0.07261562316623739,-0.04957353119341051,-0.0771943987417385,0.006729722991062601],[0.002644870041489303,0.0787187802994058,-0.06479334041927717,0.07133653206308517,-0.05138528488764488,0.03573709426972949,0.04589977170186318,-0.01029527332779149,0.031207922766460144,-0.0005696633797689844,0.04530070177774326,0.05896032065903425,-0.0446495121323724,0.004064205230410005,0.03501158691510091,0.038741946216187935,0.05807110225383114,0.0626106117623856,-0.011218763573859794,0.003806154245854287,-0.03828867248445524,0.010415371987812037,-0.07745596424310497,0.002875203059997734,0.07623213017791382,-0.03896020929160043,-0.028501756406987423,-0.050086813720825324,-0.038242565430199396,-0.019539392327708592,-0.016619760876396203,-0.013574935951312851,-0.024244892880088107,0.002948288737961467,-0.039893960198960944,-0.01992641822599305,-0.035221521463796805,-0.007873882691212681,-0.01848153761137018,-0.06904755828715242,0.058730777832937495,0.07759718785062072,-0.05551385493708941,0.008900666275633688,0.056712351764865755,-0.07218198473577604,-0.054007732017137454,-0.06073519597581885,-0.02508093968495876,-0.01564423037438754,0.008734133756608219,0.034721952421759635,-0.017615030610605254,-0.026325063599107624,-0.00622128830325392,0.06592577261130263,-0.032255029525212135,-0.025514867748545465,-0.033560566478442674,0.04718643011713043,0.003110137347787465,-0.02411815865349178,-0.01971032099431997,-0.04181395242370065],[-0.028966776614028703,0.033064153265604336,-0.02575622426671826,0.06435907730546767,-0.0023325814295993667,0.016142000331610874,-0.0005423093451516684,-0.03216112755632345,0.03870031694879524,-0.020735272810061465,-0.03447442507363453,0.02174088223344361,0.0036393768496901947,0.05076036393809675,0.05339289251990595,-0.032257434153884525,0.0238030006790653,0.07373630669367183,-0.01942986126282888,0.041072784096610165,-0.02306091860784218,-0.03481274938285525,0.07874509780634045,0.05005047241386422,0.020275229870216353,-0.00470023392270286,-0.015446983853719218,-0.05970540805146791,0.07554496370183297,0.018243071085616385,-0.048801843951345535,-0.039129750216761607,0.0003266119478262604,-0.05337233183683349,0.031008903073827275,-0.045232577647071476,0.06826683041958861,0.04314182777981819,-0.07138186782317318,-0.04681515867514836,0.05210431094487197,-0.0030951577941115607,-0.052407362605784484,-0.056884048940436284,0.07870729221581681,-0.0584698659230385,-0.050578240137963824,-0.013193823135774203,-0.05415627097257322,0.04171670365703298,-0.042627277059984946,-0.028909901761498352,0.051238369620841655,0.0221773859222155,0.051098938132873625,-0.012650364360115176,-0.03756417748245485,0.03819408405385919,-0.051242275859862414,0.026520022738873127,-0.05105041231097017,-0.0650279575592591,0.04907238169412348,0.03731226897359717],[0.03130164508056364,0.07395027955424265,-0.04265838005106544,-0.02961583060308613,-0.008342802955863194,-0.031410758762636916,0.04922394288572285,-0.07532964244982616,0.04676232025770777,-0.005430609685838465,-0.06872521570095246,-0.04178227988290875,-0.06797376435690207,-0.0722081233550723,-0.013481279648585927,-0.02865994445374752,-0.0717899179044976,0.025609043190787568,0.01785659035107665,0.013556262220849309,0.054168070014855074,-0.07850513876543405,0.006481476163707729,-0.05263489363050615,0.04917798597135227,-0.06437969540325268,-0.043516589064194124,-0.05704802347602041,-0.06626758714484772,-0.05495944201918896,-0.07051002209563281,0.040781445521981464,-0.0007426155887988718,0.007438805197877081,0.04845097940037841,0.07228463922053523,0.009094127459497831,0.03028137563354993,0.04060827631698857,0.025082109048646516,0.04748441139648091,0.05306713528650615,-0.016437238679811717,0.038781343741577524,0.07196434749449183,-0.03625134079983467,-0.04967344533122063,-0.06428571356396032,-0.07856594069218041,-0.06786160499151545,0.05229021654830126,0.03361524376212975,-0.0028660927129375282,-0.026309568855949147,0.012513795651279743,-0.026288065064121787,0.021206230505595527,0.059231400906527884,0.01746722143876789,-0.0447949221869375,0.01185246913593639,0.015024595596080896,-0.033882600674432994,-0.0374339070508141],[-0.05674738604360598,-0.07810085189080926,0.06766012384853957,-0.043538560517037875,-0.061624702127162784,0.02843473483747916,-0.07057909021262787,0.03373841400255613,-0.03768352826274761,0.010018570411108992,0.029765785356517346,-0.03885430416363818,0.06669342070492208,0.05188923212474532,0.022305100565716423,0.0464548144670832,0.06629515664118361,-0.0658766465327326,0.016503389741406967,0.06320518342345892,0.0500635182595139,-0.028013412159163927,-0.04168076444828898,0.013727900116832342,0.05113102610669285,0.07698541374353335,0.046291833298190296,-0.03753314468828514,-0.07090327234605955,-0.058653710086624754,-0.028718443927822954,0.04039842414842033,0.023786803821111088,0.07145431430914816,0.034629386448617974,0.07382839815227053,0.05051571492384337,-0.031612616875186475,-0.06128330182354671,0.05739528009652006,-0.05392012815896361,-0.07592991490510781,0.05994352716687367,-0.03250616946817136,0.024459810500112193,0.04398674367337673,-0.07829842720041316,0.052690065368906094,0.0039508136942537075,-0.0654341546015678,0.06465093204632535,-0.03733419197095205,-0.018740286745429473,-0.0746773810161995,-0.02119433416792299,-0.03296539069282579,0.022337258063614016,0.0783153428177658,0.024851916851037523,-0.02946514170824674,0.0009725047444226833,-0.05094422744829076,-0.06288727984695089,-0.043737371812645184],[0.05476865844405634,-0.040006682353618296,-0.05697242363802188,0.03176461426386653,0.07682828588704686,-0.03844744340343669,-0.002509625757561701,-0.06407132482653514,0.0011395679719535831,-0.03012594099902829,0.06137450449171667,-0.04303102775014849,0.029271349169509034,0.020305157714169273,-0.023846882891902097,-0.014127085472374862,-0.05137142958587769,0.01500689173999448,0.009422064401530445,0.07411441017954466,-0.05869159753345877,0.06884550446996524,-0.04222644762705208,-0.04663774792930241,-0.06955226785043148,0.01311412628721771,0.02146881663326198,0.01932565870765621,-0.06606926175417455,0.010311020561483327,-0.06233028531490345,0.05315945862323149,-0.04011511696544733,0.06034255737063317,-0.055279019934731576,0.027607578588216403,-0.005392747921934124,-0.07413529941327585,-0.02313480327250662,0.04735249692815552,-0.07878579269795577,-0.0704484689918816,0.03539416601766844,0.06720420463311864,-0.03536344684784132,0.013179296725022358,-0.0052152379588838015,-0.06831410140638343,0.06918514513711232,0.04115284949554174,0.04215746005088438,-0.042621038685723076,-0.005733653142831732,0.050147091936653815,-0.0060767684293057045,-0.06766718284758122,-0.005414704983409831,0.021668961969268586,-0.03602641974277793,0.010245792118447188,0.04370316406574707,-0.041439771909310655,-0.01876019437475132,0.02965507860681883],[0.07428457748027296,-0.012787114283624782,-0.0015211739524762166,0.03186204254944697,-0.0721716186511066,-0.014250532244935579,0.035370943518726994,-0.059157169059493045,-0.07319072039255434,-0.027264529147475992,0.04534077318220416,0.06613937121869778,-0.01207665041129708,0.0443253094443474,0.03957518915335237,-0.008066620911035743,-0.011158021361027424,0.0069118105156872785,-0.05619994244077672,0.06005086813296113,-0.07734368953481566,-0.07700061447523286,0.03984731697126128,-0.04108829393649341,0.011601023109048605,0.04199303221513812,-0.07538171889897036,0.04707497815536865,-0.07389922510890902,-0.04979959669551946,0.04165812199561268,0.03265358584065547,-0.04642046897362912,0.013061960290771266,0.054393312228679595,-0.03560289831386877,0.06354794398113406,0.03971815106400936,0.052829972299680276,-0.025737100053832593,-0.05754745632777944,0.07484225111702447,0.026077849452051365,-0.04545023313833254,0.024448251869354266,0.04850491766892604,0.036595315721646246,0.029611609481708087,-0.05805767993552103,-0.05612840192869119,-0.005512766609041456,-0.05022581466292044,0.06637288243731908,-0.010276888392969174,-0.05910720438011718,-0.0013592750548996383,0.06338316863244078,0.046058670557342515,-0.04446612529325054,-0.05762804488419354,0.005942496341215319,0.003989730683803308,0.05413857789550369,-0.04204825866792281],[-0.07060230491979427,-0.0294185348805292,-0.027855508612773538,0.020771066459538953,0.04967098845827966,-0.03861590445315842,0.005558531361873424,0.012895737879114185,0.07437349294942734,0.008287251893733702,-0.02889316137369689,0.055565872659163976,0.02037096007814858,-0.04541715132416923,0.048036578557351196,0.06198601774693769,0.06105885921781861,0.0686684497047579,-0.05797758102377024,0.06328341754992588,-0.027049275072811133,0.07202798662529583,-0.04997732173714985,-0.07711347363475994,0.06737624281788553,-0.026724238771613888,-0.03173455616337562,-0.044271906811604166,-0.021815338444723817,-0.027009008819242855,0.062187881396340426,-0.026232374258088054,-0.02015944334102211,-0.04595488454660284,0.07511283070386134,0.014977686374909366,0.06349215255820966,0.06921340504879213,-0.0030171962106766465,0.07731494470881366,-0.027893761614645986,0.05187885958288904,0.029291640092202018,0.07257729878102806,0.05216634521257002,0.0616821361629818,0.07846290972066076,-0.030128301991291604,-0.05408323337562387,-0.07698480055298164,0.058301332569013854,0.047066806116187763,-0.055782168159484696,-0.06798936846116026,-0.011569136544094262,-0.05921225004600375,0.055716133265002875,-0.049078992731492015,0.0021303955476314968,0.03356111383326438,-0.035634464590193995,-0.07287065059194876,-0.046329524511038396,0.05421747099286119],[0.07443609474986121,-0.060765275973976005,0.0228962204413243,0.027701996718952234,-0.009048510075567883,0.06064533790700777,-0.06974819693976664,0.051620125125004815,-0.04612157685737763,0.05576764227921663,-0.024996764273714358,0.07746123975251051,0.028758775709926847,-0.018299832436208203,0.042860008268746405,-0.06507121105746581,0.05559530956164921,-0.04115069197833089,-0.023261613509898946,-0.020107932765451125,-0.013654157894028558,-0.017489386959017868,-0.050944846220084945,-0.01355275247225934,-0.025335617541299003,-0.01940816760095859,0.07620086130676924,0.0016985149373746715,0.0017779989442346911,-0.023933450063881343,0.0027705334137251136,-0.07826517284047727,0.027602929925501216,0.035556811644182916,-0.061165738919632465,0.06420361324558063,0.06601170328158071,0.06948744752412021,0.05196959142513271,0.011372928863536776,-0.03915662262293034,0.027115685923946926,-0.03856992219267473,-0.027456578716208727,0.03810404278874763,0.05840384816051694,0.04658527289873187,0.045131311715379825,0.04718730254269462,0.04024563373503762,0.055834392010959875,-0.048061490665519124,0.030890462842796344,-0.00961060515855935,0.056062821199961074,-0.023740200410173273,0.011233846463436501,0.0170484065103805,0.05922257482660416,0.051321752714088745,-0.02195933779001101,0.07817215237866361,0.03274586362905538,0.037123475003731206],[0.03876558280546755,-0.004868690319764739,0.05173364555577643,0.002604943196722464,0.023863485915977364,-0.02741026231358921,0.04353196861752869,-0.07881313793207675,0.049866811402375005,-0.036767326541377106,-0.021867352404245064,-0.04010204904916044,-0.018816326570683953,0.0029999056076117853,0.023405288277355107,0.0651619104320312,-0.00033941212464898475,0.011551071397845065,0.06722799751474157,-0.049413042392137445,-0.017739697199402854,0.032099415073553,0.043441535664855764,0.020963670356423252,-0.007453746887124631,0.04721242272439939,-0.07830197493611084,-0.020360846628139775,-0.016640101368648606,-0.06966742473568975,-0.05507103392598127,0.0027505106084166706,-0.025226559125858805,-0.025169265138607375,0.06117489190398236,0.044647932205905565,0.021999346044854585,-0.07452196293170954,0.07751375123529287,0.02224033537375698,-0.04529305176898212,-0.049932888874064614,-0.07525410334850009,-0.00893668339562601,-0.0762628758284189,0.026418754249166728,-0.0597760950746804,0.06401281400374255,-0.01707624310598193,0.048304364314939424,-0.03491601849147932,-0.07673393181745733,-0.03527998153473891,0.02310170017728064,-0.010894581919109811,0.04322737774318633,0.03230421516573977,0.023877266179565003,-0.057883789890636465,0.03925339672804213,-0.01388217992726042,-0.050237133717500285,-0.01697925217178832,0.03296178097610559],[0.006267931308116023,0.048392574083524716,-0.03233682672955196,-0.06383645220805023,0.07561414082465633,0.0211751429346832,0.028786030709041777,-0.04890975529344416,0.025441606068745896,-0.027599613059625258,0.039702106857835706,-0.0010276288235405856,-0.017499874251032242,-0.048944744252888334,-0.046821966544800565,0.049653320813888235,0.07003376396459739,-0.03315769801048702,0.06670330365563412,0.005765315649759368,-0.024464498467216104,0.04730854657481084,-0.04673057260678549,0.061392206521553846,-0.010764595535169152,-0.077882031202241,-0.05440556275780872,-0.043434857234904825,-0.06628730111912688,-0.04895503788042575,0.06988838993554548,-0.02240938394251537,0.039544986718888085,-0.058847880400729836,-0.07576431043356922,0.037734337628265814,0.06985209567981578,-0.04355365581432944,0.04629126526279687,-0.0029524975928161635,-0.056841567806435615,-0.06824547669069325,-0.04268862884132318,0.0549078888992188,0.0743478777199177,0.04417948726137497,-0.012680471987128666,-0.046920891393545154,-0.0758816908959435,0.06478125153881537,0.01724445270904494,0.05464194181680367,0.04919836540263875,-0.02178175572168525,0.06009377394406256,0.043256395784969516,0.07531386844999498,0.029768205986222266,0.06909785542304912,-0.013956587403835607,0.045400964191392196,0.04163548889184818,0.03478023690319234,-0.07326131431081215],[-0.019695619524266544,0.05769565061545485,0.016962559993349217,-0.00981457920531284,0.04107549380211039,0.009981615006031857,-0.013118604577640105,-0.030530688608680148,0.00222745733923519,0.05978356878870128,-0.03977506830214907,-0.025570868929568693,-0.04627179596126762,0.021323357643586952,0.07228159221732101,0.03951867349905534,0.006867103536708468,-0.0024811156041437935,-0.03660570226578108,0.0069166525792801765,0.04050747567434897,-0.044986492163640195,-0.03329724775271091,-0.02318806791613442,0.059652980417302666,-0.052483310249751614,0.04705709373073749,-0.07107692158570925,-0.006262698353088162,-0.03920747544327306,0.0398963845167799,0.06819768800003638,-0.062074461524326455,0.0026304259307417355,0.023940782888957512,0.04487708248712813,0.030110303081437615,-0.07410529245864216,0.04105159393526018,-0.030919748558187042,-0.07646480517943345,0.07616982721798611,0.01016195824187993,-0.0016191917202324217,-0.0020707772023912906,0.07393616674104556,0.0022720396787610426,-0.03675148821644171,0.06886282272229641,0.06541254992059882,0.07841356911916275,-0.06923832639242707,-0.06965842841705418,0.06965899336832243,-0.0050266074506868305,-0.07749237238497106,0.011266408097682522,0.05452971674854112,-0.0453974663977082,0.03430901962586232,0.040285559440290664,-0.015165315907169642,-0.05094220412546413,-0.013792628474880582],[0.0016767448815193339,-0.06219034694925974,-0.0630222970916881,0.06131034205305475,-0.0720722610039228,0.06099938555390925,-0.03408264284180046,-0.057235735467405874,-0.008019566178561552,-0.06626919418017656,0.03015644543227326,-0.0544362394567134,-0.06948854415225018,0.018015933324781134,0.030431563077746193,-0.02659938836186057,-0.05600954954363958,0.0009505635366572751,0.06490249781245565,0.054518778901613864,0.06684698995526694,-0.06847900231067831,-0.010530873164486608,0.030823439409979413,-0.016856928055867963,-0.02974400267673676,-0.06723236611517422,-0.04431443727950372,-0.025869447915651336,0.037527369493925385,0.045802483323020546,0.041207673057206205,0.05871461182581245,-0.07090036681606453,-0.05313226462360964,0.06733981571901608,0.04764893061387544,-0.018188290344398606,0.034363256516611866,-0.002536531446840375,0.010336978658353905,-0.07568325534199541,-0.0744353057400492,-0.05487377392658452,-0.03749059441078784,0.02452185709432564,0.044726472322489406,-0.06940125439206461,0.02427207294235795,0.020856892988764773,-0.04970401129624003,-0.028162328056154463,0.02647327495632774,0.05941562272975405,-0.024127069945872534,-0.04625392344565581,0.026899539458069076,0.013934333785582296,0.00356429464988615,-0.05989254504667817,0.035624218762722835,0.057677549813721654,-0.06656160573247358,0.04597020940481541],[0.005925324852903025,-0.06330464376203551,-0.02650549482192404,-0.07486256620325972,-0.07737222489215854,-0.041598820436108734,-0.024748958726816803,-0.03555234604235539,-0.07616757481128134,-0.07340662145437864,-0.060519053991569684,0.043106750492156655,-0.04164078351540368,0.07348490661695012,0.06870683359004806,0.016269951561295855,-0.021821165935389256,0.003653663724231558,0.027789883424884882,0.0007243092157305245,-0.04779746266469164,-0.05718899834488768,0.013611067965049696,-0.020574068833188082,-0.0005600362251019875,-0.042183790356229434,-0.019620115950249668,0.06179940135010661,0.02428659305648843,-0.025403804521715458,-0.05438493704488979,-0.07680197558629095,0.06178760216147072,0.06678244172115466,0.01517825793700002,-0.04070952126803278,0.05352751744860929,-0.0230977745287103,-0.06038065793546955,0.05660450542803438,-0.06909247720435764,-0.05952799697912272,0.06980233276670939,0.06681618014211216,0.06967018368781258,-0.00008051409887516521,-0.023622706554389878,-0.07299265076692298,-0.04610025024123105,-0.017859761381880227,-0.014432307575829136,-0.014511337266603218,-0.05210249197699193,0.014404601497112033,-0.0018444951393282738,-0.07047006669946677,0.01212704557901593,0.020740562119289475,0.03006825187047466,-0.07190297453503283,0.03825914704196642,-0.06635220858097753,-0.01221831714538373,-0.07494958658955096],[0.07078927214527464,0.07586696645539422,0.005048368811614519,0.03838615788227132,0.04879109269357346,0.04936667388155285,-0.07230822236504492,0.0742694665977152,-0.04305572530184807,-0.07709836019932535,-0.021784890954912824,-0.028854449574403977,-0.027955272770377165,0.06500173151035457,0.018477147558694236,0.019579790786715585,-0.056266497318048815,-0.02869156280284686,0.029753664153543382,-0.04809106909692364,0.009678867218518489,0.07746707152166615,-0.06810257942691002,-0.049507976554675405,0.07668988704897353,-0.011025553317551116,-0.033405989465579565,-0.07359608556120688,0.06738141151608128,0.007795984604120738,-0.0029302497624924375,0.02712797571429934,0.03711545353936423,-0.00407767331530132,-0.03865483446648904,0.015669811888065457,-0.06399967021229856,0.07543770541061647,0.07655186243562631,0.0542917177776828,0.0322644883095624,-0.01920693081816582,0.02557042013496199,-0.03444847443831454,0.0008632972074439218,-0.07207538034292081,-0.029160851424140686,0.07892108391745856,0.033861554506778045,0.006121605025444946,0.049266298984966705,-0.07344826126417157,0.06661856648667475,-0.0542001094298564,-0.015011921060884654,-0.06721810657552811,0.020209676566865908,-0.02460351283901014,0.047621917690708664,-0.005389248801703526,0.0661226068182253,0.07653407651740475,0.024389679765391137,-0.02238740895635771],[-0.05889036501328255,0.025666459599222737,0.010606958791172783,-0.052186632578796015,0.06885580670281786,0.026961350084288807,0.073473795962504,0.016763571523376392,0.04150334132762675,0.035135748356851945,0.0006401087573249554,-0.0776069373294036,-0.07282656158113862,0.0707287275800787,-0.02931484226734294,0.004164262461620053,0.007739209671424441,0.057449023392986485,0.061124125660680775,0.07038833612440831,0.06421282107275277,0.024826316472669554,0.058038903375920124,0.021079739158341947,0.0094296702453994,-0.0047714002298901645,-0.02032696049412479,-0.05700953208056682,-0.06222971499929752,-0.0441520601012457,-0.07063412873504574,0.01395755028085475,0.06808432432855575,-0.07199742622036577,-0.032330307259886025,0.05740891435911233,-0.012094605177454327,0.0638701191695842,-0.023518295249576358,0.04962599040464834,-0.041983354983655595,0.06851657931419078,-0.03695547184439125,0.003922363287680707,-0.0036426563431935528,-0.05660755626783532,-0.011708061881330492,-0.044772178170510914,0.014299559651491309,0.07272280220485211,0.06324075291843284,-0.025086704235374024,-0.05747607428184791,-0.03512758926891669,0.005603648925744421,-0.012488647661540855,0.03706062657090042,-0.07554754734255316,-0.0695136973719304,-0.013148220145689378,-0.04904047564348644,-0.036855781055216134,0.01495197609572207,-0.06305166713525245],[-0.07145333514508503,0.04108677987476762,-0.004677827605658156,-0.03416019872963205,0.04365068980603732,0.014480518227655803,0.05430372720783008,-0.0062542615105179175,-0.06681466436403805,-0.028826464729413713,0.06880423852724186,-0.000033758752281934864,-0.017566216338076493,0.004206671760078232,0.004413028028909034,-0.048625615693357,0.04012355042397758,-0.0110323297203778,-0.054116603079300316,0.06605943438116182,0.05978901518525051,0.06842905269046898,0.04800656706612715,-0.03843071880324829,0.046881048363656294,-0.0451641097489759,0.04322201651455234,0.06177820894988347,-0.03099656694183148,0.03458406984040648,0.014580293163333454,-0.000101605675790536,0.016200876473535707,0.04476415500894617,0.022384954136295297,0.03080357890433554,-0.03081263135660857,0.010263300211721837,0.00033676433077309823,-0.02578128002645926,-0.05305805729383216,-0.04997117363934988,-0.040517510826683624,-0.0717992463143491,0.047131102779062135,-0.039378068613916364,0.0412417772444065,-0.07408036246762117,0.006774425746304693,0.05575771500033416,-0.05577518826463004,-0.07482121218947034,-0.07285521090110808,0.024348479417961658,-0.021892455988713182,0.010572756864574451,-0.06755335532798049,0.03301528709862647,0.0426953394330314,-0.07501767389844449,-0.05896885901690624,-0.04053009129101974,0.04378941599195366,0.0014038453131478648],[-0.004384422637061742,-0.06952993946077625,0.06539216071525969,0.052981621720816274,0.041593255424768785,0.006544136710749442,0.07069274429478561,0.0751878367721347,0.06596748919981922,-0.07837730874549666,-0.008823368973748831,-0.0028300579452120445,-0.05169289521557444,-0.07350218624986125,0.012554288784920719,0.007011206417307963,-0.0016853945597456658,-0.038725743078385264,-0.06100034810794314,0.07537551445515756,-0.07079713353577766,0.009054992009826481,-0.027968100068110593,-0.04377004656811889,0.01691905661103159,0.0017133092532486836,-0.05961628206928151,0.05736224500452363,-0.042262022286592704,-0.050117877348182474,0.07083675245880594,-0.03930573503543827,0.05019317190055611,-0.02206626425173679,-0.007507763974603751,0.07366600933266042,-0.03781408674240592,-0.06491083439033336,0.0740633903209603,-0.061868511714873606,0.011528971911868548,-0.05640455621165136,-0.04110257503217082,-0.03700217381468714,-0.0040266316016135855,-0.0401693454564128,-0.0014869766295151996,-0.01771279421447059,-0.0220959520757323,0.03498248478946184,0.0158994039314319,0.04269282873670422,0.059667878445482804,-0.025548354847075436,-0.033515783173184675,0.0353163242310758,0.0782614689517444,0.02866760472316866,0.05056427285507071,0.07370965941502348,-0.008520808299872612,0.02075351886712725,-0.07244004079703595,-0.046293740806216184],[0.025486858612704028,-0.0758956663473864,0.020983076514153376,0.06286041640727162,-0.035290723857664706,-0.07626668435666172,-0.06421684890825675,0.06542677443008325,0.01765792810510645,-0.0763254138283131,0.053731379802970464,0.0157089358368987,-0.010706562947210464,0.04833596826859066,-0.004203341492560916,-0.04178083111277468,0.00984761530705122,0.055324447055428216,0.04937162218663851,0.00047548637038394054,-0.024983508828490084,0.05858457416305555,0.06138776151585738,-0.013771156930908733,-0.01759084727844259,-0.05291402116812327,-0.004661745715664625,-0.07092410793270137,-0.0582006443256183,-0.0034686611758922223,0.060593466742995164,-0.03151935945388521,0.05050633692994865,-0.0474565584379212,0.03185639373775261,0.07311544809491405,0.05393890841107539,-0.03381171208183188,-0.012259228237448629,0.07717307442776007,-0.03454782859788667,0.01895370234561329,-0.0028906165935780243,-0.06964045238889592,0.03124093924459492,0.07033609437395122,0.05977329251286192,0.0002509448441668625,-0.022292137079414465,0.019575156483781577,-0.03837632401445396,0.04299762652665196,0.04920468151022762,-0.056726236066823185,0.07727861960645215,-0.029222404267912803,-0.07644431069425388,0.0529138289333182,0.02528136830196137,-0.005712636282678471,0.05240179449328453,0.06511831301733734,0.004400186204697523,-0.02054203317849188],[0.03028824984015269,0.012267464184150008,0.060713333683719894,-0.023307920775947687,0.03629549525951233,0.055324762878122505,0.07766919831947593,-0.048051053130467425,0.06254792544648374,0.057470856403645486,-0.02718766949938697,0.022812075497691722,-0.04080915691338041,-0.05901476217570251,0.00022740903451248372,0.008503320715325544,0.04732583450561981,-0.06827641225479734,0.07571979948200389,0.032368022526009975,-0.029146507375277405,0.07010949793185192,-0.07632412714559438,0.010423346726659377,0.07744720279854891,-0.05822557255555057,-0.04721780865536004,-0.04004300291928361,0.06463674871213022,-0.00047031568499152104,0.04786311085184617,0.03816246554889368,0.06581139437579067,0.026873396855551245,-0.009084510897902595,-0.010827236441483428,-0.015091003574666818,0.012829704913813248,-0.056183530214573695,0.07777810880022017,0.020680936984529972,-0.01922014022802221,0.017208008255244687,0.01918021153644739,0.06440981090168223,0.00009660315778526097,-0.048737246356972075,-0.011637596179549634,-0.07443398658977034,0.06440496854615406,-0.02966269466724219,0.02358328253064998,0.017073952458513317,-0.043852961024005356,-0.05036923784312854,0.007094546535261646,-0.009738174589837023,0.03409072900026231,-0.026493762893076825,0.0016672116322912851,-0.06976790202860302,-0.018200560462872134,0.004511699191356142,0.027633222343190694],[0.0037978334984069525,0.020080149172484314,-0.06232438950208419,-0.01621809468536428,-0.06253528938497249,-0.07466857567332125,-0.049879926883267284,0.06808324566373933,-0.04048493096400481,-0.05085985010058913,-0.04259605766288939,0.0416955317582568,0.07237277572343367,-0.04370609053939985,0.07856030032755866,0.02101773541544843,-0.005507383866057603,0.022581275624480323,-0.01366079022933737,0.055506982694867354,0.07487475325090066,0.0712317876217896,0.03607462616595052,-0.05604579605055113,0.021087833983633942,-0.012394748361295923,0.03348633180678886,0.005783501529634878,-0.06043587550495614,0.014936306602517208,0.019338814663713007,-0.03556839016084881,-0.0065446231945160945,-0.014220674241435556,-0.03360706068242789,0.04905292840826257,-0.04450540627635731,-0.019465316219046347,-0.06702021861176671,-0.02332507670018372,0.061538245229765344,0.07407455089451838,-0.008604500720012119,-0.05471682456817883,-0.05848846906045824,0.05830466332729172,0.0021806962999176348,-0.0520208772315099,0.023819593608011502,-0.0199050439386645,0.0365573645407589,0.057566972854984716,0.03454770877332116,-0.05094868137958935,-0.03204814987989683,0.06084096273360696,0.008817870509178455,-0.06339969309248823,-0.009231334364565021,0.010794610895061717,0.06832880014586877,0.06574051100556894,0.028263035336662936,-0.03652434589898696],[0.04541445533173306,-0.01056761497642889,-0.05909064979234187,-0.03252357125700155,0.058514170709029964,-0.03788812150088185,-0.04078552626005135,-0.07207216560127132,0.07017470503700257,-0.06700388076962771,-0.07803140030574256,-0.029090302665129887,-0.04864305956172903,-0.02758096332964168,-0.008227906842758762,0.05390584607264229,-0.03392496699877912,-0.07110539358302521,-0.048993253995615965,-0.06313039283754643,0.003827730686712616,-0.07135238197553027,0.03139448903045195,0.05387065622060859,0.024209718760899716,-0.03689082757924268,0.05950471059645546,0.06456396710358546,-0.04790222885303565,0.0018527053163469585,-0.04053068041866025,-0.04831366951082914,0.00013737383325489053,-0.00009200307490376816,0.03630455574167131,0.07112252734290202,0.03060588394521974,-0.03162139031343765,0.05536481597442161,